export function gust_score1(input) {
    var var0;
    if (input[10] > 2.1800000000000006) {
        if (input[7] > 0.9800000000000001) {
            if (input[9] > 5.345000000000001) {
                var0 = 0.9716864724682509;
            } else {
                if (input[5] > 1016.5000000000001) {
                    if (input[4] > 23.450000000000003) {
                        if (input[2] <= -0.7099999999999999) {
                            var0 = 0.9380100027316424;
                        } else {
                            var0 = 0.9558531403400816;
                        }
                    } else {
                        if (input[6] > 76.50000000000001) {
                            if (input[7] > 2.095) {
                                var0 = 0.951469082133672;
                            } else {
                                var0 = 0.9262319292167958;
                            }
                        } else {
                            if (input[4] > 20.450000000000003) {
                                if (input[6] > 49.50000000000001) {
                                    var0 = 0.9425198073544421;
                                } else {
                                    var0 = 0.9186095505238965;
                                }
                            } else {
                                var0 = 0.9034920296594485;
                            }
                        }
                    }
                } else {
                    var0 = 0.9618216077950027;
                }
            }
        } else {
            if (input[5] > 1017.5000000000001) {
                if (input[9] > 1.5150000000000003) {
                    if (input[4] > 20.350000000000005) {
                        var0 = 0.9021703451330555;
                    } else {
                        if (input[0] > 0.000000000000000000000000000000000010000000180025095) {
                            var0 = 0.8860046562456859;
                        } else {
                            var0 = 0.8640436171847898;
                        }
                    }
                } else {
                    if (input[10] > 4.465000000000001) {
                        var0 = 0.92930552131375;
                    } else {
                        if (input[5] > 1020.5000000000001) {
                            if (input[4] > 14.65) {
                                if (input[5] > 1024.5000000000002) {
                                    if (input[1] > 0.38000000000000006) {
                                        var0 = 0.8899791578129322;
                                    } else {
                                        var0 = 0.9132249358423102;
                                    }
                                } else {
                                    if (input[1] > 0.6050000000000001) {
                                        var0 = 0.9290864736992437;
                                    } else {
                                        if (input[6] > 46.50000000000001) {
                                            var0 = 0.9032936175168729;
                                        } else {
                                            var0 = 0.9207773827327156;
                                        }
                                    }
                                }
                            } else {
                                var0 = 0.8890938819693731;
                            }
                        } else {
                            var0 = 0.8833531414683125;
                        }
                    }
                }
            } else {
                if (input[9] > 2.9050000000000007) {
                    if (input[2] <= -0.7449999999999999) {
                        var0 = 0.8816864743191319;
                    } else {
                        var0 = 0.9154864745098669;
                    }
                } else {
                    if (input[1] > 0.92) {
                        var0 = 0.917936474319132;
                    } else {
                        if (input[10] > 4.465000000000001) {
                            var0 = 0.9682381970388836;
                        } else {
                            var0 = 0.9465079027309052;
                        }
                    }
                }
            }
        }
    } else {
        if (input[4] > 19.050000000000004) {
            if (input[1] > 0.000000000000000000000000000000000010000000180025095) {
                var0 = 0.8793787822177634;
            } else {
                var0 = 0.9062917372103744;
            }
        } else {
            if (input[2] <= -0.7549999999999999) {
                var0 = 0.8621949489156081;
            } else {
                if (input[2] <= -0.6949999999999998) {
                    if (input[4] > 16.950000000000003) {
                        var0 = 0.8697509905443008;
                    } else {
                        var0 = 0.8929364740898833;
                    }
                } else {
                    var0 = 0.861686474319132;
                }
            }
        }
    }
    var var1;
    if (input[10] > 2.1800000000000006) {
        if (input[7] > 0.9800000000000001) {
            if (input[9] > 5.345000000000001) {
                var1 = 0.061415676404967125;
            } else {
                if (input[5] > 1016.5000000000001) {
                    if (input[4] > 23.450000000000003) {
                        if (input[8] > 59.00000000000001) {
                            var1 = 0.02916010618774277;
                        } else {
                            var1 = 0.04604302993416787;
                        }
                    } else {
                        if (input[6] > 76.50000000000001) {
                            if (input[7] > 2.095) {
                                var1 = 0.04220915525017874;
                            } else {
                                var1 = 0.018233858793973923;
                            }
                        } else {
                            if (input[4] > 20.450000000000003) {
                                if (input[6] > 49.50000000000001) {
                                    var1 = 0.03370734423398972;
                                } else {
                                    var1 = 0.010992599211824246;
                                }
                            } else {
                                var1 = -0.0033690454438328743;
                            }
                        }
                    }
                } else {
                    var1 = 0.05204405552027999;
                }
            }
        } else {
            if (input[5] > 1017.5000000000001) {
                if (input[9] > 1.5150000000000003) {
                    if (input[4] > 20.350000000000005) {
                        var1 = -0.004624646565606518;
                    } else {
                        if (input[0] > 0.000000000000000000000000000000000010000000180025095) {
                            var1 = -0.019982049681923606;
                        } else {
                            var1 = -0.040845036841928965;
                        }
                    }
                } else {
                    if (input[10] > 4.465000000000001) {
                        var1 = 0.02115377201920464;
                    } else {
                        if (input[4] > 26.850000000000005) {
                            var1 = 0.012117619148921222;
                        } else {
                            if (input[6] > 65.50000000000001) {
                                if (input[4] > 14.65) {
                                    if (input[5] > 1025.5000000000002) {
                                        if (input[1] > 0.38000000000000006) {
                                            var1 = -0.017947233956435632;
                                        } else {
                                            var1 = 0.003624467622666132;
                                        }
                                    } else {
                                        if (input[8] > 98.50000000000001) {
                                            var1 = -0.002767693703728063;
                                        } else {
                                            var1 = 0.025793943345546723;
                                        }
                                    }
                                } else {
                                    var1 = -0.01704728619919883;
                                }
                            } else {
                                var1 = -0.017252485981074775;
                            }
                        }
                    }
                }
            } else {
                if (input[9] > 2.9050000000000007) {
                    if (input[2] <= -0.7449999999999999) {
                        var1 = -0.02408432248234749;
                    } else {
                        var1 = 0.008025676876306535;
                    }
                } else {
                    if (input[1] > 0.92) {
                        var1 = 0.010353176242538863;
                    } else {
                        if (input[10] > 4.465000000000001) {
                            var1 = 0.058139814102444155;
                        } else {
                            var1 = 0.037496033204453334;
                        }
                    }
                }
            }
        }
    } else {
        if (input[4] > 19.050000000000004) {
            if (input[1] > 0.000000000000000000000000000000000010000000180025095) {
                var1 = -0.02627663171062103;
            } else {
                var1 = -0.0007093230556500585;
            }
        } else {
            if (input[2] <= -0.7549999999999999) {
                var1 = -0.04260127317097228;
            } else {
                if (input[2] <= -0.6949999999999998) {
                    if (input[4] > 16.950000000000003) {
                        var1 = -0.03542303267505861;
                    } else {
                        var1 = -0.013396823613976056;
                    }
                } else {
                    var1 = -0.04308432340621948;
                }
            }
        }
    }
    var var2;
    if (input[10] > 2.1800000000000006) {
        if (input[7] > 0.9800000000000001) {
            if (input[9] > 5.445000000000001) {
                var2 = 0.07034489395096898;
            } else {
                if (input[5] > 1016.5000000000001) {
                    if (input[4] > 23.450000000000003) {
                        if (input[8] > 59.00000000000001) {
                            var2 = 0.02770209977911277;
                        } else {
                            var2 = 0.04253520408772954;
                        }
                    } else {
                        if (input[4] > 18.150000000000002) {
                            if (input[7] > 5.295000000000001) {
                                var2 = 0.029468778742413073;
                            } else {
                                if (input[4] > 21.850000000000005) {
                                    var2 = 0.026420205272734167;
                                } else {
                                    if (input[5] > 1021.5000000000001) {
                                        var2 = 0.012990138584493913;
                                    } else {
                                        var2 = -0.013232387246874472;
                                    }
                                }
                            }
                        } else {
                            if (input[1] <= -0.7899999999999999) {
                                var2 = 0.046762703660698166;
                            } else {
                                var2 = 0.022184579899767416;
                            }
                        }
                    }
                } else {
                    var2 = 0.04944185079327105;
                }
            }
        } else {
            if (input[5] > 1017.5000000000001) {
                if (input[9] > 1.5150000000000003) {
                    if (input[4] > 20.350000000000005) {
                        var2 = -0.004393413855183509;
                    } else {
                        if (input[0] > 0.000000000000000000000000000000000010000000180025095) {
                            var2 = -0.018982947465371006;
                        } else {
                            var2 = -0.03880278501792678;
                        }
                    }
                } else {
                    if (input[10] > 4.465000000000001) {
                        var2 = 0.02009608280800638;
                    } else {
                        if (input[5] > 1020.5000000000001) {
                            if (input[4] > 14.65) {
                                if (input[5] > 1024.5000000000002) {
                                    if (input[1] > 0.38000000000000006) {
                                        var2 = -0.015354408641777388;
                                    } else {
                                        var2 = 0.0056207176727744255;
                                    }
                                } else {
                                    if (input[1] > 0.6050000000000001) {
                                        var2 = 0.020284334987401963;
                                    } else {
                                        var2 = 0.003562022350728512;
                                    }
                                }
                            } else {
                                var2 = -0.016194921856125196;
                            }
                        } else {
                            var2 = -0.021983241680122556;
                        }
                    }
                }
            } else {
                if (input[9] > 2.9050000000000007) {
                    if (input[9] > 3.7900000000000005) {
                        var2 = 0.006011910330770271;
                    } else {
                        var2 = -0.02498756288127466;
                    }
                } else {
                    if (input[1] > 0.92) {
                        var2 = 0.009835517832211087;
                    } else {
                        if (input[10] > 4.465000000000001) {
                            var2 = 0.055232823357499884;
                        } else {
                            var2 = 0.03562123242632619;
                        }
                    }
                }
            }
        }
    } else {
        if (input[4] > 19.050000000000004) {
            if (input[1] > 0.000000000000000000000000000000000010000000180025095) {
                var2 = -0.024962799501820253;
            } else {
                var2 = -0.0006738580959407907;
            }
        } else {
            if (input[2] <= -0.7549999999999999) {
                var2 = -0.04047120880272429;
            } else {
                if (input[2] <= -0.6949999999999998) {
                    if (input[4] > 16.650000000000002) {
                        var2 = -0.03011157013983889;
                    } else {
                        var2 = -0.009746213754018148;
                    }
                } else {
                    var2 = -0.04093010723590851;
                }
            }
        }
    }
    var var3;
    if (input[10] > 2.1800000000000006) {
        if (input[7] > 0.9800000000000001) {
            if (input[9] > 5.445000000000001) {
                var3 = 0.06682764807716012;
            } else {
                if (input[5] > 1016.5000000000001) {
                    if (input[4] > 23.450000000000003) {
                        if (input[4] > 25.150000000000002) {
                            var3 = 0.02450621365927733;
                        } else {
                            var3 = 0.03905160611887512;
                        }
                    } else {
                        if (input[4] > 18.150000000000002) {
                            if (input[4] > 20.450000000000003) {
                                if (input[6] > 49.50000000000001) {
                                    var3 = 0.030728566825855525;
                                } else {
                                    var3 = 0.009857149727833577;
                                }
                            } else {
                                var3 = -0.00306456909456756;
                            }
                        } else {
                            if (input[1] <= -0.7899999999999999) {
                                var3 = 0.044424568418236006;
                            } else {
                                var3 = 0.021075350984465332;
                            }
                        }
                    }
                } else {
                    var3 = 0.046969758749410916;
                }
            }
        } else {
            if (input[5] > 1017.5000000000001) {
                if (input[9] > 1.5150000000000003) {
                    if (input[4] > 20.350000000000005) {
                        var3 = -0.004173743484481689;
                    } else {
                        if (input[0] > 0.000000000000000000000000000000000010000000180025095) {
                            var3 = -0.018033800248733977;
                        } else {
                            var3 = -0.036862647807491676;
                        }
                    }
                } else {
                    if (input[10] > 4.465000000000001) {
                        var3 = 0.019091278704858963;
                    } else {
                        if (input[4] > 26.850000000000005) {
                            var3 = 0.011314336571376772;
                        } else {
                            if (input[6] > 65.50000000000001) {
                                if (input[4] > 14.65) {
                                    if (input[5] > 1025.5000000000002) {
                                        if (input[1] > 0.38000000000000006) {
                                            var3 = -0.016282151459619917;
                                        } else {
                                            var3 = 0.003162209050995963;
                                        }
                                    } else {
                                        if (input[8] > 98.50000000000001) {
                                            var3 = -0.00261216103764517;
                                        } else {
                                            var3 = 0.02383321511745453;
                                        }
                                    }
                                } else {
                                    var3 = -0.015385175234189741;
                                }
                            } else {
                                var3 = -0.016009657766397407;
                            }
                        }
                    }
                }
            } else {
                if (input[9] > 2.9050000000000007) {
                    if (input[2] <= -0.7449999999999999) {
                        var3 = -0.0223127183765173;
                    } else {
                        var3 = 0.007819788753986359;
                    }
                } else {
                    if (input[1] > 0.92) {
                        var3 = 0.009343741767640626;
                    } else {
                        if (input[10] > 4.465000000000001) {
                            var3 = 0.05247118300918875;
                        } else {
                            var3 = 0.033840170442791924;
                        }
                    }
                }
            }
        }
    } else {
        if (input[4] > 19.050000000000004) {
            if (input[8] > 52.00000000000001) {
                var3 = -0.020805383566766977;
            } else {
                var3 = 0.002215854646638036;
            }
        } else {
            if (input[2] <= -0.7549999999999999) {
                var3 = -0.038447648993993215;
            } else {
                if (input[6] > 86.50000000000001) {
                    var3 = -0.036993796869435096;
                } else {
                    if (input[4] > 16.550000000000004) {
                        var3 = -0.028166151687543356;
                    } else {
                        var3 = -0.003317257427963717;
                    }
                }
            }
        }
    }
    var var4;
    if (input[10] > 2.1800000000000006) {
        if (input[7] > 0.9800000000000001) {
            if (input[9] > 5.345000000000001) {
                var4 = 0.05270859848119711;
            } else {
                if (input[5] > 1016.5000000000001) {
                    if (input[4] > 23.450000000000003) {
                        if (input[2] <= -0.7099999999999999) {
                            var4 = 0.024965721900191376;
                        } else {
                            var4 = 0.04014403258139889;
                        }
                    } else {
                        if (input[6] > 76.50000000000001) {
                            if (input[7] > 2.095) {
                                var4 = 0.03765743104690362;
                            } else {
                                var4 = 0.015234928751703014;
                            }
                        } else {
                            if (input[4] > 20.450000000000003) {
                                if (input[6] > 49.50000000000001) {
                                    var4 = 0.029192138041059176;
                                } else {
                                    var4 = 0.009364291910941784;
                                }
                            } else {
                                var4 = -0.0038262530747387143;
                            }
                        }
                    }
                } else {
                    var4 = 0.04462127075404734;
                }
            }
        } else {
            if (input[5] > 1017.5000000000001) {
                if (input[9] > 1.5150000000000003) {
                    if (input[4] > 20.350000000000005) {
                        var4 = -0.00396505642321802;
                    } else {
                        if (input[0] > 0.000000000000000000000000000000000010000000180025095) {
                            var4 = -0.017132109992036765;
                        } else {
                            var4 = -0.035019514265337164;
                        }
                    }
                } else {
                    if (input[10] > 4.465000000000001) {
                        var4 = 0.018136714008592427;
                    } else {
                        if (input[5] > 1020.5000000000001) {
                            if (input[4] > 14.65) {
                                if (input[5] > 1024.5000000000002) {
                                    if (input[1] > 0.38000000000000006) {
                                        var4 = -0.013809245420483555;
                                    } else {
                                        var4 = 0.005107329895672126;
                                    }
                                } else {
                                    if (input[1] > 0.6050000000000001) {
                                        var4 = 0.018660255800699816;
                                    } else {
                                        if (input[6] > 46.50000000000001) {
                                            var4 = -0.004073958391589778;
                                        } else {
                                            var4 = 0.012475442115894774;
                                        }
                                    }
                                }
                            } else {
                                var4 = -0.01461591731618952;
                            }
                        } else {
                            var4 = -0.020402585094173753;
                        }
                    }
                }
            } else {
                if (input[10] > 5.925000000000001) {
                    if (input[8] > 99.50000000000001) {
                        var4 = 0.00742879992723465;
                    } else {
                        var4 = -0.029462038185447455;
                    }
                } else {
                    if (input[1] > 0.92) {
                        var4 = 0.008876554601426636;
                    } else {
                        if (input[4] > 17.350000000000005) {
                            var4 = 0.04739832188934088;
                        } else {
                            var4 = 0.03083526826752671;
                        }
                    }
                }
            }
        }
    } else {
        if (input[4] > 19.050000000000004) {
            if (input[1] > 0.000000000000000000000000000000000010000000180025095) {
                var4 = -0.022718661350126453;
            } else {
                var4 = -0.0004783371071282186;
            }
        } else {
            if (input[2] <= -0.7549999999999999) {
                var4 = -0.03652526510216422;
            } else {
                if (input[2] <= -0.6949999999999998) {
                    if (input[4] > 16.950000000000003) {
                        var4 = -0.030737994449032892;
                    } else {
                        var4 = -0.011201794216266046;
                    }
                } else {
                    var4 = -0.03703391253948212;
                }
            }
        }
    }
    var var5;
    if (input[10] > 2.1800000000000006) {
        if (input[7] > 0.9800000000000001) {
            if (input[9] > 5.445000000000001) {
                var5 = 0.060850836373865604;
            } else {
                if (input[5] > 1016.5000000000001) {
                    if (input[4] > 23.450000000000003) {
                        var5 = 0.02982248903717846;
                    } else {
                        if (input[4] > 18.150000000000002) {
                            if (input[7] > 5.295000000000001) {
                                var5 = 0.025605695925909902;
                            } else {
                                if (input[4] > 21.850000000000005) {
                                    var5 = 0.023832878097891808;
                                } else {
                                    if (input[6] > 53.50000000000001) {
                                        var5 = 0.009126443481417718;
                                    } else {
                                        var5 = -0.015320176452398302;
                                    }
                                }
                            }
                        } else {
                            if (input[7] > 2.095) {
                                var5 = 0.033714189091697336;
                            } else {
                                var5 = 0.012232920406608;
                            }
                        }
                    }
                } else {
                    var5 = 0.0423902080318815;
                }
            }
        } else {
            if (input[5] > 1017.5000000000001) {
                if (input[9] > 1.5150000000000003) {
                    if (input[4] > 20.350000000000005) {
                        var5 = -0.0037668025061007473;
                    } else {
                        if (input[0] > 0.000000000000000000000000000000000010000000180025095) {
                            var5 = -0.016275504874912177;
                        } else {
                            var5 = -0.03326853842075382;
                        }
                    }
                } else {
                    if (input[10] > 4.465000000000001) {
                        var5 = 0.017229878228335157;
                    } else {
                        if (input[5] > 1020.5000000000001) {
                            if (input[4] > 14.65) {
                                if (input[5] > 1024.5000000000002) {
                                    if (input[1] > 0.38000000000000006) {
                                        var5 = -0.01311878277352307;
                                    } else {
                                        var5 = 0.00485196397998012;
                                    }
                                } else {
                                    if (input[1] > 0.6050000000000001) {
                                        var5 = 0.017727242954075337;
                                    } else {
                                        var5 = 0.0030473892092704774;
                                    }
                                }
                            } else {
                                var5 = -0.013885122272013516;
                            }
                        } else {
                            var5 = -0.019382454960473947;
                        }
                    }
                }
            } else {
                if (input[9] > 2.9050000000000007) {
                    if (input[9] > 3.7900000000000005) {
                        var5 = 0.005619373397036855;
                    } else {
                        var5 = -0.02236805314367468;
                    }
                } else {
                    if (input[1] > 0.92) {
                        var5 = 0.008432727905788593;
                    } else {
                        if (input[10] > 4.465000000000001) {
                            var5 = 0.04775301067094351;
                        } else {
                            var5 = 0.030473302950018218;
                        }
                    }
                }
            }
        }
    } else {
        if (input[4] > 18.550000000000004) {
            if (input[8] > 85.50000000000001) {
                var5 = -0.02558853380009532;
            } else {
                if (input[6] > 51.50000000000001) {
                    var5 = 0.009078197453171016;
                } else {
                    var5 = -0.014343312145634134;
                }
            }
        } else {
            if (input[2] <= -0.7549999999999999) {
                var5 = -0.035207477211952214;
            } else {
                if (input[6] > 86.50000000000001) {
                    var5 = -0.03352724892849272;
                } else {
                    if (input[4] > 16.550000000000004) {
                        var5 = -0.026327455571542188;
                    } else {
                        var5 = -0.0025913055857707716;
                    }
                }
            }
        }
    }
    var var6;
    if (input[10] > 2.1800000000000006) {
        if (input[7] > 0.9800000000000001) {
            if (input[9] > 5.445000000000001) {
                var6 = 0.057808294892311096;
            } else {
                if (input[5] > 1016.5000000000001) {
                    if (input[9] > 4.905) {
                        var6 = 0.030381453108597314;
                    } else {
                        if (input[7] > 5.295000000000001) {
                            if (input[10] > 3.9000000000000004) {
                                var6 = 0.020429846193068302;
                            } else {
                                var6 = 0.040586438065483454;
                            }
                        } else {
                            if (input[6] > 76.50000000000001) {
                                if (input[7] > 2.095) {
                                    var6 = 0.03430265650234145;
                                } else {
                                    var6 = 0.013868596434423869;
                                }
                            } else {
                                if (input[4] > 22.050000000000004) {
                                    var6 = 0.021669678659074838;
                                } else {
                                    if (input[8] > 11.000000000000002) {
                                        var6 = -0.015941685897165114;
                                    } else {
                                        var6 = 0.005550565246654594;
                                    }
                                }
                            }
                        }
                    }
                } else {
                    var6 = 0.040270697265057956;
                }
            }
        } else {
            if (input[5] > 1017.5000000000001) {
                if (input[9] > 1.5150000000000003) {
                    if (input[4] > 20.850000000000005) {
                        var6 = 0.001651951244899205;
                    } else {
                        if (input[9] > 3.4650000000000003) {
                            var6 = -0.012490007130795025;
                        } else {
                            var6 = -0.03173539355095174;
                        }
                    }
                } else {
                    if (input[10] > 4.465000000000001) {
                        var6 = 0.016368385546264196;
                    } else {
                        if (input[9] > 1.3050000000000004) {
                            var6 = 0.01094184309244156;
                        } else {
                            if (input[4] > 25.450000000000003) {
                                var6 = 0.005276091034627624;
                            } else {
                                if (input[6] > 65.50000000000001) {
                                    var6 = -0.004384488705961433;
                                } else {
                                    var6 = -0.021416140772402288;
                                }
                            }
                        }
                    }
                }
            } else {
                if (input[9] > 2.9050000000000007) {
                    if (input[2] <= -0.7449999999999999) {
                        var6 = -0.01994486875459552;
                    } else {
                        var6 = 0.007224189847707749;
                    }
                } else {
                    if (input[10] > 3.9000000000000004) {
                        var6 = 0.04105193357914686;
                    } else {
                        if (input[1] > 0.92) {
                            var6 = -0.003488909173756838;
                        } else {
                            var6 = 0.027401563273959387;
                        }
                    }
                }
            }
        }
    } else {
        if (input[4] > 18.550000000000004) {
            if (input[8] > 85.50000000000001) {
                var6 = -0.024309107825160027;
            } else {
                if (input[6] > 51.50000000000001) {
                    var6 = 0.008624287772923709;
                } else {
                    var6 = -0.013626146435060285;
                }
            }
        } else {
            if (input[2] <= -0.7549999999999999) {
                var6 = -0.03344710469245911;
            } else {
                if (input[2] <= -0.6949999999999998) {
                    if (input[8] > 98.50000000000001) {
                        var6 = -0.028193513257429005;
                    } else {
                        if (input[0] > 0.6050000000000001) {
                            var6 = 0.001076939744366841;
                        } else {
                            var6 = -0.017543377600610255;
                        }
                    }
                } else {
                    var6 = -0.033505854010581974;
                }
            }
        }
    }
    var var7;
    if (input[10] > 2.1800000000000006) {
        if (input[7] > 0.9800000000000001) {
            if (input[9] > 5.445000000000001) {
                var7 = 0.054917880520224574;
            } else {
                if (input[5] > 1016.5000000000001) {
                    if (input[4] > 23.450000000000003) {
                        if (input[4] > 25.150000000000002) {
                            var7 = 0.018981602737823358;
                        } else {
                            var7 = 0.03259120617846125;
                        }
                    } else {
                        if (input[4] > 18.150000000000002) {
                            if (input[4] > 20.450000000000003) {
                                if (input[6] > 49.50000000000001) {
                                    var7 = 0.02558385722960035;
                                } else {
                                    var7 = 0.0077034265758135385;
                                }
                            } else {
                                var7 = -0.003231166070327163;
                            }
                        } else {
                            if (input[1] <= -0.7899999999999999) {
                                var7 = 0.0370362408614407;
                            } else {
                                var7 = 0.016856216886080803;
                            }
                        }
                    }
                } else {
                    var7 = 0.038257162509536424;
                }
            }
        } else {
            if (input[5] > 1017.5000000000001) {
                if (input[9] > 1.5150000000000003) {
                    if (input[4] > 20.850000000000005) {
                        var7 = 0.0015693536116963343;
                    } else {
                        if (input[9] > 3.4650000000000003) {
                            var7 = -0.011865505672592138;
                        } else {
                            var7 = -0.030148622615111843;
                        }
                    }
                } else {
                    if (input[10] > 4.465000000000001) {
                        var7 = 0.015549966125261216;
                    } else {
                        if (input[4] > 27.200000000000006) {
                            var7 = 0.010219266487946434;
                        } else {
                            if (input[6] > 65.50000000000001) {
                                if (input[10] > 2.3200000000000007) {
                                    if (input[5] > 1025.5000000000002) {
                                        var7 = -0.006456593166598502;
                                    } else {
                                        var7 = 0.00864359861984849;
                                    }
                                } else {
                                    if (input[4] > 16.650000000000002) {
                                        var7 = -0.002259406037628651;
                                    } else {
                                        var7 = -0.018254070134744758;
                                    }
                                }
                            } else {
                                var7 = -0.013630725712227149;
                            }
                        }
                    }
                }
            } else {
                if (input[10] > 6.385000000000001) {
                    var7 = -0.01691805002545672;
                } else {
                    if (input[1] > 0.92) {
                        var7 = 0.007549238154232237;
                    } else {
                        if (input[6] > 63.50000000000001) {
                            if (input[10] > 4.465000000000001) {
                                var7 = 0.043312762908894444;
                            } else {
                                var7 = 0.02742111798641937;
                            }
                        } else {
                            var7 = 0.007799514363498682;
                        }
                    }
                }
            }
        }
    } else {
        if (input[6] > 57.50000000000001) {
            if (input[2] <= -0.7549999999999999) {
                var7 = -0.03192503822816385;
            } else {
                if (input[2] <= -0.6949999999999998) {
                    if (input[8] > 98.50000000000001) {
                        var7 = -0.02604309204769762;
                    } else {
                        if (input[1] > 0.38000000000000006) {
                            var7 = -0.017561228351006587;
                        } else {
                            var7 = 0.009990660152398051;
                        }
                    }
                } else {
                    var7 = -0.029972943983972072;
                }
            }
        } else {
            if (input[8] > 60.50000000000001) {
                var7 = -0.013982326276514127;
            } else {
                var7 = 0.0032216369950522983;
            }
        }
    }
    var var8;
    if (input[10] > 2.1800000000000006) {
        if (input[7] > 0.9800000000000001) {
            if (input[9] > 5.445000000000001) {
                var8 = 0.05217198584228754;
            } else {
                if (input[5] > 1016.5000000000001) {
                    if (input[4] > 23.450000000000003) {
                        if (input[6] > 43.50000000000001) {
                            var8 = 0.034195313477159844;
                        } else {
                            var8 = 0.02094868135116086;
                        }
                    } else {
                        if (input[4] > 18.150000000000002) {
                            if (input[4] > 20.450000000000003) {
                                if (input[6] > 49.50000000000001) {
                                    var8 = 0.02430466397975882;
                                } else {
                                    var8 = 0.0073182552861861695;
                                }
                            } else {
                                var8 = -0.0030696078669279815;
                            }
                        } else {
                            if (input[1] <= -0.7899999999999999) {
                                var8 = 0.035184429138011876;
                            } else {
                                var8 = 0.016013406161218883;
                            }
                        }
                    }
                } else {
                    var8 = 0.036344304781507804;
                }
            }
        } else {
            if (input[5] > 1017.5000000000001) {
                if (input[9] > 1.5150000000000003) {
                    if (input[4] > 20.350000000000005) {
                        var8 = -0.003052620806040303;
                    } else {
                        if (input[6] > 80.50000000000001) {
                            var8 = -0.01695163696023979;
                        } else {
                            var8 = -0.03083275077795541;
                        }
                    }
                } else {
                    if (input[4] > 27.200000000000006) {
                        var8 = 0.011503462574910374;
                    } else {
                        if (input[6] > 65.50000000000001) {
                            if (input[5] > 1023.5000000000001) {
                                if (input[6] > 76.50000000000001) {
                                    if (input[8] > 13.500000000000002) {
                                        var8 = -0.014796062700790228;
                                    } else {
                                        var8 = -0.002615696295666007;
                                    }
                                } else {
                                    var8 = 0.007938933004201813;
                                }
                            } else {
                                if (input[1] > 0.6050000000000001) {
                                    var8 = 0.01507956002576229;
                                } else {
                                    var8 = -0.004147785906679928;
                                }
                            }
                        } else {
                            if (input[1] <= -0.000000000000000000000000000000000010000000180025095) {
                                var8 = -0.0037981753144413232;
                            } else {
                                var8 = -0.018035069038160146;
                            }
                        }
                    }
                }
            } else {
                if (input[10] > 6.385000000000001) {
                    var8 = -0.016072148703304784;
                } else {
                    if (input[1] > 0.92) {
                        var8 = 0.007171776875787016;
                    } else {
                        if (input[6] > 63.50000000000001) {
                            if (input[10] > 4.465000000000001) {
                                var8 = 0.04114712479299513;
                            } else {
                                var8 = 0.0260500621681006;
                            }
                        } else {
                            var8 = 0.007409538002684713;
                        }
                    }
                }
            }
        }
    } else {
        if (input[4] > 19.250000000000004) {
            if (input[1] > 0.000000000000000000000000000000000010000000180025095) {
                var8 = -0.0182304452508688;
            } else {
                var8 = 0.0006748437984950013;
            }
        } else {
            if (input[2] <= -0.7549999999999999) {
                var8 = -0.029536475869249706;
            } else {
                if (input[6] > 86.50000000000001) {
                    var8 = -0.029260714910924437;
                } else {
                    if (input[4] > 16.550000000000004) {
                        var8 = -0.02202381200116614;
                    } else {
                        var8 = -0.001274749421482456;
                    }
                }
            }
        }
    }
    var var9;
    if (input[10] > 2.1800000000000006) {
        if (input[7] > 0.9800000000000001) {
            if (input[9] > 5.345000000000001) {
                var9 = 0.0410834979952166;
            } else {
                if (input[5] > 1016.5000000000001) {
                    if (input[4] > 23.450000000000003) {
                        var9 = 0.024314222089014948;
                    } else {
                        if (input[6] > 76.50000000000001) {
                            if (input[7] > 2.095) {
                                var9 = 0.03077138044425975;
                            } else {
                                var9 = 0.011620710112831811;
                            }
                        } else {
                            if (input[4] > 20.450000000000003) {
                                if (input[6] > 49.50000000000001) {
                                    var9 = 0.023089430729548138;
                                } else {
                                    var9 = 0.0069523424483262574;
                                }
                            } else {
                                var9 = -0.004535723767346806;
                            }
                        }
                    }
                } else {
                    var9 = 0.0345270882184441;
                }
            }
        } else {
            if (input[5] > 1017.5000000000001) {
                if (input[9] > 1.5150000000000003) {
                    if (input[4] > 20.850000000000005) {
                        var9 = 0.0016435171876634871;
                    } else {
                        if (input[9] > 3.4650000000000003) {
                            var9 = -0.010300902210708176;
                        } else {
                            var9 = -0.02742787166624456;
                        }
                    }
                } else {
                    if (input[10] > 4.465000000000001) {
                        var9 = 0.01458642255692255;
                    } else {
                        if (input[5] > 1020.5000000000001) {
                            if (input[4] > 14.65) {
                                if (input[5] > 1025.5000000000002) {
                                    if (input[1] > 0.38000000000000006) {
                                        var9 = -0.01314147806300878;
                                    } else {
                                        var9 = 0.003654537451538173;
                                    }
                                } else {
                                    if (input[4] > 21.550000000000004) {
                                        if (input[4] > 25.850000000000005) {
                                            var9 = 0.006940013768787428;
                                        } else {
                                            var9 = -0.017070098780095577;
                                        }
                                    } else {
                                        var9 = 0.014264869136833261;
                                    }
                                }
                            } else {
                                var9 = -0.012451381379462502;
                            }
                        } else {
                            var9 = -0.017477199612628846;
                        }
                    }
                }
            } else {
                if (input[8] > 97.50000000000001) {
                    if (input[0] <= -0.7899999999999999) {
                        var9 = 0.035811128720848094;
                    } else {
                        if (input[8] > 99.50000000000001) {
                            if (input[0] > 0.6050000000000001) {
                                var9 = 0.01847140833687706;
                            } else {
                                var9 = -0.015132442355641854;
                            }
                        } else {
                            var9 = 0.030328080668696203;
                        }
                    }
                } else {
                    var9 = -0.017483462037518622;
                }
            }
        }
    } else {
        if (input[6] > 57.50000000000001) {
            if (input[2] <= -0.7549999999999999) {
                var9 = -0.028857055628621904;
            } else {
                if (input[7] > 0.000000000000000000000000000000000010000000180025095) {
                    var9 = -0.004697512145395632;
                } else {
                    if (input[6] > 86.50000000000001) {
                        var9 = -0.028722346174280818;
                    } else {
                        if (input[4] > 16.950000000000003) {
                            var9 = -0.025545066380656734;
                        } else {
                            var9 = -0.005641370416352792;
                        }
                    }
                }
            }
        } else {
            if (input[8] > 60.50000000000001) {
                var9 = -0.01244239514624631;
            } else {
                var9 = 0.003089753103752931;
            }
        }
    }
    var var10;
    if (input[10] > 2.1800000000000006) {
        if (input[7] > 0.9800000000000001) {
            if (input[9] > 5.445000000000001) {
                var10 = 0.04750921149738133;
            } else {
                if (input[1] <= -0.9849999999999999) {
                    var10 = 0.03621524457417696;
                } else {
                    if (input[2] <= -0.7549999999999999) {
                        var10 = 0.0025732114034540516;
                    } else {
                        if (input[7] > 3.845) {
                            if (input[0] > 0.000000000000000000000000000000000010000000180025095) {
                                if (input[8] > 28.000000000000004) {
                                    var10 = -0.009152626831616674;
                                } else {
                                    var10 = 0.017400037908228114;
                                }
                            } else {
                                var10 = 0.024135783303416137;
                            }
                        } else {
                            if (input[7] > 2.095) {
                                if (input[4] > 19.050000000000004) {
                                    var10 = 0.03809003687347286;
                                } else {
                                    var10 = 0.020215077213943007;
                                }
                            } else {
                                if (input[10] > 5.445000000000001) {
                                    var10 = 0.022818793902366324;
                                } else {
                                    var10 = 0.00488370445673354;
                                }
                            }
                        }
                    }
                }
            }
        } else {
            if (input[5] > 1016.5000000000001) {
                if (input[9] > 1.8050000000000004) {
                    if (input[9] > 3.3950000000000005) {
                        if (input[8] > 99.50000000000001) {
                            var10 = 0.008389534583936136;
                        } else {
                            var10 = -0.014209247663419581;
                        }
                    } else {
                        if (input[4] > 18.850000000000005) {
                            var10 = -0.011360170958297593;
                        } else {
                            var10 = -0.029028960751063787;
                        }
                    }
                } else {
                    if (input[5] > 1017.5000000000001) {
                        if (input[2] <= -0.7349999999999999) {
                            var10 = -0.02137680970456289;
                        } else {
                            if (input[10] > 4.465000000000001) {
                                var10 = 0.015415219068527223;
                            } else {
                                if (input[9] > 1.3050000000000004) {
                                    var10 = 0.010140783312842893;
                                } else {
                                    if (input[4] > 25.450000000000003) {
                                        var10 = 0.004318019262346854;
                                    } else {
                                        if (input[4] > 21.450000000000003) {
                                            var10 = -0.014383507746717204;
                                        } else {
                                            var10 = -0.0028496046911011667;
                                        }
                                    }
                                }
                            }
                        }
                    } else {
                        if (input[4] > 16.050000000000004) {
                            var10 = -0.0006264322344213725;
                        } else {
                            var10 = 0.02557797425208574;
                        }
                    }
                }
            } else {
                if (input[7] > 0.09000000000000001) {
                    var10 = 0.01813805952276054;
                } else {
                    var10 = 0.037819000896066435;
                }
            }
        }
    } else {
        if (input[4] > 18.550000000000004) {
            if (input[8] > 85.50000000000001) {
                var10 = -0.019965073257684707;
            } else {
                if (input[6] > 51.50000000000001) {
                    var10 = 0.009649143734946847;
                } else {
                    var10 = -0.012718849544498055;
                }
            }
        } else {
            if (input[2] <= -0.7549999999999999) {
                var10 = -0.027334164448997434;
            } else {
                if (input[6] > 86.50000000000001) {
                    var10 = -0.026443463292988863;
                } else {
                    if (input[8] > 98.50000000000001) {
                        var10 = -0.023845779336988927;
                    } else {
                        var10 = -0.0036947571481458653;
                    }
                }
            }
        }
    }
    var var11;
    if (input[10] > 2.1800000000000006) {
        if (input[7] > 0.9800000000000001) {
            if (input[9] > 5.445000000000001) {
                var11 = 0.04513375036418438;
            } else {
                if (input[1] <= -0.9849999999999999) {
                    var11 = 0.03440448231995106;
                } else {
                    if (input[2] <= -0.7549999999999999) {
                        var11 = 0.0024445518413010766;
                    } else {
                        if (input[2] <= -0.7349999999999999) {
                            if (input[1] <= -0.7899999999999999) {
                                if (input[6] > 65.50000000000001) {
                                    var11 = 0.03701532801613212;
                                } else {
                                    var11 = 0.022205784227699043;
                                }
                            } else {
                                var11 = 0.014429584967301174;
                            }
                        } else {
                            if (input[8] > 91.50000000000001) {
                                var11 = -0.002861244755762595;
                            } else {
                                if (input[0] > 0.000000000000000000000000000000000010000000180025095) {
                                    var11 = 0.013582397624597196;
                                } else {
                                    if (input[4] > 25.150000000000002) {
                                        var11 = 0.014459128915377034;
                                    } else {
                                        var11 = 0.03149556088550338;
                                    }
                                }
                            }
                        }
                    }
                }
            }
        } else {
            if (input[5] > 1016.5000000000001) {
                if (input[9] > 1.8050000000000004) {
                    if (input[9] > 3.3950000000000005) {
                        if (input[8] > 99.50000000000001) {
                            var11 = 0.007970057885783415;
                        } else {
                            var11 = -0.01349878516612631;
                        }
                    } else {
                        if (input[4] > 18.850000000000005) {
                            var11 = -0.01079216253544603;
                        } else {
                            var11 = -0.02757751238879873;
                        }
                    }
                } else {
                    if (input[5] > 1017.5000000000001) {
                        if (input[2] <= -0.7349999999999999) {
                            var11 = -0.020307969269545183;
                        } else {
                            if (input[10] > 4.465000000000001) {
                                var11 = 0.014644457399845124;
                            } else {
                                if (input[9] > 1.3050000000000004) {
                                    var11 = 0.009633743888568053;
                                } else {
                                    if (input[4] > 25.450000000000003) {
                                        var11 = 0.004102118336433907;
                                    } else {
                                        if (input[4] > 21.450000000000003) {
                                            var11 = -0.013664332777261735;
                                        } else {
                                            if (input[10] > 2.3200000000000007) {
                                                var11 = 0.0008303848181667767;
                                            } else {
                                                var11 = -0.008851219333806322;
                                            }
                                        }
                                    }
                                }
                            }
                        }
                    } else {
                        if (input[4] > 16.050000000000004) {
                            var11 = -0.000595111744478345;
                        } else {
                            var11 = 0.02429907561299649;
                        }
                    }
                }
            } else {
                if (input[0] <= -0.7899999999999999) {
                    var11 = 0.03273098452741074;
                } else {
                    var11 = 0.01387665884707261;
                }
            }
        }
    } else {
        if (input[4] > 19.250000000000004) {
            if (input[4] > 22.750000000000004) {
                var11 = -0.015676201421480913;
            } else {
                var11 = 0.0015120626824708392;
            }
        } else {
            if (input[2] <= -0.7549999999999999) {
                var11 = -0.02541362350144662;
            } else {
                if (input[6] > 86.50000000000001) {
                    var11 = -0.02512129165909507;
                } else {
                    if (input[4] > 16.550000000000004) {
                        var11 = -0.019267187964009204;
                    } else {
                        var11 = -0.0005835081466698441;
                    }
                }
            }
        }
    }
    var var12;
    if (input[10] > 2.1800000000000006) {
        if (input[7] > 0.9800000000000001) {
            if (input[9] > 5.445000000000001) {
                var12 = 0.042877063639462;
            } else {
                if (input[5] > 1016.5000000000001) {
                    if (input[9] > 4.905) {
                        var12 = 0.022519071744953066;
                    } else {
                        if (input[7] > 5.295000000000001) {
                            if (input[10] > 3.9000000000000004) {
                                var12 = 0.01271368632487093;
                            } else {
                                var12 = 0.033818049790958565;
                            }
                        } else {
                            if (input[9] > 3.0600000000000005) {
                                var12 = -0.005669393937569112;
                            } else {
                                if (input[8] > 76.00000000000001) {
                                    var12 = 0.02058006949159072;
                                } else {
                                    if (input[10] > 3.8250000000000006) {
                                        var12 = 0.01354067920041936;
                                    } else {
                                        var12 = 0.00048419808692954204;
                                    }
                                }
                            }
                        }
                    }
                } else {
                    var12 = 0.030026036239153633;
                }
            }
        } else {
            if (input[5] > 1016.5000000000001) {
                if (input[9] > 1.8050000000000004) {
                    if (input[9] > 3.3950000000000005) {
                        if (input[8] > 99.50000000000001) {
                            var12 = 0.007571554409029584;
                        } else {
                            var12 = -0.012823846007725508;
                        }
                    } else {
                        if (input[4] > 18.850000000000005) {
                            var12 = -0.010252554022840091;
                        } else {
                            var12 = -0.026198637174136605;
                        }
                    }
                } else {
                    if (input[5] > 1017.5000000000001) {
                        if (input[2] <= -0.7349999999999999) {
                            var12 = -0.01929257136324178;
                        } else {
                            if (input[10] > 4.465000000000001) {
                                var12 = 0.01391223505139351;
                            } else {
                                if (input[9] > 1.3050000000000004) {
                                    var12 = 0.009152057485911868;
                                } else {
                                    if (input[5] > 1025.5000000000002) {
                                        var12 = -0.008416633682579479;
                                    } else {
                                        if (input[0] <= -0.9199999999999998) {
                                            var12 = -0.011666135860230917;
                                        } else {
                                            if (input[4] > 14.65) {
                                                var12 = 0.007041111203965129;
                                            } else {
                                                var12 = -0.009235250361263754;
                                            }
                                        }
                                    }
                                }
                            }
                        }
                    } else {
                        if (input[4] > 16.050000000000004) {
                            var12 = -0.0005653555318713188;
                        } else {
                            var12 = 0.02308412145109887;
                        }
                    }
                }
            } else {
                if (input[7] > 0.09000000000000001) {
                    var12 = 0.015991540347520067;
                } else {
                    var12 = 0.034706297412514686;
                }
            }
        }
    } else {
        if (input[6] > 57.50000000000001) {
            if (input[2] <= -0.7549999999999999) {
                var12 = -0.024822260667611888;
            } else {
                if (input[7] > 0.000000000000000000000000000000000010000000180025095) {
                    var12 = -0.003006248251983413;
                } else {
                    if (input[6] > 86.50000000000001) {
                        var12 = -0.024707991248223843;
                    } else {
                        if (input[4] > 16.950000000000003) {
                            var12 = -0.02284711473838015;
                        } else {
                            var12 = -0.004767906935220318;
                        }
                    }
                }
            }
        } else {
            if (input[8] > 60.50000000000001) {
                var12 = -0.010650211514008266;
            } else {
                var12 = 0.00360860712826252;
            }
        }
    }
    var var13;
    if (input[10] > 2.1800000000000006) {
        if (input[7] > 0.9800000000000001) {
            if (input[9] > 5.445000000000001) {
                var13 = 0.040733210444450385;
            } else {
                if (input[1] <= -0.9849999999999999) {
                    var13 = 0.03151000695372069;
                } else {
                    if (input[2] <= -0.7549999999999999) {
                        var13 = 0.0019254525356432973;
                    } else {
                        if (input[7] > 3.845) {
                            if (input[0] > 0.000000000000000000000000000000000010000000180025095) {
                                if (input[8] > 28.000000000000004) {
                                    var13 = -0.009473046394331115;
                                } else {
                                    var13 = 0.014991784081794322;
                                }
                            } else {
                                var13 = 0.02109396687962792;
                            }
                        } else {
                            if (input[7] > 2.095) {
                                if (input[4] > 19.050000000000004) {
                                    var13 = 0.033625881778425536;
                                } else {
                                    var13 = 0.01754414667508432;
                                }
                            } else {
                                if (input[10] > 4.845000000000001) {
                                    if (input[7] > 1.675) {
                                        var13 = 0.008214226098997253;
                                    } else {
                                        var13 = 0.025955340284854175;
                                    }
                                } else {
                                    var13 = -0.0006044526910409331;
                                }
                            }
                        }
                    }
                }
            }
        } else {
            if (input[5] > 1016.5000000000001) {
                if (input[9] > 1.8050000000000004) {
                    if (input[9] > 3.3950000000000005) {
                        if (input[8] > 99.50000000000001) {
                            var13 = 0.007192977424710989;
                        } else {
                            var13 = -0.012182653889723236;
                        }
                    } else {
                        if (input[8] > 49.00000000000001) {
                            var13 = -0.025473586292636977;
                        } else {
                            var13 = -0.011258437427190635;
                        }
                    }
                } else {
                    if (input[6] > 77.50000000000001) {
                        if (input[2] <= -0.7249999999999999) {
                            if (input[6] > 82.50000000000001) {
                                if (input[2] <= -0.7349999999999999) {
                                    var13 = 0.02176361855864525;
                                } else {
                                    var13 = 0.0063266620039939886;
                                }
                            } else {
                                var13 = 0.025158297911632894;
                            }
                        } else {
                            var13 = -0.005603681769101851;
                        }
                    } else {
                        if (input[2] <= -0.7249999999999999) {
                            if (input[4] > 19.350000000000005) {
                                var13 = -0.008611933576563995;
                            } else {
                                var13 = -0.031030677411366593;
                            }
                        } else {
                            if (input[4] > 27.200000000000006) {
                                var13 = 0.00980087445332174;
                            } else {
                                if (input[4] > 20.650000000000002) {
                                    var13 = -0.008549049635358314;
                                } else {
                                    var13 = 0.008648861124148142;
                                }
                            }
                        }
                    }
                }
            } else {
                if (input[0] <= -0.7899999999999999) {
                    var13 = 0.02993095986182905;
                } else {
                    var13 = 0.012002022748951006;
                }
            }
        }
    } else {
        if (input[6] > 57.50000000000001) {
            if (input[2] <= -0.7549999999999999) {
                var13 = -0.023581148885391853;
            } else {
                if (input[7] > 0.000000000000000000000000000000000010000000180025095) {
                    var13 = -0.00285593554791477;
                } else {
                    var13 = -0.018058100335630507;
                }
            }
        } else {
            if (input[8] > 60.50000000000001) {
                var13 = -0.01011770075807969;
            } else {
                var13 = 0.003428176526601116;
            }
        }
    }
    var var14;
    if (input[10] > 2.1800000000000006) {
        if (input[7] > 0.9800000000000001) {
            if (input[9] > 5.445000000000001) {
                var14 = 0.03869654904119671;
            } else {
                if (input[1] <= -0.9849999999999999) {
                    var14 = 0.029934507097910953;
                } else {
                    if (input[2] <= -0.7549999999999999) {
                        var14 = 0.0018291798803736184;
                    } else {
                        if (input[7] > 3.845) {
                            if (input[0] > 0.000000000000000000000000000000000010000000180025095) {
                                if (input[8] > 28.000000000000004) {
                                    var14 = -0.0089993940222831;
                                } else {
                                    var14 = 0.01424219399690628;
                                }
                            } else {
                                var14 = 0.0200392689668771;
                            }
                        } else {
                            if (input[7] > 2.095) {
                                if (input[4] > 19.050000000000004) {
                                    var14 = 0.031944588539045075;
                                } else {
                                    var14 = 0.016666939492736545;
                                }
                            } else {
                                if (input[10] > 4.845000000000001) {
                                    if (input[7] > 1.675) {
                                        var14 = 0.007803514617539588;
                                    } else {
                                        var14 = 0.024657573783770204;
                                    }
                                } else {
                                    var14 = -0.0005742297414690257;
                                }
                            }
                        }
                    }
                }
            }
        } else {
            if (input[5] > 1016.5000000000001) {
                if (input[9] > 1.8050000000000004) {
                    if (input[9] > 3.3950000000000005) {
                        if (input[8] > 99.50000000000001) {
                            var14 = 0.0068333286598014345;
                        } else {
                            var14 = -0.011573521052063867;
                        }
                    } else {
                        if (input[4] > 18.850000000000005) {
                            var14 = -0.008940085267559404;
                        } else {
                            var14 = -0.023742325670683562;
                        }
                    }
                } else {
                    if (input[6] > 77.50000000000001) {
                        if (input[2] <= -0.7249999999999999) {
                            var14 = 0.018773250506793182;
                        } else {
                            var14 = -0.005323497609295432;
                        }
                    } else {
                        if (input[2] <= -0.7249999999999999) {
                            if (input[4] > 19.350000000000005) {
                                var14 = -0.00818133716515842;
                            } else {
                                var14 = -0.029479144141077995;
                            }
                        } else {
                            if (input[4] > 27.200000000000006) {
                                var14 = 0.009310830789036119;
                            } else {
                                if (input[4] > 20.650000000000002) {
                                    var14 = -0.00812159712882118;
                                } else {
                                    var14 = 0.008216418135546927;
                                }
                            }
                        }
                    }
                }
            } else {
                if (input[7] > 0.09000000000000001) {
                    var14 = 0.014072866325487236;
                } else {
                    var14 = 0.031868871092796326;
                }
            }
        }
    } else {
        if (input[4] > 18.550000000000004) {
            if (input[8] > 85.50000000000001) {
                var14 = -0.016731467932462694;
            } else {
                if (input[6] > 51.50000000000001) {
                    var14 = 0.010337760746479034;
                } else {
                    var14 = -0.011701488240875982;
                }
            }
        } else {
            if (input[2] <= -0.7549999999999999) {
                var14 = -0.022337210230660022;
            } else {
                if (input[6] > 86.50000000000001) {
                    var14 = -0.021852730756456204;
                } else {
                    if (input[8] > 98.50000000000001) {
                        var14 = -0.020670397998765112;
                    } else {
                        var14 = -0.0019470541523053096;
                    }
                }
            }
        }
    }
    var var15;
    if (input[10] > 2.1800000000000006) {
        if (input[7] > 0.9800000000000001) {
            if (input[9] > 5.445000000000001) {
                var15 = 0.03676172246108763;
            } else {
                if (input[5] > 1016.5000000000001) {
                    if (input[9] > 4.905) {
                        var15 = 0.019082047419741434;
                    } else {
                        if (input[7] > 5.295000000000001) {
                            if (input[10] > 3.9000000000000004) {
                                var15 = 0.009859570314606223;
                            } else {
                                var15 = 0.030574110292253043;
                            }
                        } else {
                            if (input[9] > 3.0600000000000005) {
                                var15 = -0.0058593844412826;
                            } else {
                                if (input[8] > 76.00000000000001) {
                                    var15 = 0.01819047306811339;
                                } else {
                                    if (input[7] > 3.1700000000000004) {
                                        var15 = 0.0007442569303693193;
                                    } else {
                                        var15 = 0.013485093687757336;
                                    }
                                }
                            }
                        }
                    }
                } else {
                    var15 = 0.026219596779225647;
                }
            }
        } else {
            if (input[5] > 1016.5000000000001) {
                if (input[9] > 1.8050000000000004) {
                    if (input[9] > 3.3950000000000005) {
                        if (input[8] > 99.50000000000001) {
                            var15 = 0.006491661324010541;
                        } else {
                            var15 = -0.010994844900613483;
                        }
                    } else {
                        if (input[8] > 49.00000000000001) {
                            var15 = -0.02309635164847057;
                        } else {
                            var15 = -0.00990692090529662;
                        }
                    }
                } else {
                    if (input[6] > 77.50000000000001) {
                        if (input[2] <= -0.7249999999999999) {
                            if (input[6] > 82.50000000000001) {
                                if (input[2] <= -0.7349999999999999) {
                                    var15 = 0.019736774966120724;
                                } else {
                                    var15 = 0.005071667244746572;
                                }
                            } else {
                                var15 = 0.022961720399731815;
                            }
                        } else {
                            var15 = -0.005057323283906425;
                        }
                    } else {
                        if (input[4] > 18.450000000000003) {
                            if (input[5] > 1020.5000000000001) {
                                if (input[4] > 21.450000000000003) {
                                    if (input[1] <= -0.37999999999999995) {
                                        var15 = 0.006874394228273049;
                                    } else {
                                        var15 = -0.009788778644767316;
                                    }
                                } else {
                                    var15 = 0.01897221063729376;
                                }
                            } else {
                                var15 = -0.011454439211379865;
                            }
                        } else {
                            var15 = -0.023290618729812126;
                        }
                    }
                }
            } else {
                if (input[0] <= -0.7899999999999999) {
                    var15 = 0.02738473489621861;
                } else {
                    var15 = 0.01033576691730155;
                }
            }
        }
    } else {
        if (input[4] > 20.350000000000005) {
            if (input[4] > 22.750000000000004) {
                var15 = -0.013793399872688149;
            } else {
                var15 = 0.009526387432023236;
            }
        } else {
            if (input[7] > 0.17500000000000002) {
                if (input[2] <= -0.7649999999999999) {
                    var15 = -0.01787558211521669;
                } else {
                    var15 = -0.004495779797434807;
                }
            } else {
                if (input[2] <= -0.7449999999999999) {
                    var15 = -0.02145074988311192;
                } else {
                    if (input[6] > 86.50000000000001) {
                        var15 = -0.021477051260994702;
                    } else {
                        var15 = -0.011089020109336292;
                    }
                }
            }
        }
    }
    var var16;
    if (input[10] > 2.1800000000000006) {
        if (input[7] > 0.9800000000000001) {
            if (input[9] > 5.345000000000001) {
                var16 = 0.028921751986796917;
            } else {
                if (input[5] > 1016.5000000000001) {
                    if (input[4] > 23.450000000000003) {
                        if (input[8] > 59.00000000000001) {
                            var16 = 0.011515464527871121;
                        } else {
                            var16 = 0.02458262490667403;
                        }
                    } else {
                        if (input[6] > 76.50000000000001) {
                            if (input[7] > 2.095) {
                                var16 = 0.024439006072023643;
                            } else {
                                var16 = 0.007811514059589669;
                            }
                        } else {
                            if (input[4] > 20.450000000000003) {
                                if (input[8] > 69.50000000000001) {
                                    var16 = 0.018222396365868358;
                                } else {
                                    if (input[6] > 49.50000000000001) {
                                        var16 = 0.012456019157543779;
                                    } else {
                                        var16 = -0.0020138815693233328;
                                    }
                                }
                            } else {
                                var16 = -0.006299105415948564;
                            }
                        }
                    }
                } else {
                    var16 = 0.024908617023076562;
                }
            }
        } else {
            if (input[5] > 1016.5000000000001) {
                if (input[9] > 1.8050000000000004) {
                    if (input[9] > 3.3950000000000005) {
                        if (input[6] > 78.50000000000001) {
                            var16 = 0.006613401890448902;
                        } else {
                            var16 = -0.01025843355626635;
                        }
                    } else {
                        if (input[4] > 18.850000000000005) {
                            var16 = -0.0077779106086208714;
                        } else {
                            var16 = -0.021518506065233433;
                        }
                    }
                } else {
                    if (input[6] > 77.50000000000001) {
                        if (input[2] <= -0.7249999999999999) {
                            if (input[6] > 82.50000000000001) {
                                if (input[2] <= -0.7349999999999999) {
                                    var16 = 0.018749936312437057;
                                } else {
                                    var16 = 0.004818082991100494;
                                }
                            } else {
                                var16 = 0.021813634499301054;
                            }
                        } else {
                            if (input[8] > 13.500000000000002) {
                                var16 = -0.008976873069233891;
                            } else {
                                var16 = 0.0013707185089588167;
                            }
                        }
                    } else {
                        if (input[4] > 18.450000000000003) {
                            if (input[5] > 1020.5000000000001) {
                                if (input[4] > 21.450000000000003) {
                                    if (input[4] > 26.850000000000005) {
                                        var16 = 0.008517606789951749;
                                    } else {
                                        var16 = -0.007845260078708331;
                                    }
                                } else {
                                    var16 = 0.01802360012661666;
                                }
                            } else {
                                var16 = -0.010881717309580539;
                            }
                        } else {
                            var16 = -0.022126087739511774;
                        }
                    }
                }
            } else {
                if (input[7] > 0.09000000000000001) {
                    var16 = 0.012358912472662173;
                } else {
                    var16 = 0.029281267762184145;
                }
            }
        }
    } else {
        if (input[6] > 57.50000000000001) {
            if (input[2] <= -0.7549999999999999) {
                var16 = -0.020271117072384638;
            } else {
                if (input[7] > 0.000000000000000000000000000000000010000000180025095) {
                    var16 = -0.0018022487560908002;
                } else {
                    var16 = -0.01572845655110931;
                }
            }
        } else {
            if (input[8] > 60.50000000000001) {
                var16 = -0.008756688354467903;
            } else {
                var16 = 0.0036980480033283435;
            }
        }
    }
    var var17;
    if (input[10] > 2.1800000000000006) {
        if (input[7] > 0.9800000000000001) {
            if (input[9] > 5.445000000000001) {
                var17 = 0.03347754776477814;
            } else {
                if (input[1] <= -0.9849999999999999) {
                    var17 = 0.02645315538953852;
                } else {
                    if (input[2] <= -0.7549999999999999) {
                        var17 = 0.0014310688656919144;
                    } else {
                        if (input[9] > 2.2150000000000003) {
                            if (input[7] > 4.410000000000001) {
                                var17 = -0.004543067403137683;
                            } else {
                                if (input[10] > 5.885000000000001) {
                                    var17 = 0.02042732780950295;
                                } else {
                                    var17 = 0.004702731796229879;
                                }
                            }
                        } else {
                            if (input[7] > 2.095) {
                                if (input[8] > 76.00000000000001) {
                                    var17 = 0.028167075407062026;
                                } else {
                                    if (input[8] > 23.000000000000004) {
                                        var17 = 0.005965253062870192;
                                    } else {
                                        var17 = 0.01972525299272754;
                                    }
                                }
                            } else {
                                var17 = 0.00403737895604637;
                            }
                        }
                    }
                }
            }
        } else {
            if (input[5] > 1016.5000000000001) {
                if (input[9] > 1.8050000000000004) {
                    if (input[4] > 20.850000000000005) {
                        var17 = 0.00550417115501616;
                    } else {
                        if (input[0] > 0.6050000000000001) {
                            var17 = -0.000739449020302682;
                        } else {
                            var17 = -0.018631848639126907;
                        }
                    }
                } else {
                    if (input[6] > 77.50000000000001) {
                        if (input[5] > 1023.5000000000001) {
                            if (input[8] > 13.500000000000002) {
                                var17 = -0.010239371091698889;
                            } else {
                                var17 = 0.0013021824210882188;
                            }
                        } else {
                            if (input[0] > 0.92) {
                                var17 = 0.008891133405268193;
                            } else {
                                var17 = 0.01826434919833025;
                            }
                        }
                    } else {
                        if (input[2] <= -0.7249999999999999) {
                            if (input[4] > 19.350000000000005) {
                                var17 = -0.006655462291313425;
                            } else {
                                var17 = -0.026049086316065357;
                            }
                        } else {
                            if (input[4] > 27.200000000000006) {
                                var17 = 0.00828397865552688;
                            } else {
                                if (input[4] > 20.650000000000002) {
                                    if (input[1] <= -0.000000000000000000000000000000000010000000180025095) {
                                        var17 = -0.0007730609229342504;
                                    } else {
                                        var17 = -0.012966263353824614;
                                    }
                                } else {
                                    var17 = 0.007518802268494821;
                                }
                            }
                        }
                    }
                }
            } else {
                if (input[0] <= -0.7899999999999999) {
                    var17 = 0.025068507188310225;
                } else {
                    var17 = 0.00885631835984963;
                }
            }
        }
    } else {
        if (input[4] > 20.450000000000003) {
            if (input[4] > 22.750000000000004) {
                var17 = -0.012872868704681212;
            } else {
                var17 = 0.011074818883623397;
            }
        } else {
            if (input[2] <= -0.7549999999999999) {
                var17 = -0.018442481767943525;
            } else {
                if (input[6] > 86.50000000000001) {
                    var17 = -0.019005184823816475;
                } else {
                    if (input[4] > 16.550000000000004) {
                        var17 = -0.014235918858536967;
                    } else {
                        var17 = 0.0017816526173003789;
                    }
                }
            }
        }
    }
    var var18;
    if (input[10] > 2.1800000000000006) {
        if (input[7] > 0.9800000000000001) {
            if (input[9] > 5.445000000000001) {
                var18 = 0.03180367050692439;
            } else {
                if (input[1] <= -0.9849999999999999) {
                    var18 = 0.02513049741758517;
                } else {
                    if (input[2] <= -0.7549999999999999) {
                        var18 = 0.001359516426044352;
                    } else {
                        if (input[9] > 2.2150000000000003) {
                            if (input[7] > 4.410000000000001) {
                                var18 = -0.0043159138783812525;
                            } else {
                                if (input[10] > 5.955000000000001) {
                                    var18 = 0.020733168090303098;
                                } else {
                                    if (input[0] <= -0.6049999999999999) {
                                        var18 = 0.014178751513827593;
                                    } else {
                                        var18 = -0.0021567841145125302;
                                    }
                                }
                            }
                        } else {
                            if (input[7] > 2.095) {
                                if (input[8] > 76.00000000000001) {
                                    var18 = 0.026758721576550522;
                                } else {
                                    if (input[8] > 23.000000000000004) {
                                        var18 = 0.005666990537682305;
                                    } else {
                                        var18 = 0.018738991022109987;
                                    }
                                }
                            } else {
                                var18 = 0.003835510240039892;
                            }
                        }
                    }
                }
            }
        } else {
            if (input[5] > 1016.5000000000001) {
                if (input[9] > 1.8050000000000004) {
                    if (input[4] > 20.850000000000005) {
                        var18 = 0.005228963050813902;
                    } else {
                        if (input[0] > 0.6050000000000001) {
                            var18 = -0.000702476613568487;
                        } else {
                            var18 = -0.017700255979044534;
                        }
                    }
                } else {
                    if (input[6] > 77.50000000000001) {
                        if (input[2] <= -0.7249999999999999) {
                            if (input[6] > 82.50000000000001) {
                                if (input[2] <= -0.7349999999999999) {
                                    var18 = 0.01712417898327112;
                                } else {
                                    var18 = 0.003797864772024609;
                                }
                            } else {
                                var18 = 0.01989692847872543;
                            }
                        } else {
                            var18 = -0.004376905886155943;
                        }
                    } else {
                        if (input[4] > 18.450000000000003) {
                            if (input[5] > 1020.5000000000001) {
                                if (input[4] > 21.450000000000003) {
                                    if (input[1] <= -0.37999999999999995) {
                                        var18 = 0.006197638273602579;
                                    } else {
                                        var18 = -0.008755064681720208;
                                    }
                                } else {
                                    var18 = 0.016848905151709916;
                                }
                            } else {
                                var18 = -0.009824518249209586;
                            }
                        } else {
                            var18 = -0.020401119275225532;
                        }
                    }
                }
            } else {
                if (input[7] > 0.09000000000000001) {
                    var18 = 0.010828850754095537;
                } else {
                    var18 = 0.026920447178184988;
                }
            }
        }
    } else {
        if (input[6] > 57.50000000000001) {
            if (input[2] <= -0.7549999999999999) {
                var18 = -0.01833543811026994;
            } else {
                if (input[7] > 0.000000000000000000000000000000000010000000180025095) {
                    var18 = -0.0013048851034707495;
                } else {
                    if (input[0] <= -0.6049999999999999) {
                        var18 = -0.021401476649486502;
                    } else {
                        var18 = -0.012517586597398427;
                    }
                }
            }
        } else {
            if (input[6] > 52.50000000000001) {
                var18 = 0.004689071079095206;
            } else {
                var18 = -0.007314777110392849;
            }
        }
    }
    return var0 + var1 + var2 + var3 + var4 + var5 + var6 + var7 + var8 + var9 + var10 + var11 + var12 + var13 + var14 + var15 + var16 + var17 + var18;
}
