export function wind_score1(input) {
    var var0;
    if (input[5] > 1017.5000000000001) {
        if (input[7] > 2.9700000000000006) {
            if (input[9] > 5.445000000000001) {
                var0 = 0.4570996357466501;
            } else {
                if (input[7] > 5.090000000000001) {
                    if (input[6] > 55.50000000000001) {
                        var0 = 0.42799963640081107;
                    } else {
                        var0 = 0.41807022432675267;
                    }
                } else {
                    if (input[2] <= -0.7549999999999999) {
                        var0 = 0.4032212575032883;
                    } else {
                        if (input[7] > 3.845) {
                            var0 = 0.4067663027715655;
                        } else {
                            var0 = 0.42144812093989364;
                        }
                    }
                }
            }
        } else {
            if (input[4] > 20.250000000000004) {
                if (input[6] > 42.50000000000001) {
                    if (input[4] > 26.950000000000003) {
                        var0 = 0.4129410995499865;
                    } else {
                        if (input[4] > 22.350000000000005) {
                            if (input[8] > 13.500000000000002) {
                                var0 = 0.3927246358095144;
                            } else {
                                var0 = 0.40250872685233474;
                            }
                        } else {
                            if (input[4] > 21.650000000000002) {
                                var0 = 0.41112344559562425;
                            } else {
                                if (input[4] > 20.650000000000002) {
                                    var0 = 0.39779963584276257;
                                } else {
                                    var0 = 0.4100996359077689;
                                }
                            }
                        }
                    }
                } else {
                    var0 = 0.418599636104278;
                }
            } else {
                if (input[10] > 2.1800000000000006) {
                    if (input[9] > 1.5150000000000003) {
                        if (input[0] > 0.6050000000000001) {
                            var0 = 0.40459963564979257;
                        } else {
                            var0 = 0.38713296904322725;
                        }
                    } else {
                        if (input[10] > 3.9000000000000004) {
                            var0 = 0.4097424929661418;
                        } else {
                            var0 = 0.4001905448683775;
                        }
                    }
                } else {
                    if (input[2] <= -0.7349999999999999) {
                        var0 = 0.3865996357019466;
                    } else {
                        if (input[6] > 86.50000000000001) {
                            var0 = 0.3870541811632653;
                        } else {
                            if (input[4] > 16.950000000000003) {
                                var0 = 0.38843296902845026;
                            } else {
                                var0 = 0.3982125388874959;
                            }
                        }
                    }
                }
            }
        }
    } else {
        if (input[5] > 1016.5000000000001) {
            if (input[0] <= -0.6049999999999999) {
                var0 = 0.3935227126457992;
            } else {
                if (input[8] > 99.50000000000001) {
                    if (input[2] <= -0.7449999999999999) {
                        var0 = 0.42159963576629256;
                    } else {
                        if (input[1] > 0.6050000000000001) {
                            var0 = 0.39500872666014364;
                        } else {
                            var0 = 0.4081213750154065;
                        }
                    }
                } else {
                    if (input[1] > 0.7900000000000001) {
                        var0 = 0.42986886670759006;
                    } else {
                        var0 = 0.44472463586958466;
                    }
                }
            }
        } else {
            if (input[9] > 4.340000000000001) {
                var0 = 0.4178496362490986;
            } else {
                if (input[10] > 4.845000000000001) {
                    var0 = 0.45863667247407414;
                } else {
                    if (input[4] > 20.250000000000004) {
                        var0 = 0.4439805874300862;
                    } else {
                        var0 = 0.43059963577086446;
                    }
                }
            }
        }
    }
    var var1;
    if (input[5] > 1017.5000000000001) {
        if (input[7] > 3.2900000000000005) {
            if (input[9] > 5.445000000000001) {
                var1 = 0.04764501754194498;
            } else {
                if (input[4] > 23.450000000000003) {
                    var1 = 0.016298878201180034;
                } else {
                    if (input[5] > 1019.5000000000001) {
                        if (input[7] > 5.295000000000001) {
                            var1 = 0.00961573320507471;
                        } else {
                            if (input[9] > 2.2150000000000003) {
                                var1 = -0.01326741386204958;
                            } else {
                                var1 = 0.0026595924980938436;
                            }
                        }
                    } else {
                        var1 = 0.016386034622389294;
                    }
                }
            }
        } else {
            if (input[10] > 2.1800000000000006) {
                if (input[7] > 0.9800000000000001) {
                    if (input[2] <= -0.7099999999999999) {
                        var1 = 0.0016761879088102603;
                    } else {
                        var1 = 0.016078095832331617;
                    }
                } else {
                    if (input[9] > 1.5150000000000003) {
                        if (input[7] > 0.14500000000000005) {
                            var1 = -0.005214503124632217;
                        } else {
                            if (input[9] > 3.4650000000000003) {
                                var1 = -0.011117918434597198;
                            } else {
                                var1 = -0.018697199473157525;
                            }
                        }
                    } else {
                        if (input[10] > 4.465000000000001) {
                            var1 = 0.009263516341646513;
                        } else {
                            if (input[4] > 27.200000000000006) {
                                var1 = 0.004836816507421675;
                            } else {
                                if (input[5] > 1020.5000000000001) {
                                    if (input[2] <= -0.7249999999999999) {
                                        var1 = 0.0031469181152513357;
                                    } else {
                                        if (input[10] > 3.265) {
                                            var1 = -0.0012739959452301266;
                                        } else {
                                            var1 = -0.008681810391805883;
                                        }
                                    }
                                } else {
                                    var1 = -0.013105013795817891;
                                }
                            }
                        }
                    }
                }
            } else {
                if (input[4] > 20.350000000000005) {
                    var1 = -0.006006631877971813;
                } else {
                    if (input[2] <= -0.7349999999999999) {
                        var1 = -0.019343386037695795;
                    } else {
                        if (input[6] > 86.50000000000001) {
                            var1 = -0.018898163304071538;
                        } else {
                            var1 = -0.012757279278406303;
                        }
                    }
                }
            }
        }
    } else {
        if (input[5] > 1016.5000000000001) {
            if (input[0] <= -0.6049999999999999) {
                var1 = -0.012753058603714005;
            } else {
                if (input[8] > 99.50000000000001) {
                    if (input[2] <= -0.7449999999999999) {
                        var1 = 0.013920018488936354;
                    } else {
                        if (input[1] > 0.6050000000000001) {
                            var1 = -0.0113413449651985;
                        } else {
                            var1 = 0.001115670451975387;
                        }
                    }
                } else {
                    if (input[1] > 0.7900000000000001) {
                        var1 = 0.021775787932654986;
                    } else {
                        var1 = 0.0358887677701811;
                    }
                }
            }
        } else {
            if (input[9] > 4.415000000000001) {
                var1 = 0.007376748978948364;
            } else {
                if (input[6] > 73.50000000000001) {
                    var1 = 0.023769513559951026;
                } else {
                    if (input[6] > 65.50000000000001) {
                        var1 = 0.05020373552556961;
                    } else {
                        var1 = 0.0273552975351257;
                    }
                }
            }
        }
    }
    var var2;
    if (input[10] > 2.1800000000000006) {
        if (input[5] > 1016.5000000000001) {
            if (input[7] > 0.9800000000000001) {
                if (input[9] > 5.445000000000001) {
                    var2 = 0.04526276733726264;
                } else {
                    if (input[5] > 1018.5000000000001) {
                        if (input[4] > 20.950000000000003) {
                            if (input[8] > 4.500000000000001) {
                                if (input[8] > 12.500000000000002) {
                                    if (input[10] > 4.845000000000001) {
                                        var2 = 0.019241160541772842;
                                    } else {
                                        var2 = 0.010440702683564913;
                                    }
                                } else {
                                    var2 = -0.0014213650720193982;
                                }
                            } else {
                                var2 = 0.020855213096365333;
                            }
                        } else {
                            if (input[8] > 72.00000000000001) {
                                var2 = -0.009859617025649641;
                            } else {
                                var2 = 0.0044301741750031294;
                            }
                        }
                    } else {
                        if (input[1] <= -0.7899999999999999) {
                            var2 = 0.0328948365701806;
                        } else {
                            var2 = 0.00980894153006375;
                        }
                    }
                }
            } else {
                if (input[9] > 1.8050000000000004) {
                    if (input[9] > 3.3950000000000005) {
                        if (input[8] > 99.50000000000001) {
                            var2 = -0.0011885369817415873;
                        } else {
                            var2 = -0.009849560878126684;
                        }
                    } else {
                        if (input[4] > 18.850000000000005) {
                            var2 = -0.012029932827378314;
                        } else {
                            var2 = -0.01851512745245179;
                        }
                    }
                } else {
                    if (input[5] > 1017.5000000000001) {
                        if (input[4] > 27.200000000000006) {
                            var2 = 0.0062916879920521755;
                        } else {
                            if (input[10] > 4.465000000000001) {
                                var2 = 0.005283244025139582;
                            } else {
                                if (input[2] <= -0.7349999999999999) {
                                    var2 = -0.015578379144980795;
                                } else {
                                    if (input[2] <= -0.7249999999999999) {
                                        var2 = -0.0005280423220912261;
                                    } else {
                                        if (input[10] > 3.265) {
                                            var2 = -0.0016303331100356742;
                                        } else {
                                            if (input[6] > 64.50000000000001) {
                                                var2 = -0.006723959254347445;
                                            } else {
                                                var2 = -0.013181802619337327;
                                            }
                                        }
                                    }
                                }
                            }
                        }
                    } else {
                        if (input[8] > 99.50000000000001) {
                            var2 = 0.003996936526269683;
                        } else {
                            var2 = 0.0239598679356277;
                        }
                    }
                }
            }
        } else {
            if (input[9] > 4.415000000000001) {
                var2 = 0.007007911504031374;
            } else {
                if (input[10] > 4.845000000000001) {
                    var2 = 0.042450348485374094;
                } else {
                    if (input[4] > 20.250000000000004) {
                        var2 = 0.0333245476441724;
                    } else {
                        var2 = 0.02101720042526722;
                    }
                }
            }
        }
    } else {
        if (input[6] > 57.50000000000001) {
            if (input[2] <= -0.7549999999999999) {
                var2 = -0.01836281269788742;
            } else {
                if (input[7] > 0.17500000000000002) {
                    var2 = -0.0082011559009552;
                } else {
                    var2 = -0.015386414902055995;
                }
            }
        } else {
            if (input[8] > 45.00000000000001) {
                var2 = -0.008559183375133823;
            } else {
                var2 = 0.002585150970013014;
            }
        }
    }
    var var3;
    if (input[10] > 2.1800000000000006) {
        if (input[5] > 1016.5000000000001) {
            if (input[7] > 0.9800000000000001) {
                if (input[9] > 5.445000000000001) {
                    var3 = 0.042999628949910405;
                } else {
                    if (input[5] > 1018.5000000000001) {
                        if (input[4] > 20.750000000000004) {
                            if (input[8] > 4.500000000000001) {
                                if (input[8] > 12.500000000000002) {
                                    if (input[6] > 40.50000000000001) {
                                        if (input[5] > 1020.5000000000001) {
                                            var3 = 0.0038009967492974323;
                                        } else {
                                            var3 = 0.015112481227455041;
                                        }
                                    } else {
                                        var3 = 0.018798517630152084;
                                    }
                                } else {
                                    var3 = -0.0013502969367740056;
                                }
                            } else {
                                var3 = 0.019322983743179412;
                            }
                        } else {
                            if (input[2] <= -0.7249999999999999) {
                                var3 = -0.005697107131127269;
                            } else {
                                var3 = 0.006923075838014484;
                            }
                        }
                    } else {
                        if (input[1] <= -0.7899999999999999) {
                            var3 = 0.03125009435628142;
                        } else {
                            var3 = 0.009318494495625298;
                        }
                    }
                }
            } else {
                if (input[9] > 1.8050000000000004) {
                    if (input[9] > 3.3950000000000005) {
                        if (input[8] > 99.50000000000001) {
                            var3 = -0.001129110079879562;
                        } else {
                            var3 = -0.009357083016639633;
                        }
                    } else {
                        var3 = -0.016119147690055385;
                    }
                } else {
                    if (input[5] > 1017.5000000000001) {
                        if (input[4] > 27.200000000000006) {
                            var3 = 0.0059771033382276075;
                        } else {
                            if (input[10] > 4.465000000000001) {
                                var3 = 0.005019081650035722;
                            } else {
                                if (input[2] <= -0.7349999999999999) {
                                    var3 = -0.01479945998816263;
                                } else {
                                    if (input[2] <= -0.7249999999999999) {
                                        var3 = -0.000501640292682818;
                                    } else {
                                        if (input[1] > 0.38000000000000006) {
                                            if (input[6] > 79.50000000000001) {
                                                var3 = -0.013530919852976997;
                                            } else {
                                                var3 = -0.004809824212429089;
                                            }
                                        } else {
                                            var3 = -0.0028942350590191153;
                                        }
                                    }
                                }
                            }
                        }
                    } else {
                        if (input[8] > 99.50000000000001) {
                            var3 = 0.003797089810212774;
                        } else {
                            var3 = 0.022761874344562078;
                        }
                    }
                }
            }
        } else {
            if (input[9] > 4.340000000000001) {
                var3 = 0.009118713770294563;
            } else {
                if (input[10] > 4.845000000000001) {
                    var3 = 0.04489314878980319;
                } else {
                    if (input[4] > 20.250000000000004) {
                        var3 = 0.03165832080301784;
                    } else {
                        var3 = 0.01996634051203728;
                    }
                }
            }
        }
    } else {
        if (input[6] > 57.50000000000001) {
            if (input[2] <= -0.7549999999999999) {
                var3 = -0.01744467169046402;
            } else {
                if (input[7] > 0.17500000000000002) {
                    var3 = -0.007791098088026047;
                } else {
                    var3 = -0.014617094562568687;
                }
            }
        } else {
            if (input[6] > 52.50000000000001) {
                var3 = 0.0028120768744321098;
            } else {
                var3 = -0.008380552392724592;
            }
        }
    }
    var var4;
    if (input[10] > 2.1800000000000006) {
        if (input[5] > 1016.5000000000001) {
            if (input[7] > 0.9800000000000001) {
                if (input[9] > 5.445000000000001) {
                    var4 = 0.04084964737761766;
                } else {
                    if (input[5] > 1018.5000000000001) {
                        if (input[4] > 20.450000000000003) {
                            if (input[6] > 39.50000000000001) {
                                if (input[7] > 4.550000000000001) {
                                    if (input[6] > 48.50000000000001) {
                                        var4 = 0.017991342914756386;
                                    } else {
                                        var4 = 0.004572102953776872;
                                    }
                                } else {
                                    if (input[5] > 1020.5000000000001) {
                                        var4 = -0.003787741046803801;
                                    } else {
                                        var4 = 0.007013855408877135;
                                    }
                                }
                            } else {
                                var4 = 0.01850121097173542;
                            }
                        } else {
                            if (input[2] <= -0.7249999999999999) {
                                var4 = -0.009040137810632587;
                            } else {
                                var4 = 0.006152216021133507;
                            }
                        }
                    } else {
                        if (input[1] <= -0.7899999999999999) {
                            var4 = 0.029687590240722612;
                        } else {
                            var4 = 0.008852569721639156;
                        }
                    }
                }
            } else {
                if (input[9] > 1.8050000000000004) {
                    if (input[9] > 3.3950000000000005) {
                        var4 = -0.005598039502735463;
                    } else {
                        var4 = -0.015313191138292579;
                    }
                } else {
                    if (input[5] > 1017.5000000000001) {
                        if (input[4] > 27.200000000000006) {
                            var4 = 0.005678248591721058;
                        } else {
                            if (input[10] > 3.265) {
                                if (input[8] > 85.50000000000001) {
                                    var4 = 0.0033689141288423576;
                                } else {
                                    var4 = -0.004523383573229824;
                                }
                            } else {
                                if (input[5] > 1020.5000000000001) {
                                    if (input[8] > 97.50000000000001) {
                                        var4 = 0.0012792135206317265;
                                    } else {
                                        var4 = -0.008140564104542137;
                                    }
                                } else {
                                    var4 = -0.013636122182721184;
                                }
                            }
                        }
                    } else {
                        if (input[8] > 99.50000000000001) {
                            var4 = 0.0036072352420418495;
                        } else {
                            var4 = 0.02162378092762083;
                        }
                    }
                }
            }
        } else {
            if (input[9] > 4.340000000000001) {
                var4 = 0.008662777743302286;
            } else {
                if (input[10] > 4.845000000000001) {
                    var4 = 0.04264849091155662;
                } else {
                    if (input[4] > 20.250000000000004) {
                        var4 = 0.03007540447371347;
                    } else {
                        var4 = 0.018968023080378774;
                    }
                }
            }
        }
    } else {
        if (input[6] > 57.50000000000001) {
            if (input[2] <= -0.7549999999999999) {
                var4 = -0.016572438180446625;
            } else {
                if (input[6] > 86.50000000000001) {
                    var4 = -0.016500845115462487;
                } else {
                    if (input[8] > 98.50000000000001) {
                        var4 = -0.014923287091814742;
                    } else {
                        if (input[1] > 0.6050000000000001) {
                            var4 = -0.011439278654076837;
                        } else {
                            var4 = -0.002463646062339346;
                        }
                    }
                }
            }
        } else {
            if (input[8] > 60.50000000000001) {
                var4 = -0.008581938951586683;
            } else {
                var4 = 0.002040313701096845;
            }
        }
    }
    var var5;
    if (input[10] > 2.1800000000000006) {
        if (input[5] > 1016.5000000000001) {
            if (input[7] > 0.9800000000000001) {
                if (input[9] > 5.445000000000001) {
                    var5 = 0.03880716545507312;
                } else {
                    if (input[5] > 1018.5000000000001) {
                        if (input[4] > 20.450000000000003) {
                            if (input[8] > 3.5000000000000004) {
                                if (input[8] > 12.500000000000002) {
                                    if (input[7] > 4.410000000000001) {
                                        if (input[5] > 1022.5000000000001) {
                                            var5 = 0.0009665463319314378;
                                        } else {
                                            var5 = 0.01251097142438604;
                                        }
                                    } else {
                                        var5 = 0.016447443375363947;
                                    }
                                } else {
                                    var5 = -0.000515261704900435;
                                }
                            } else {
                                var5 = 0.016942641511559487;
                            }
                        } else {
                            if (input[2] <= -0.7249999999999999) {
                                var5 = -0.008588130678981542;
                            } else {
                                var5 = 0.005844605341553688;
                            }
                        }
                    } else {
                        if (input[1] <= -0.7899999999999999) {
                            var5 = 0.02820321039429733;
                        } else {
                            var5 = 0.008409941072265307;
                        }
                    }
                }
            } else {
                if (input[9] > 1.8050000000000004) {
                    if (input[9] > 3.3950000000000005) {
                        if (input[8] > 99.50000000000001) {
                            var5 = -0.0007927524236341319;
                        } else {
                            var5 = -0.008609326601479993;
                        }
                    } else {
                        var5 = -0.01454753113317896;
                    }
                } else {
                    if (input[5] > 1017.5000000000001) {
                        if (input[4] > 27.200000000000006) {
                            var5 = 0.005394335981691256;
                        } else {
                            if (input[10] > 4.465000000000001) {
                                var5 = 0.004750011542013714;
                            } else {
                                if (input[2] <= -0.7349999999999999) {
                                    var5 = -0.013565405396123728;
                                } else {
                                    if (input[6] > 64.50000000000001) {
                                        var5 = -0.003301255596228517;
                                    } else {
                                        var5 = -0.00864497266048866;
                                    }
                                }
                            }
                        }
                    } else {
                        if (input[8] > 99.50000000000001) {
                            var5 = 0.003426873739508371;
                        } else {
                            var5 = 0.020542591763660314;
                        }
                    }
                }
            }
        } else {
            if (input[9] > 4.415000000000001) {
                var5 = 0.005768441652449278;
            } else {
                if (input[6] > 73.50000000000001) {
                    var5 = 0.018628363006494262;
                } else {
                    if (input[6] > 65.50000000000001) {
                        var5 = 0.04215292494383551;
                    } else {
                        var5 = 0.0214826125651598;
                    }
                }
            }
        }
    } else {
        if (input[6] > 57.50000000000001) {
            if (input[2] <= -0.7549999999999999) {
                var5 = -0.015743815898895265;
            } else {
                if (input[6] > 86.50000000000001) {
                    var5 = -0.015675803549079735;
                } else {
                    if (input[8] > 98.50000000000001) {
                        var5 = -0.014177122655115566;
                    } else {
                        if (input[1] > 0.6050000000000001) {
                            var5 = -0.010867314447056164;
                        } else {
                            var5 = -0.002340463533376654;
                        }
                    }
                }
            }
        } else {
            if (input[6] > 52.50000000000001) {
                var5 = 0.0029235321141424637;
            } else {
                var5 = -0.007833391930519913;
            }
        }
    }
    var var6;
    if (input[10] > 2.1800000000000006) {
        if (input[5] > 1016.5000000000001) {
            if (input[9] > 5.1400000000000015) {
                if (input[7] > 3.6350000000000002) {
                    var6 = 0.03194452111382742;
                } else {
                    var6 = 0.008850633199124233;
                }
            } else {
                if (input[7] > 1.0100000000000002) {
                    if (input[6] > 83.50000000000001) {
                        var6 = 0.017515468737110497;
                    } else {
                        if (input[4] > 23.450000000000003) {
                            if (input[4] > 24.350000000000005) {
                                var6 = 0.008352742365726347;
                            } else {
                                var6 = 0.018121773581951856;
                            }
                        } else {
                            if (input[7] > 5.295000000000001) {
                                var6 = 0.008973318847039571;
                            } else {
                                if (input[7] > 3.1700000000000004) {
                                    if (input[9] > 3.0600000000000005) {
                                        var6 = -0.010008968055163596;
                                    } else {
                                        var6 = 0.001750306195798189;
                                    }
                                } else {
                                    if (input[1] <= -0.6049999999999999) {
                                        var6 = 0.011400595209783032;
                                    } else {
                                        var6 = 0.0008956213220953943;
                                    }
                                }
                            }
                        }
                    }
                } else {
                    if (input[9] > 1.8050000000000004) {
                        if (input[9] > 3.2700000000000005) {
                            if (input[2] <= -0.7099999999999999) {
                                var6 = -0.0037244218008385768;
                            } else {
                                var6 = -0.01435488269087814;
                            }
                        } else {
                            var6 = -0.014495157933718451;
                        }
                    } else {
                        if (input[5] > 1017.5000000000001) {
                            if (input[4] > 27.200000000000006) {
                                var6 = 0.005124619079288096;
                            } else {
                                if (input[10] > 3.265) {
                                    if (input[7] > 0.25000000000000006) {
                                        var6 = -0.006316587636247277;
                                    } else {
                                        if (input[5] > 1024.5000000000002) {
                                            var6 = -0.0033337383446368305;
                                        } else {
                                            var6 = 0.005705477247101954;
                                        }
                                    }
                                } else {
                                    if (input[6] > 64.50000000000001) {
                                        if (input[8] > 97.50000000000001) {
                                            var6 = 0.0027208471764774565;
                                        } else {
                                            if (input[1] > 0.38000000000000006) {
                                                var6 = -0.010354747565256226;
                                            } else {
                                                var6 = -0.0032165562027487264;
                                            }
                                        }
                                    } else {
                                        var6 = -0.011467798028526635;
                                    }
                                }
                            }
                        } else {
                            if (input[8] > 99.50000000000001) {
                                var6 = 0.003255529812116537;
                            } else {
                                var6 = 0.01951546213693089;
                            }
                        }
                    }
                }
            }
        } else {
            if (input[9] > 4.415000000000001) {
                var6 = 0.005480019805523066;
            } else {
                if (input[6] > 73.50000000000001) {
                    var6 = 0.017696944590319286;
                } else {
                    if (input[6] > 65.50000000000001) {
                        var6 = 0.04004527866960533;
                    } else {
                        var6 = 0.020408482069060915;
                    }
                }
            }
        }
    } else {
        if (input[6] > 57.50000000000001) {
            if (input[2] <= -0.7549999999999999) {
                var6 = -0.014956626296043397;
            } else {
                var6 = -0.011479734424367656;
            }
        } else {
            if (input[8] > 60.50000000000001) {
                var6 = -0.008040055529110962;
            } else {
                var6 = 0.002173096021094049;
            }
        }
    }
    var var7;
    if (input[10] > 2.1800000000000006) {
        if (input[5] > 1016.5000000000001) {
            if (input[9] > 5.1400000000000015) {
                if (input[4] > 21.750000000000004) {
                    var7 = 0.013136892442384529;
                } else {
                    var7 = 0.03513783756643534;
                }
            } else {
                if (input[7] > 1.0100000000000002) {
                    if (input[8] > 99.50000000000001) {
                        var7 = 0.014412798334453856;
                    } else {
                        if (input[4] > 23.450000000000003) {
                            if (input[4] > 24.350000000000005) {
                                var7 = 0.007935105097324898;
                            } else {
                                var7 = 0.017215684717521072;
                            }
                        } else {
                            if (input[7] > 3.1700000000000004) {
                                if (input[7] > 4.550000000000001) {
                                    if (input[8] > 59.00000000000001) {
                                        var7 = -0.0018991214071866125;
                                    } else {
                                        var7 = 0.009874183709987185;
                                    }
                                } else {
                                    var7 = -0.0074047996175729425;
                                }
                            } else {
                                if (input[7] > 1.8350000000000002) {
                                    var7 = 0.010227307314053177;
                                } else {
                                    var7 = 0.0029808720041598594;
                                }
                            }
                        }
                    }
                } else {
                    if (input[9] > 1.8050000000000004) {
                        if (input[9] > 3.2700000000000005) {
                            if (input[2] <= -0.7099999999999999) {
                                var7 = -0.0035382007434964185;
                            } else {
                                var7 = -0.01363713847739356;
                            }
                        } else {
                            var7 = -0.01377040005314189;
                        }
                    } else {
                        if (input[5] > 1017.5000000000001) {
                            if (input[10] > 4.465000000000001) {
                                var7 = 0.006865785262462768;
                            } else {
                                if (input[5] > 1020.5000000000001) {
                                    if (input[8] > 99.50000000000001) {
                                        var7 = 0.004193869846118293;
                                    } else {
                                        if (input[1] > 0.38000000000000006) {
                                            if (input[5] > 1024.5000000000002) {
                                                var7 = -0.010356708746052014;
                                            } else {
                                                var7 = -0.0016772782765328885;
                                            }
                                        } else {
                                            var7 = -0.0001325423652424088;
                                        }
                                    }
                                } else {
                                    var7 = -0.01154929683716209;
                                }
                            }
                        } else {
                            if (input[8] > 99.50000000000001) {
                                var7 = 0.003092753617543607;
                            } else {
                                var7 = 0.018539689274297822;
                            }
                        }
                    }
                }
            }
        } else {
            if (input[9] > 4.415000000000001) {
                var7 = 0.005206018442717883;
            } else {
                if (input[10] > 4.845000000000001) {
                    var7 = 0.033441690942554766;
                } else {
                    if (input[4] > 20.250000000000004) {
                        var7 = 0.025613355991386234;
                    } else {
                        var7 = 0.015744627974927424;
                    }
                }
            }
        }
    } else {
        if (input[4] > 19.050000000000004) {
            if (input[1] > 0.000000000000000000000000000000000010000000180025095) {
                var7 = -0.01002744850344383;
            } else {
                var7 = 0.00005209020057104921;
            }
        } else {
            if (input[2] <= -0.7549999999999999) {
                var7 = -0.01412661709522797;
            } else {
                if (input[6] > 86.50000000000001) {
                    var7 = -0.014318026159889996;
                } else {
                    if (input[4] > 16.550000000000004) {
                        var7 = -0.012753757792929915;
                    } else {
                        var7 = -0.003703958618229833;
                    }
                }
            }
        }
    }
    var var8;
    if (input[10] > 2.1800000000000006) {
        if (input[5] > 1016.5000000000001) {
            if (input[9] > 5.1400000000000015) {
                if (input[7] > 3.6350000000000002) {
                    var8 = 0.029006636615943267;
                } else {
                    var8 = 0.007703428962470397;
                }
            } else {
                if (input[7] > 1.0100000000000002) {
                    if (input[6] > 83.50000000000001) {
                        var8 = 0.016004794841865077;
                    } else {
                        if (input[4] > 23.450000000000003) {
                            if (input[4] > 24.350000000000005) {
                                var8 = 0.0075383499211360075;
                            } else {
                                var8 = 0.016354900100268424;
                            }
                        } else {
                            if (input[7] > 4.550000000000001) {
                                if (input[5] > 1021.5000000000001) {
                                    var8 = 0.0007213655060955456;
                                } else {
                                    var8 = 0.013909973435802386;
                                }
                            } else {
                                if (input[7] > 3.1700000000000004) {
                                    var8 = -0.007034559517121649;
                                } else {
                                    if (input[1] <= -0.6049999999999999) {
                                        var8 = 0.010368282888971625;
                                    } else {
                                        var8 = 0.0004921489208936691;
                                    }
                                }
                            }
                        }
                    }
                } else {
                    if (input[9] > 1.8050000000000004) {
                        if (input[9] > 3.2700000000000005) {
                            if (input[2] <= -0.7099999999999999) {
                                var8 = -0.003361290548410681;
                            } else {
                                var8 = -0.012955282105221635;
                            }
                        } else {
                            var8 = -0.01308187998428538;
                        }
                    } else {
                        if (input[5] > 1017.5000000000001) {
                            if (input[4] > 27.200000000000006) {
                                var8 = 0.004789720213739202;
                            } else {
                                if (input[10] > 3.265) {
                                    if (input[7] > 0.25000000000000006) {
                                        var8 = -0.005995294572785497;
                                    } else {
                                        if (input[5] > 1024.5000000000002) {
                                            var8 = -0.002951293709603223;
                                        } else {
                                            var8 = 0.005290946884633741;
                                        }
                                    }
                                } else {
                                    if (input[5] > 1020.5000000000001) {
                                        if (input[8] > 97.50000000000001) {
                                            var8 = 0.0017886796309280078;
                                        } else {
                                            var8 = -0.0068781755142845215;
                                        }
                                    } else {
                                        var8 = -0.011715350771278499;
                                    }
                                }
                            }
                        } else {
                            if (input[8] > 99.50000000000001) {
                                var8 = 0.002938115664367234;
                            } else {
                                var8 = 0.017612704624318416;
                            }
                        }
                    }
                }
            }
        } else {
            if (input[9] > 4.340000000000001) {
                var8 = 0.006854931317502633;
            } else {
                if (input[10] > 4.845000000000001) {
                    var8 = 0.03546769940466792;
                } else {
                    if (input[4] > 20.250000000000004) {
                        var8 = 0.024332688252131144;
                    } else {
                        var8 = 0.014957396723330022;
                    }
                }
            }
        }
    } else {
        if (input[6] > 57.50000000000001) {
            if (input[10] > 1.715) {
                if (input[8] > 41.00000000000001) {
                    var8 = -0.011641393751516696;
                } else {
                    var8 = -0.0038154516531073534;
                }
            } else {
                var8 = -0.012912592256504127;
            }
        } else {
            if (input[6] > 52.50000000000001) {
                var8 = 0.003362841105886868;
            } else {
                var8 = -0.007217237220611424;
            }
        }
    }
    var var9;
    if (input[10] > 2.1800000000000006) {
        if (input[5] > 1016.5000000000001) {
            if (input[9] > 5.1400000000000015) {
                if (input[4] > 21.750000000000004) {
                    var9 = 0.011680647466952604;
                } else {
                    var9 = 0.03197499603653948;
                }
            } else {
                if (input[7] > 1.0100000000000002) {
                    if (input[8] > 99.50000000000001) {
                        var9 = 0.013080495592927741;
                    } else {
                        if (input[4] > 23.450000000000003) {
                            if (input[4] > 24.350000000000005) {
                                var9 = 0.007161432616218615;
                            } else {
                                var9 = 0.01553715528221801;
                            }
                        } else {
                            if (input[7] > 3.1700000000000004) {
                                if (input[7] > 4.550000000000001) {
                                    if (input[8] > 59.00000000000001) {
                                        var9 = -0.0022358917986275632;
                                    } else {
                                        var9 = 0.009284457682885907;
                                    }
                                } else {
                                    var9 = -0.006682831482877108;
                                }
                            } else {
                                var9 = 0.005879734271836308;
                            }
                        }
                    }
                } else {
                    if (input[9] > 1.8050000000000004) {
                        if (input[9] > 3.2700000000000005) {
                            if (input[2] <= -0.7099999999999999) {
                                var9 = -0.003193226162758139;
                            } else {
                                var9 = -0.012307518020471824;
                            }
                        } else {
                            var9 = -0.012427786058066666;
                        }
                    } else {
                        if (input[5] > 1017.5000000000001) {
                            if (input[10] > 4.465000000000001) {
                                var9 = 0.006464291948147795;
                            } else {
                                if (input[2] <= -0.7349999999999999) {
                                    var9 = -0.011553777591325344;
                                } else {
                                    if (input[4] > 27.200000000000006) {
                                        var9 = 0.0028620582194097584;
                                    } else {
                                        if (input[6] > 64.50000000000001) {
                                            if (input[4] > 14.65) {
                                                if (input[5] > 1025.5000000000002) {
                                                    if (input[1] > 0.38000000000000006) {
                                                        var9 = -0.009226853683077057;
                                                    } else {
                                                        var9 = 0.0003560752438550646;
                                                    }
                                                } else {
                                                    if (input[1] > 0.6050000000000001) {
                                                        var9 = 0.006770499837252178;
                                                    } else {
                                                        var9 = -0.003106054491721667;
                                                    }
                                                }
                                            } else {
                                                var9 = -0.0072812319993972785;
                                            }
                                        } else {
                                            var9 = -0.007528181740593526;
                                        }
                                    }
                                }
                            }
                        } else {
                            if (input[8] > 99.50000000000001) {
                                var9 = 0.002791209829851024;
                            } else {
                                var9 = 0.01673206939853521;
                            }
                        }
                    }
                }
            }
        } else {
            if (input[9] > 4.340000000000001) {
                var9 = 0.006512184417806566;
            } else {
                if (input[10] > 4.845000000000001) {
                    var9 = 0.033694313759743064;
                } else {
                    if (input[4] > 20.250000000000004) {
                        var9 = 0.023116053605363483;
                    } else {
                        var9 = 0.014209526558406653;
                    }
                }
            }
        }
    } else {
        if (input[4] > 19.050000000000004) {
            if (input[1] > 0.000000000000000000000000000000000010000000180025095) {
                var9 = -0.009117420633824971;
            } else {
                var9 = 0.00029858671692445095;
            }
        } else {
            if (input[2] <= -0.7549999999999999) {
                var9 = -0.012843547205803758;
            } else {
                var9 = -0.01001394522873325;
            }
        }
    }
    var var10;
    if (input[10] > 2.1800000000000006) {
        if (input[5] > 1016.5000000000001) {
            if (input[9] > 5.1400000000000015) {
                if (input[7] > 3.6350000000000002) {
                    var10 = 0.026341502637542608;
                } else {
                    var10 = 0.006690106925595066;
                }
            } else {
                if (input[7] > 1.0100000000000002) {
                    if (input[6] > 83.50000000000001) {
                        var10 = 0.014604535722173751;
                    } else {
                        if (input[7] > 5.295000000000001) {
                            if (input[10] > 3.9000000000000004) {
                                var10 = 0.005903117141972941;
                            } else {
                                var10 = 0.015602292750208153;
                            }
                        } else {
                            if (input[2] <= -0.7249999999999999) {
                                if (input[5] > 1020.5000000000001) {
                                    var10 = -0.010990967673133128;
                                } else {
                                    if (input[10] > 5.180000000000001) {
                                        var10 = -0.0027158168208023365;
                                    } else {
                                        var10 = 0.0059264863498116795;
                                    }
                                }
                            } else {
                                if (input[8] > 37.50000000000001) {
                                    var10 = 0.010870544146746397;
                                } else {
                                    var10 = 0.0017513587031862698;
                                }
                            }
                        }
                    }
                } else {
                    if (input[9] > 1.8050000000000004) {
                        if (input[0] > 0.6050000000000001) {
                            var10 = -0.002794927634574749;
                        } else {
                            if (input[1] <= -0.000000000000000000000000000000000010000000180025095) {
                                var10 = -0.0028288395144045356;
                            } else {
                                var10 = -0.012285947849830756;
                            }
                        }
                    } else {
                        if (input[5] > 1017.5000000000001) {
                            if (input[10] > 4.465000000000001) {
                                var10 = 0.006141077676279978;
                            } else {
                                if (input[5] > 1020.5000000000001) {
                                    if (input[8] > 99.50000000000001) {
                                        var10 = 0.003786268587834362;
                                    } else {
                                        if (input[1] > 0.38000000000000006) {
                                            if (input[5] > 1024.5000000000002) {
                                                if (input[8] > 34.00000000000001) {
                                                    var10 = -0.011615250469185413;
                                                } else {
                                                    var10 = -0.00549551115504333;
                                                }
                                            } else {
                                                var10 = -0.001684648472815752;
                                            }
                                        } else {
                                            var10 = 0.00008663323625356337;
                                        }
                                    }
                                } else {
                                    var10 = -0.010061570525997217;
                                }
                            }
                        } else {
                            if (input[8] > 99.50000000000001) {
                                var10 = 0.0026516495002133233;
                            } else {
                                var10 = 0.015895466232258414;
                            }
                        }
                    }
                }
            }
        } else {
            if (input[9] > 4.415000000000001) {
                var10 = 0.004277362065533033;
            } else {
                if (input[6] > 73.50000000000001) {
                    var10 = 0.013779809050769969;
                } else {
                    if (input[6] > 65.50000000000001) {
                        var10 = 0.03371386690245521;
                    } else {
                        var10 = 0.01589898859106359;
                    }
                }
            }
        }
    } else {
        if (input[4] > 19.050000000000004) {
            if (input[1] > 0.000000000000000000000000000000000010000000180025095) {
                var10 = -0.008661549581358067;
            } else {
                var10 = 0.00028365727661079486;
            }
        } else {
            if (input[2] <= -0.7549999999999999) {
                var10 = -0.012201369926333428;
            } else {
                if (input[6] > 86.50000000000001) {
                    var10 = -0.012498593355783008;
                } else {
                    var10 = -0.007761845444018642;
                }
            }
        }
    }
    var var11;
    if (input[10] > 2.1800000000000006) {
        if (input[5] > 1016.5000000000001) {
            if (input[9] > 5.1400000000000015) {
                if (input[4] > 21.750000000000004) {
                    var11 = 0.010379999141312308;
                } else {
                    var11 = 0.029100111468384666;
                }
            } else {
                if (input[7] > 1.0100000000000002) {
                    if (input[8] > 99.50000000000001) {
                        var11 = 0.011973021566987999;
                    } else {
                        if (input[4] > 23.450000000000003) {
                            if (input[4] > 24.350000000000005) {
                                var11 = 0.006311971185884129;
                            } else {
                                var11 = 0.014392164068995045;
                            }
                        } else {
                            if (input[7] > 3.1700000000000004) {
                                if (input[7] > 4.550000000000001) {
                                    if (input[8] > 59.00000000000001) {
                                        var11 = -0.002315128610935062;
                                    } else {
                                        var11 = 0.00840534566139633;
                                    }
                                } else {
                                    var11 = -0.006318661237177863;
                                }
                            } else {
                                if (input[7] > 1.8350000000000002) {
                                    var11 = 0.008980037426808848;
                                } else {
                                    var11 = 0.002087911280492942;
                                }
                            }
                        }
                    }
                } else {
                    if (input[9] > 1.8050000000000004) {
                        if (input[9] > 3.3950000000000005) {
                            if (input[8] > 99.50000000000001) {
                                var11 = 0.00013694874942302704;
                            } else {
                                var11 = -0.008962214272469283;
                            }
                        } else {
                            if (input[4] > 18.850000000000005) {
                                var11 = -0.006697691302923929;
                            } else {
                                var11 = -0.012009344427888074;
                            }
                        }
                    } else {
                        if (input[5] > 1017.5000000000001) {
                            if (input[4] > 27.200000000000006) {
                                var11 = 0.004324123507831246;
                            } else {
                                if (input[10] > 3.265) {
                                    if (input[7] > 0.25000000000000006) {
                                        var11 = -0.005592825012281537;
                                    } else {
                                        if (input[5] > 1024.5000000000002) {
                                            var11 = -0.002409024773673578;
                                        } else {
                                            var11 = 0.004700114790466614;
                                        }
                                    }
                                } else {
                                    if (input[6] > 78.50000000000001) {
                                        if (input[5] > 1024.5000000000002) {
                                            var11 = -0.006496017777494022;
                                        } else {
                                            var11 = 0.0034339383281767367;
                                        }
                                    } else {
                                        if (input[5] > 1024.5000000000002) {
                                            var11 = -0.0032882841827813537;
                                        } else {
                                            var11 = -0.010779730935354491;
                                        }
                                    }
                                }
                            }
                        } else {
                            if (input[8] > 99.50000000000001) {
                                var11 = 0.002519066908186482;
                            } else {
                                var11 = 0.015100692502326436;
                            }
                        }
                    }
                }
            }
        } else {
            if (input[9] > 4.415000000000001) {
                var11 = 0.004063493504117314;
            } else {
                if (input[10] > 4.465000000000001) {
                    if (input[6] > 66.50000000000001) {
                        var11 = 0.02861666730294625;
                    } else {
                        var11 = 0.020817112709794725;
                    }
                } else {
                    var11 = 0.01314768862667615;
                }
            }
        }
    } else {
        if (input[4] > 19.050000000000004) {
            if (input[8] > 41.00000000000001) {
                var11 = -0.006642014190162484;
            } else {
                var11 = 0.0018729343634242052;
            }
        } else {
            var11 = -0.010309055990948173;
        }
    }
    var var12;
    if (input[10] > 2.1800000000000006) {
        if (input[5] > 1016.5000000000001) {
            if (input[9] > 5.1400000000000015) {
                if (input[7] > 3.6350000000000002) {
                    var12 = 0.023923586006905584;
                } else {
                    var12 = 0.005795905743118213;
                }
            } else {
                if (input[7] > 1.0100000000000002) {
                    if (input[6] > 83.50000000000001) {
                        var12 = 0.013349796375259758;
                    } else {
                        if (input[7] > 5.295000000000001) {
                            if (input[10] > 3.9000000000000004) {
                                var12 = 0.005047265388286458;
                            } else {
                                var12 = 0.014559837266625393;
                            }
                        } else {
                            if (input[2] <= -0.7249999999999999) {
                                if (input[5] > 1020.5000000000001) {
                                    var12 = -0.010409966864972376;
                                } else {
                                    if (input[10] > 5.180000000000001) {
                                        var12 = -0.0027666564988480372;
                                    } else {
                                        var12 = 0.00545981646711497;
                                    }
                                }
                            } else {
                                if (input[8] > 37.50000000000001) {
                                    var12 = 0.010015585044554125;
                                } else {
                                    var12 = 0.0016537817637436094;
                                }
                            }
                        }
                    }
                } else {
                    if (input[9] > 1.8050000000000004) {
                        if (input[9] > 3.4650000000000003) {
                            if (input[8] > 99.50000000000001) {
                                var12 = 0.00123551892382758;
                            } else {
                                var12 = -0.00851410359277257;
                            }
                        } else {
                            var12 = -0.010119089744166358;
                        }
                    } else {
                        if (input[5] > 1017.5000000000001) {
                            if (input[10] > 4.465000000000001) {
                                var12 = 0.005787016976286065;
                            } else {
                                if (input[2] <= -0.7349999999999999) {
                                    var12 = -0.010116119026428179;
                                } else {
                                    if (input[4] > 25.450000000000003) {
                                        if (input[0] <= -0.7899999999999999) {
                                            var12 = 0.005185610104514206;
                                        } else {
                                            var12 = -0.002419009982120423;
                                        }
                                    } else {
                                        if (input[6] > 65.50000000000001) {
                                            if (input[4] > 14.65) {
                                                if (input[5] > 1025.5000000000002) {
                                                    var12 = -0.0048632472138851884;
                                                } else {
                                                    if (input[8] > 98.50000000000001) {
                                                        var12 = -0.0025200123349869894;
                                                    } else {
                                                        var12 = 0.007960697181522846;
                                                    }
                                                }
                                            } else {
                                                var12 = -0.00666703449189663;
                                            }
                                        } else {
                                            var12 = -0.009877396980300546;
                                        }
                                    }
                                }
                            }
                        } else {
                            if (input[0] > 0.6050000000000001) {
                                var12 = 0.01599897178821266;
                            } else {
                                var12 = 0.003657923366587896;
                            }
                        }
                    }
                }
            }
        } else {
            if (input[9] > 4.340000000000001) {
                var12 = 0.005503514171869029;
            } else {
                if (input[10] > 4.845000000000001) {
                    var12 = 0.02932908209903097;
                } else {
                    if (input[4] > 20.250000000000004) {
                        var12 = 0.01988785348477818;
                    } else {
                        var12 = 0.011643955153413118;
                    }
                }
            }
        }
    } else {
        if (input[6] > 57.50000000000001) {
            var12 = -0.009615813041478396;
        } else {
            if (input[6] > 52.50000000000001) {
                var12 = 0.0040625944733619695;
            } else {
                var12 = -0.006532013746909798;
            }
        }
    }
    var var13;
    if (input[10] > 2.1800000000000006) {
        if (input[5] > 1016.5000000000001) {
            if (input[9] > 5.070000000000001) {
                if (input[0] <= -0.6049999999999999) {
                    var13 = 0.004176996788941323;
                } else {
                    if (input[9] > 5.445000000000001) {
                        var13 = 0.027868194021284584;
                    } else {
                        var13 = 0.016888423973605748;
                    }
                }
            } else {
                if (input[9] > 1.8050000000000004) {
                    if (input[7] > 0.14500000000000005) {
                        if (input[6] > 48.50000000000001) {
                            if (input[7] > 3.845) {
                                var13 = -0.001219758896955422;
                            } else {
                                var13 = 0.008386507258877497;
                            }
                        } else {
                            if (input[4] > 22.050000000000004) {
                                var13 = 0.00029487238221225285;
                            } else {
                                var13 = -0.007641692610368842;
                            }
                        }
                    } else {
                        if (input[0] > 0.6050000000000001) {
                            var13 = -0.0024025765282136425;
                        } else {
                            var13 = -0.010632887647979046;
                        }
                    }
                } else {
                    if (input[9] > 1.3050000000000004) {
                        if (input[8] > 98.50000000000001) {
                            if (input[6] > 77.50000000000001) {
                                if (input[8] > 99.50000000000001) {
                                    var13 = 0.014111164078602327;
                                } else {
                                    var13 = 0.02073012835878347;
                                }
                            } else {
                                var13 = 0.0032407478196546436;
                            }
                        } else {
                            if (input[1] <= -0.6049999999999999) {
                                if (input[2] <= -0.7099999999999999) {
                                    var13 = 0.0013345550534061411;
                                } else {
                                    var13 = 0.012328155309058212;
                                }
                            } else {
                                if (input[10] > 3.9000000000000004) {
                                    var13 = -0.0010121812229044735;
                                } else {
                                    var13 = -0.007247180190114748;
                                }
                            }
                        }
                    } else {
                        if (input[7] > 1.8350000000000002) {
                            var13 = 0.008616248269278842;
                        } else {
                            if (input[5] > 1025.5000000000002) {
                                var13 = -0.0056296142982319;
                            } else {
                                if (input[6] > 77.50000000000001) {
                                    if (input[4] > 14.15) {
                                        if (input[1] > 0.000000000000000000000000000000000010000000180025095) {
                                            var13 = 0.007765706286479074;
                                        } else {
                                            var13 = -0.00099452465018701;
                                        }
                                    } else {
                                        var13 = -0.00586773128553222;
                                    }
                                } else {
                                    if (input[4] > 19.550000000000004) {
                                        if (input[4] > 25.450000000000003) {
                                            var13 = 0.0018012570010291205;
                                        } else {
                                            var13 = -0.0037487873299555346;
                                        }
                                    } else {
                                        var13 = -0.011233290962197565;
                                    }
                                }
                            }
                        }
                    }
                }
            }
        } else {
            if (input[9] > 4.415000000000001) {
                var13 = 0.003585143531493556;
            } else {
                if (input[6] > 73.50000000000001) {
                    var13 = 0.011188194071027367;
                } else {
                    if (input[6] > 65.50000000000001) {
                        var13 = 0.029644533074010285;
                    } else {
                        var13 = 0.013298146941122555;
                    }
                }
            }
        }
    } else {
        if (input[4] > 19.050000000000004) {
            if (input[1] > 0.000000000000000000000000000000000010000000180025095) {
                var13 = -0.007570825216288751;
            } else {
                var13 = 0.0005317006885123096;
            }
        } else {
            var13 = -0.00933431397192303;
        }
    }
    var var14;
    if (input[10] > 2.1800000000000006) {
        if (input[5] > 1016.5000000000001) {
            if (input[9] > 5.070000000000001) {
                if (input[0] <= -0.6049999999999999) {
                    var14 = 0.003968146717757918;
                } else {
                    if (input[9] > 5.445000000000001) {
                        var14 = 0.02647478420287371;
                    } else {
                        var14 = 0.016044002682680174;
                    }
                }
            } else {
                if (input[9] > 1.8050000000000004) {
                    if (input[7] > 0.14500000000000005) {
                        if (input[6] > 48.50000000000001) {
                            if (input[7] > 3.845) {
                                var14 = -0.0011587707991046565;
                            } else {
                                var14 = 0.007967181912416974;
                            }
                        } else {
                            if (input[4] > 22.050000000000004) {
                                var14 = 0.0002801287298401197;
                            } else {
                                var14 = -0.007259607993321315;
                            }
                        }
                    } else {
                        if (input[0] > 0.6050000000000001) {
                            var14 = -0.0022824477266382287;
                        } else {
                            var14 = -0.010101243280125467;
                        }
                    }
                } else {
                    if (input[7] > 3.5700000000000007) {
                        if (input[5] > 1022.5000000000001) {
                            if (input[8] > 23.000000000000004) {
                                var14 = -0.0017659706244012342;
                            } else {
                                var14 = 0.010977768314921338;
                            }
                        } else {
                            var14 = 0.013963804109953343;
                        }
                    } else {
                        if (input[5] > 1017.5000000000001) {
                            if (input[4] > 27.200000000000006) {
                                var14 = 0.003931876842398196;
                            } else {
                                if (input[10] > 3.095) {
                                    if (input[5] > 1024.5000000000002) {
                                        if (input[1] > 0.38000000000000006) {
                                            var14 = -0.008353810186710452;
                                        } else {
                                            var14 = 0.0003089494397863746;
                                        }
                                    } else {
                                        if (input[1] > 0.000000000000000000000000000000000010000000180025095) {
                                            var14 = 0.005368035817001429;
                                        } else {
                                            var14 = -0.0032740075779812677;
                                        }
                                    }
                                } else {
                                    if (input[4] > 20.650000000000002) {
                                        var14 = -0.010366089890954928;
                                    } else {
                                        if (input[4] > 14.65) {
                                            if (input[5] > 1021.5000000000001) {
                                                var14 = 0.0015454186514640847;
                                            } else {
                                                var14 = -0.006449858429662597;
                                            }
                                        } else {
                                            var14 = -0.008304104568170649;
                                        }
                                    }
                                }
                            }
                        } else {
                            if (input[4] > 16.550000000000004) {
                                var14 = -0.004239740254442123;
                            } else {
                                if (input[1] > 0.38000000000000006) {
                                    var14 = 0.015062323489569521;
                                } else {
                                    var14 = 0.007113348030606689;
                                }
                            }
                        }
                    }
                }
            }
        } else {
            if (input[9] > 4.415000000000001) {
                var14 = 0.0034058862370259777;
            } else {
                if (input[7] > 0.09000000000000001) {
                    if (input[7] > 0.6850000000000002) {
                        var14 = 0.022063969949196127;
                    } else {
                        var14 = 0.004218571307137609;
                    }
                } else {
                    var14 = 0.02591744972765446;
                }
            }
        }
    } else {
        if (input[4] > 19.050000000000004) {
            if (input[4] > 22.750000000000004) {
                var14 = -0.00726559296823465;
            } else {
                var14 = 0.0005552744615430895;
            }
        } else {
            var14 = -0.0088675982701712;
        }
    }
    var var15;
    if (input[10] > 2.1800000000000006) {
        if (input[5] > 1016.5000000000001) {
            if (input[7] > 0.9800000000000001) {
                if (input[9] > 5.445000000000001) {
                    var15 = 0.02515104476362467;
                } else {
                    if (input[1] <= -0.9849999999999999) {
                        var15 = 0.014925213920928182;
                    } else {
                        if (input[6] > 41.50000000000001) {
                            if (input[6] > 55.50000000000001) {
                                if (input[0] > 0.38000000000000006) {
                                    if (input[6] > 83.50000000000001) {
                                        var15 = 0.011820632927119733;
                                    } else {
                                        if (input[8] > 49.00000000000001) {
                                            var15 = -0.004403956626386692;
                                        } else {
                                            var15 = 0.004016059938086463;
                                        }
                                    }
                                } else {
                                    var15 = 0.012104463896581106;
                                }
                            } else {
                                if (input[2] <= -0.7649999999999999) {
                                    var15 = 0.0034968894595901173;
                                } else {
                                    if (input[0] <= -0.37999999999999995) {
                                        var15 = -0.0008624607549531252;
                                    } else {
                                        var15 = -0.009788206554782977;
                                    }
                                }
                            }
                        } else {
                            if (input[4] > 25.450000000000003) {
                                var15 = 0.0027833308955967535;
                            } else {
                                var15 = 0.018531732042522533;
                            }
                        }
                    }
                }
            } else {
                if (input[9] > 1.8050000000000004) {
                    if (input[9] > 3.4650000000000003) {
                        if (input[8] > 99.50000000000001) {
                            var15 = 0.0012577177513213387;
                        } else {
                            var15 = -0.0057765168391845445;
                        }
                    } else {
                        var15 = -0.008772280767232507;
                    }
                } else {
                    if (input[5] > 1017.5000000000001) {
                        if (input[10] > 4.465000000000001) {
                            var15 = 0.005241422825069591;
                        } else {
                            if (input[5] > 1020.5000000000001) {
                                if (input[8] > 99.50000000000001) {
                                    var15 = 0.0032906887394472447;
                                } else {
                                    if (input[1] > 0.38000000000000006) {
                                        if (input[5] > 1024.5000000000002) {
                                            var15 = -0.007683654408023325;
                                        } else {
                                            var15 = -0.001585456430912018;
                                        }
                                    } else {
                                        var15 = 0.0003011573365406145;
                                    }
                                }
                            } else {
                                var15 = -0.008248069009709138;
                            }
                        }
                    } else {
                        if (input[0] > 0.6050000000000001) {
                            var15 = 0.014237302403697479;
                        } else {
                            var15 = 0.0027932263266008638;
                        }
                    }
                }
            }
        } else {
            if (input[9] > 4.340000000000001) {
                var15 = 0.0046128086642966085;
            } else {
                if (input[10] > 4.845000000000001) {
                    var15 = 0.025579458364733944;
                } else {
                    if (input[4] > 20.250000000000004) {
                        var15 = 0.01710242678721746;
                    } else {
                        var15 = 0.009513691756874325;
                    }
                }
            }
        }
    } else {
        if (input[6] > 57.50000000000001) {
            if (input[10] > 1.715) {
                if (input[8] > 41.00000000000001) {
                    var15 = -0.00832788065747648;
                } else {
                    var15 = -0.0009734040743711851;
                }
            } else {
                var15 = -0.009264018318015543;
            }
        } else {
            if (input[6] > 52.50000000000001) {
                var15 = 0.004334782755800656;
            } else {
                var15 = -0.0059589617994303505;
            }
        }
    }
    var var16;
    if (input[5] > 1017.5000000000001) {
        if (input[7] > 3.5700000000000007) {
            if (input[9] > 5.445000000000001) {
                var16 = 0.02389349225908518;
            } else {
                if (input[0] > 0.000000000000000000000000000000000010000000180025095) {
                    if (input[6] > 55.50000000000001) {
                        var16 = 0.004728785549488032;
                    } else {
                        var16 = -0.006870317762895;
                    }
                } else {
                    if (input[6] > 49.50000000000001) {
                        var16 = 0.014036879350481155;
                    } else {
                        var16 = 0.00416088053622307;
                    }
                }
            }
        } else {
            if (input[4] > 19.750000000000004) {
                if (input[4] > 26.950000000000003) {
                    if (input[6] > 47.50000000000001) {
                        var16 = 0.007561078146100045;
                    } else {
                        var16 = 0.000484149752273446;
                    }
                } else {
                    if (input[7] > 0.14500000000000005) {
                        if (input[5] > 1021.5000000000001) {
                            var16 = 0.006265900503450002;
                        } else {
                            if (input[4] > 22.550000000000004) {
                                var16 = -0.00440088190339707;
                            } else {
                                if (input[4] > 20.750000000000004) {
                                    var16 = 0.008076727471273878;
                                } else {
                                    var16 = -0.0037550139296799903;
                                }
                            }
                        }
                    } else {
                        if (input[4] > 20.850000000000005) {
                            if (input[8] > 85.50000000000001) {
                                var16 = -0.009938990122086749;
                            } else {
                                var16 = -0.004348727793342644;
                            }
                        } else {
                            var16 = 0.00181922866253271;
                        }
                    }
                }
            } else {
                if (input[2] <= -0.7349999999999999) {
                    var16 = -0.009475082231356818;
                } else {
                    if (input[6] > 86.50000000000001) {
                        var16 = -0.008343670579294365;
                    } else {
                        if (input[5] > 1020.5000000000001) {
                            if (input[5] > 1024.5000000000002) {
                                if (input[1] > 0.38000000000000006) {
                                    if (input[8] > 42.50000000000001) {
                                        var16 = -0.009088239685765335;
                                    } else {
                                        var16 = -0.0036119572215829975;
                                    }
                                } else {
                                    var16 = 0.002475421994018394;
                                }
                            } else {
                                if (input[1] > 0.000000000000000000000000000000000010000000180025095) {
                                    var16 = 0.006139212407999569;
                                } else {
                                    var16 = -0.005376098609329867;
                                }
                            }
                        } else {
                            var16 = -0.010787049823972796;
                        }
                    }
                }
            }
        }
    } else {
        if (input[5] > 1016.5000000000001) {
            if (input[4] > 16.650000000000002) {
                var16 = -0.005968867617452311;
            } else {
                if (input[10] > 6.255000000000001) {
                    var16 = -0.006473359167575837;
                } else {
                    if (input[0] > 0.92) {
                        var16 = 0.002876349545719374;
                    } else {
                        if (input[1] > 0.7900000000000001) {
                            var16 = 0.009542519498903019;
                        } else {
                            var16 = 0.018756952661236653;
                        }
                    }
                }
            }
        } else {
            if (input[9] > 4.340000000000001) {
                var16 = 0.004382167525909609;
            } else {
                if (input[6] > 73.50000000000001) {
                    var16 = 0.009067705521275374;
                } else {
                    if (input[9] > 1.7700000000000002) {
                        var16 = 0.029783051379996803;
                    } else {
                        var16 = 0.012763780853508608;
                    }
                }
            }
        }
    }
    var var17;
    if (input[10] > 2.1800000000000006) {
        if (input[5] > 1016.5000000000001) {
            if (input[9] > 5.1400000000000015) {
                if (input[4] > 21.750000000000004) {
                    var17 = 0.006864306941214535;
                } else {
                    var17 = 0.022907131289442384;
                }
            } else {
                if (input[9] > 1.8050000000000004) {
                    if (input[7] > 0.14500000000000005) {
                        if (input[7] > 3.845) {
                            var17 = -0.0031605881921043903;
                        } else {
                            if (input[0] <= -0.7899999999999999) {
                                var17 = -0.002606804969329988;
                            } else {
                                var17 = 0.008239668557588528;
                            }
                        }
                    } else {
                        if (input[0] > 0.6050000000000001) {
                            var17 = -0.0019505434566073948;
                        } else {
                            var17 = -0.008802481688391628;
                        }
                    }
                } else {
                    if (input[7] > 3.5700000000000007) {
                        if (input[5] > 1022.5000000000001) {
                            if (input[8] > 23.000000000000004) {
                                var17 = -0.0021869089175015686;
                            } else {
                                var17 = 0.009707167712242707;
                            }
                        } else {
                            var17 = 0.012543333247303962;
                        }
                    } else {
                        if (input[5] > 1017.5000000000001) {
                            if (input[4] > 27.200000000000006) {
                                var17 = 0.003493165958207101;
                            } else {
                                if (input[10] > 3.095) {
                                    if (input[5] > 1024.5000000000002) {
                                        if (input[8] > 49.00000000000001) {
                                            var17 = -0.007229121149672817;
                                        } else {
                                            var17 = 0.00042835569295745634;
                                        }
                                    } else {
                                        if (input[1] > 0.000000000000000000000000000000000010000000180025095) {
                                            var17 = 0.004850378716623204;
                                        } else {
                                            var17 = -0.002939031702200217;
                                        }
                                    }
                                } else {
                                    if (input[4] > 20.650000000000002) {
                                        var17 = -0.009479278929176785;
                                    } else {
                                        if (input[7] > 0.20500000000000004) {
                                            var17 = 0.0012362207715901046;
                                        } else {
                                            if (input[4] > 16.150000000000002) {
                                                var17 = -0.0008532282922949111;
                                            } else {
                                                var17 = -0.01078434387335702;
                                            }
                                        }
                                    }
                                }
                            }
                        } else {
                            if (input[4] > 16.550000000000004) {
                                var17 = -0.003949369552058422;
                            } else {
                                if (input[1] > 0.38000000000000006) {
                                    var17 = 0.013366233023177639;
                                } else {
                                    var17 = 0.005678349860903362;
                                }
                            }
                        }
                    }
                }
            }
        } else {
            if (input[7] > 0.09000000000000001) {
                if (input[7] > 1.2550000000000001) {
                    var17 = 0.0165262179059052;
                } else {
                    var17 = 0.0019329083642285123;
                }
            } else {
                var17 = 0.022698426303453745;
            }
        }
    } else {
        if (input[4] > 19.050000000000004) {
            if (input[4] > 22.750000000000004) {
                var17 = -0.006560636447885862;
            } else {
                var17 = 0.0008372227747091339;
            }
        } else {
            if (input[0] > 0.92) {
                if (input[5] > 1024.5000000000002) {
                    var17 = -0.008648466560989618;
                } else {
                    var17 = -0.002914181781622271;
                }
            } else {
                if (input[5] > 1024.5000000000002) {
                    var17 = -0.005635480461359928;
                } else {
                    var17 = -0.008867327690838122;
                }
            }
        }
    }
    var var18;
    if (input[10] > 2.1800000000000006) {
        if (input[5] > 1016.5000000000001) {
            if (input[7] > 0.9800000000000001) {
                if (input[9] > 5.445000000000001) {
                    var18 = 0.021914424896240237;
                } else {
                    if (input[1] <= -0.9849999999999999) {
                        var18 = 0.013474133415591151;
                    } else {
                        if (input[6] > 41.50000000000001) {
                            if (input[6] > 55.50000000000001) {
                                if (input[7] > 4.550000000000001) {
                                    var18 = 0.00938899145151178;
                                } else {
                                    if (input[6] > 77.50000000000001) {
                                        var18 = 0.007253926192214222;
                                    } else {
                                        var18 = -0.005110938914797523;
                                    }
                                }
                            } else {
                                if (input[2] <= -0.7649999999999999) {
                                    var18 = 0.003367775749592554;
                                } else {
                                    if (input[0] <= -0.37999999999999995) {
                                        var18 = -0.0011543563616994237;
                                    } else {
                                        var18 = -0.00936777934964214;
                                    }
                                }
                            }
                        } else {
                            if (input[4] > 25.450000000000003) {
                                var18 = 0.00222341536374932;
                            } else {
                                var18 = 0.01639653144647246;
                            }
                        }
                    }
                }
            } else {
                if (input[9] > 1.8050000000000004) {
                    if (input[9] > 3.4650000000000003) {
                        if (input[8] > 99.50000000000001) {
                            var18 = 0.0014255713848840624;
                        } else {
                            var18 = -0.00516110434563774;
                        }
                    } else {
                        var18 = -0.007633746518743234;
                    }
                } else {
                    if (input[5] > 1017.5000000000001) {
                        if (input[10] > 4.465000000000001) {
                            var18 = 0.004789840131574734;
                        } else {
                            if (input[5] > 1020.5000000000001) {
                                if (input[8] > 99.50000000000001) {
                                    var18 = 0.0030995309545562184;
                                } else {
                                    if (input[1] > 0.38000000000000006) {
                                        if (input[5] > 1024.5000000000002) {
                                            if (input[8] > 34.00000000000001) {
                                                var18 = -0.008951883832924069;
                                            } else {
                                                var18 = -0.003273359852443848;
                                            }
                                        } else {
                                            var18 = -0.0015870934128761295;
                                        }
                                    } else {
                                        if (input[4] > 20.050000000000004) {
                                            var18 = -0.001542240990649747;
