export function gust_score2(input) {
    var var0;
    if (input[7] > 0.8300000000000001) {
        if (input[0] > 0.38000000000000006) {
            if (input[7] > 2.8850000000000002) {
                if (input[6] > 68.50000000000001) {
                    var0 = 0.815684608390634;
                } else {
                    var0 = 0.7905647919098372;
                }
            } else {
                if (input[5] > 1017.5000000000001) {
                    var0 = 0.7646009842036986;
                } else {
                    var0 = 0.7921566575689003;
                }
            }
        } else {
            if (input[2] <= -0.7549999999999999) {
                if (input[8] > 12.500000000000002) {
                    var0 = 0.7902001356224494;
                } else {
                    if (input[10] > 2.3200000000000007) {
                        var0 = 0.8024465114758033;
                    } else {
                        var0 = 0.8236369886117936;
                    }
                }
            } else {
                if (input[9] > 5.1400000000000015) {
                    if (input[10] > 6.19) {
                        var0 = 0.8304175273074247;
                    } else {
                        var0 = 0.8523890413501876;
                    }
                } else {
                    if (input[7] > 4.835000000000001) {
                        var0 = 0.8110697012641999;
                    } else {
                        if (input[9] > 4.415000000000001) {
                            var0 = 0.8186586333522277;
                        } else {
                            var0 = 0.8433237042698009;
                        }
                    }
                }
            }
        }
    } else {
        if (input[2] <= -0.7549999999999999) {
            if (input[4] > 18.705000000000002) {
                var0 = 0.7827973894312565;
            } else {
                var0 = 0.7452772000324299;
            }
        } else {
            if (input[5] > 1016.5000000000001) {
                if (input[4] > 24.305000000000003) {
                    if (input[6] > 47.50000000000001) {
                        var0 = 0.7910868635232883;
                    } else {
                        var0 = 0.8210362564826582;
                    }
                } else {
                    if (input[2] <= -0.6949999999999998) {
                        if (input[5] > 1025.5000000000002) {
                            var0 = 0.7564320194741797;
                        } else {
                            if (input[4] > 13.575000000000001) {
                                if (input[6] > 81.50000000000001) {
                                    if (input[1] > 0.000000000000000000000000000000000010000000180025095) {
                                        var0 = 0.8073389857742731;
                                    } else {
                                        var0 = 0.7782798458715096;
                                    }
                                } else {
                                    if (input[7] > 0.26500000000000007) {
                                        var0 = 0.8077495418276172;
                                    } else {
                                        if (input[8] > 99.50000000000001) {
                                            if (input[1] > 0.6050000000000001) {
                                                if (input[6] > 75.50000000000001) {
                                                    var0 = 0.7682436136776182;
                                                } else {
                                                    var0 = 0.7441131788431793;
                                                }
                                            } else {
                                                var0 = 0.7741131790310635;
                                            }
                                        } else {
                                            if (input[4] > 15.100000000000001) {
                                                if (input[6] > 70.50000000000001) {
                                                    var0 = 0.8033067279080386;
                                                } else {
                                                    var0 = 0.7781872531214545;
                                                }
                                            } else {
                                                var0 = 0.764853919699818;
                                            }
                                        }
                                    }
                                }
                            } else {
                                if (input[6] > 83.50000000000001) {
                                    var0 = 0.762446512604921;
                                } else {
                                    var0 = 0.7441131788431793;
                                }
                            }
                        }
                    } else {
                        var0 = 0.7477395525215432;
                    }
                }
            } else {
                if (input[1] > 0.000000000000000000000000000000000010000000180025095) {
                    var0 = 0.8283131791441828;
                } else {
                    var0 = 0.7968054868550023;
                }
            }
        }
    }
    var var1;
    if (input[7] > 0.8300000000000001) {
        if (input[0] > 0.38000000000000006) {
            if (input[7] > 2.8850000000000002) {
                if (input[6] > 68.50000000000001) {
                    var1 = 0.03078719949083669;
                } else {
                    var1 = 0.006923373932799986;
                }
            } else {
                if (input[5] > 1017.5000000000001) {
                    var1 = -0.017742244163300933;
                } else {
                    var1 = 0.008435646343328383;
                }
            }
        } else {
            if (input[2] <= -0.7549999999999999) {
                if (input[8] > 12.500000000000002) {
                    var1 = 0.006576950643616526;
                } else {
                    if (input[4] > 20.655000000000005) {
                        var1 = 0.03847121109387705;
                    } else {
                        var1 = 0.018081756262108683;
                    }
                }
            } else {
                if (input[9] > 5.1400000000000015) {
                    if (input[10] > 6.19) {
                        var1 = 0.044783472439841085;
                    } else {
                        var1 = 0.0656564097915744;
                    }
                } else {
                    if (input[6] > 64.50000000000001) {
                        var1 = 0.057549968082457784;
                    } else {
                        if (input[0] <= -0.000000000000000000000000000000000010000000180025095) {
                            var1 = 0.038196462377859855;
                        } else {
                            var1 = 0.020046514503657818;
                        }
                    }
                }
            }
        }
    } else {
        if (input[2] <= -0.7549999999999999) {
            if (input[4] > 18.705000000000002) {
                var1 = -0.0004556589710869287;
            } else {
                var1 = -0.03609984007777361;
            }
        } else {
            if (input[5] > 1016.5000000000001) {
                if (input[4] > 24.305000000000003) {
                    if (input[6] > 47.50000000000001) {
                        var1 = 0.007419341680054602;
                    } else {
                        var1 = 0.03587126445311766;
                    }
                } else {
                    if (input[2] <= -0.6949999999999998) {
                        if (input[5] > 1025.5000000000002) {
                            var1 = -0.025502759482765543;
                        } else {
                            if (input[4] > 13.575000000000001) {
                                if (input[6] > 81.50000000000001) {
                                    if (input[1] > 0.000000000000000000000000000000000010000000180025095) {
                                        var1 = 0.022858857277840858;
                                    } else {
                                        var1 = -0.004747325240168721;
                                    }
                                } else {
                                    if (input[7] > 0.26500000000000007) {
                                        var1 = 0.02324888575927947;
                                    } else {
                                        if (input[8] > 99.50000000000001) {
                                            if (input[1] > 0.6050000000000001) {
                                                if (input[6] > 75.50000000000001) {
                                                    var1 = -0.014281745838082355;
                                                } else {
                                                    var1 = -0.03720566034317017;
                                                }
                                            } else {
                                                var1 = -0.008705658757168314;
                                            }
                                        } else {
                                            if (input[4] > 15.100000000000001) {
                                                if (input[6] > 70.50000000000001) {
                                                    var1 = 0.019028213624692255;
                                                } else {
                                                    var1 = -0.0048352890544467505;
                                                }
                                            } else {
                                                var1 = -0.01750195437559375;
                                            }
                                        }
                                    }
                                }
                            } else {
                                if (input[10] > 2.3200000000000007) {
                                    var1 = -0.03743482679128647;
                                } else {
                                    var1 = -0.019559825801601014;
                                }
                            }
                        }
                    } else {
                        var1 = -0.03376060400035355;
                    }
                }
            } else {
                if (input[7] > 0.09000000000000001) {
                    var1 = 0.01273084981680418;
                } else {
                    var1 = 0.04291037139296532;
                }
            }
        }
    }
    var var2;
    if (input[7] > 0.8300000000000001) {
        if (input[0] > 0.6050000000000001) {
            if (input[7] > 1.715) {
                if (input[5] > 1024.5000000000002) {
                    var2 = 0.023916492369025946;
                } else {
                    var2 = 0.0008325994693544037;
                }
            } else {
                var2 = -0.016673528547364504;
            }
        } else {
            if (input[2] <= -0.7549999999999999) {
                if (input[8] > 12.500000000000002) {
                    var2 = 0.0008632418613082597;
                } else {
                    if (input[10] > 2.3200000000000007) {
                        var2 = 0.01672436339958083;
                    } else {
                        var2 = 0.037000954967169535;
                    }
                }
            } else {
                if (input[9] > 5.1400000000000015) {
                    if (input[10] > 6.19) {
                        var2 = 0.043150802195072176;
                    } else {
                        var2 = 0.062373589698610635;
                    }
                } else {
                    if (input[7] > 3.5700000000000007) {
                        var2 = 0.027101586754579333;
                    } else {
                        if (input[9] > 4.415000000000001) {
                            var2 = 0.030312748597218442;
                        } else {
                            var2 = 0.055733038102452816;
                        }
                    }
                }
            }
        }
    } else {
        if (input[4] > 16.075000000000003) {
            if (input[5] > 1016.5000000000001) {
                if (input[4] > 24.305000000000003) {
                    if (input[6] > 47.50000000000001) {
                        var2 = 0.0070483744735707;
                    } else {
                        var2 = 0.034077701115837467;
                    }
                } else {
                    if (input[5] > 1025.5000000000002) {
                        if (input[1] > 0.6050000000000001) {
                            var2 = -0.03331116858650656;
                        } else {
                            var2 = -0.021811268720775843;
                        }
                    } else {
                        if (input[2] <= -0.6949999999999998) {
                            if (input[5] > 1021.5000000000001) {
                                var2 = 0.019717995946606004;
                            } else {
                                if (input[6] > 77.50000000000001) {
                                    if (input[0] > 0.7900000000000001) {
                                        var2 = 0.024040491182711864;
                                    } else {
                                        var2 = 0.0040287979740511485;
                                    }
                                } else {
                                    if (input[4] > 18.705000000000002) {
                                        if (input[4] > 20.330000000000002) {
                                            if (input[4] > 21.600000000000005) {
                                                var2 = 0.0003625610144808889;
                                            } else {
                                                var2 = -0.016159667609178502;
                                            }
                                        } else {
                                            var2 = 0.0047182486049438775;
                                        }
                                    } else {
                                        var2 = -0.031097479912762845;
                                    }
                                }
                            }
                        } else {
                            var2 = -0.030198947265744208;
                        }
                    }
                }
            } else {
                if (input[4] > 19.8) {
                    var2 = 0.012819867609401368;
                } else {
                    var2 = 0.042374653826751145;
                }
            }
        } else {
            if (input[5] > 1017.5000000000001) {
                if (input[2] <= -0.7349999999999999) {
                    var2 = -0.03421473462702864;
                } else {
                    if (input[2] <= -0.6949999999999998) {
                        if (input[4] > 13.575000000000001) {
                            var2 = -0.008151585691874581;
                        } else {
                            var2 = -0.02159814128074153;
                        }
                    } else {
                        var2 = -0.0356989473104477;
                    }
                }
            } else {
                if (input[9] > 2.9950000000000006) {
                    var2 = -0.024363739667460322;
                } else {
                    var2 = 0.008399893531539276;
                }
            }
        }
    }
    var var3;
    if (input[7] > 0.8300000000000001) {
        if (input[0] > 0.38000000000000006) {
            if (input[4] > 18.340000000000003) {
                if (input[6] > 68.50000000000001) {
                    var3 = 0.03476643659498381;
                } else {
                    var3 = 0.009937344932474107;
                }
            } else {
                if (input[5] > 1018.5000000000001) {
                    var3 = -0.012702811253713628;
                } else {
                    var3 = 0.008914447291754187;
                }
            }
        } else {
            if (input[2] <= -0.7549999999999999) {
                if (input[8] > 12.500000000000002) {
                    var3 = 0.006204940544178143;
                } else {
                    if (input[4] > 20.655000000000005) {
                        var3 = 0.03527693393684569;
                    } else {
                        var3 = 0.015762119669289816;
                    }
                }
            } else {
                if (input[9] > 5.1400000000000015) {
                    if (input[10] > 6.19) {
                        var3 = 0.04038675861514133;
                    } else {
                        var3 = 0.059254909271438574;
                    }
                } else {
                    if (input[6] > 64.50000000000001) {
                        var3 = 0.05245686539194801;
                    } else {
                        if (input[10] > 5.69) {
                            var3 = 0.018477383365148103;
                        } else {
                            if (input[5] > 1021.5000000000001) {
                                var3 = 0.02671020354487394;
                            } else {
                                var3 = 0.04331136651528188;
                            }
                        }
                    }
                }
            }
        }
    } else {
        if (input[4] > 16.075000000000003) {
            if (input[5] > 1016.5000000000001) {
                if (input[4] > 24.305000000000003) {
                    if (input[8] > 98.50000000000001) {
                        var3 = -0.0004011519158005037;
                    } else {
                        if (input[6] > 50.50000000000001) {
                            var3 = 0.015912747580469365;
                        } else {
                            var3 = 0.03670586546262105;
                        }
                    }
                } else {
                    if (input[2] <= -0.6949999999999998) {
                        if (input[5] > 1025.5000000000002) {
                            if (input[1] > 0.6050000000000001) {
                                var3 = -0.03164560921928462;
                            } else {
                                var3 = -0.015238508970841117;
                            }
                        } else {
                            if (input[5] > 1021.5000000000001) {
                                var3 = 0.018732096052068905;
                            } else {
                                if (input[6] > 77.50000000000001) {
                                    if (input[0] > 0.7900000000000001) {
                                        var3 = 0.02283846573416321;
                                    } else {
                                        var3 = 0.003827358002739924;
                                    }
                                } else {
                                    if (input[4] > 18.705000000000002) {
                                        var3 = -0.002052865840275498;
                                    } else {
                                        var3 = -0.02954260626387016;
                                    }
                                }
                            }
                        }
                    } else {
                        var3 = -0.028524606413485712;
                    }
                }
            } else {
                if (input[7] > 0.09000000000000001) {
                    var3 = 0.010998624817539868;
                } else {
                    var3 = 0.03923721727728844;
                }
            }
        } else {
            if (input[5] > 1017.5000000000001) {
                if (input[2] <= -0.7349999999999999) {
                    var3 = -0.03250399787547225;
                } else {
                    if (input[2] <= -0.6949999999999998) {
                        var3 = -0.014243174981521934;
                    } else {
                        var3 = -0.033913999795913696;
                    }
                }
            } else {
                if (input[9] > 2.9950000000000006) {
                    var3 = -0.023145553544163706;
                } else {
                    var3 = 0.007979899091536508;
                }
            }
        }
    }
    var var4;
    if (input[7] > 0.8300000000000001) {
        if (input[0] > 0.6050000000000001) {
            if (input[7] > 1.715) {
                if (input[5] > 1024.5000000000002) {
                    var4 = 0.022055875808000565;
                } else {
                    var4 = 0.0007701213827685399;
                }
            } else {
                var4 = -0.015713353198952975;
            }
        } else {
            if (input[2] <= -0.7549999999999999) {
                if (input[8] > 12.500000000000002) {
                    var4 = 0.0006399067504597563;
                } else {
                    if (input[10] > 2.3200000000000007) {
                        var4 = 0.014542472859223686;
                    } else {
                        var4 = 0.03394462753619467;
                    }
                }
            } else {
                if (input[9] > 5.1400000000000015) {
                    if (input[10] > 6.19) {
                        var4 = 0.03909981262683868;
                    } else {
                        var4 = 0.05629216465328274;
                    }
                } else {
                    if (input[7] > 3.5700000000000007) {
                        var4 = 0.024440488922409714;
                    } else {
                        if (input[9] > 4.415000000000001) {
                            var4 = 0.027372215850613058;
                        } else {
                            var4 = 0.05068943585092957;
                        }
                    }
                }
            }
        }
    } else {
        if (input[4] > 16.075000000000003) {
            if (input[5] > 1016.5000000000001) {
                if (input[4] > 24.305000000000003) {
                    if (input[6] > 47.50000000000001) {
                        var4 = 0.006021109201308144;
                    } else {
                        var4 = 0.031252119862116304;
                    }
                } else {
                    if (input[2] <= -0.6949999999999998) {
                        if (input[5] > 1025.5000000000002) {
                            if (input[1] > 0.6050000000000001) {
                                var4 = -0.03006332937408896;
                            } else {
                                var4 = -0.01447658305582793;
                            }
                        } else {
                            if (input[5] > 1021.5000000000001) {
                                var4 = 0.017795491932580867;
                            } else {
                                if (input[6] > 77.50000000000001) {
                                    if (input[0] > 0.7900000000000001) {
                                        var4 = 0.021696542771089646;
                                    } else {
                                        var4 = 0.0036359897987158214;
                                    }
                                } else {
                                    if (input[4] > 18.705000000000002) {
                                        if (input[6] > 51.50000000000001) {
                                            if (input[6] > 64.50000000000001) {
                                                var4 = -0.002918576119312396;
                                            } else {
                                                var4 = 0.011341437892544838;
                                            }
                                        } else {
                                            var4 = -0.008347332931589336;
                                        }
                                    } else {
                                        var4 = -0.028065475096615652;
                                    }
                                }
                            }
                        }
                    } else {
                        var4 = -0.027098374709225537;
                    }
                }
            } else {
                if (input[4] > 19.8) {
                    var4 = 0.011124682519584895;
                } else {
                    var4 = 0.038785166034232016;
                }
            }
        } else {
            if (input[5] > 1017.5000000000001) {
                if (input[2] <= -0.7349999999999999) {
                    var4 = -0.0308787970388003;
                } else {
                    if (input[2] <= -0.6949999999999998) {
                        if (input[4] > 13.575000000000001) {
                            var4 = -0.007031847727817617;
                        } else {
                            var4 = -0.019806075866880088;
                        }
                    } else {
                        var4 = -0.03221830129623413;
                    }
                }
            } else {
                if (input[9] > 2.9950000000000006) {
                    var4 = -0.0219882757589221;
                } else {
                    var4 = 0.007580903497542821;
                }
            }
        }
    }
    var var5;
    if (input[7] > 0.8300000000000001) {
        if (input[0] > 0.38000000000000006) {
            if (input[7] > 2.095) {
                if (input[2] <= -0.7549999999999999) {
                    var5 = -0.008146577337756753;
                } else {
                    if (input[4] > 19.450000000000006) {
                        var5 = 0.029702691840551174;
                    } else {
                        var5 = 0.012179161721597546;
                    }
                }
            } else {
                var5 = -0.01285903325304389;
            }
        } else {
            if (input[7] > 5.495) {
                if (input[4] > 22.600000000000005) {
                    var5 = 0.022933787351538396;
                } else {
                    var5 = 0.0015790754766203464;
                }
            } else {
                if (input[9] > 5.1400000000000015) {
                    if (input[10] > 6.19) {
                        var5 = 0.036412429550419685;
                    } else {
                        var5 = 0.053477557388872936;
                    }
                } else {
                    if (input[6] > 48.50000000000001) {
                        if (input[4] > 21.815) {
                            var5 = 0.024862131050654823;
                        } else {
                            var5 = 0.0474982600999423;
                        }
                    } else {
                        if (input[6] > 45.50000000000001) {
                            var5 = 0.0050602408057009735;
                        } else {
                            if (input[5] > 1018.5000000000001) {
                                var5 = 0.03872451732556026;
                            } else {
                                var5 = 0.024497036682441832;
                            }
                        }
                    }
                }
            }
        }
    } else {
        if (input[2] <= -0.7549999999999999) {
            if (input[4] > 18.705000000000002) {
                var5 = -0.00015636320948894872;
            } else {
                var5 = -0.029480836804581703;
            }
        } else {
            if (input[5] > 1016.5000000000001) {
                if (input[4] > 24.305000000000003) {
                    if (input[8] > 98.50000000000001) {
                        var5 = -0.0012555815850977194;
                    } else {
                        if (input[6] > 50.50000000000001) {
                            var5 = 0.014816055163031534;
                        } else {
                            var5 = 0.033608336099201726;
                        }
                    }
                } else {
                    if (input[2] <= -0.6949999999999998) {
                        if (input[5] > 1025.5000000000002) {
                            var5 = -0.02077189077069794;
                        } else {
                            if (input[4] > 13.575000000000001) {
                                if (input[6] > 81.50000000000001) {
                                    if (input[1] > 0.000000000000000000000000000000000010000000180025095) {
                                        var5 = 0.020465820275093128;
                                    } else {
                                        var5 = -0.006089825457214223;
                                    }
                                } else {
                                    if (input[7] > 0.26500000000000007) {
                                        var5 = 0.021286843640899118;
                                    } else {
                                        if (input[8] > 99.50000000000001) {
                                            var5 = -0.0165206332916789;
                                        } else {
                                            if (input[4] > 15.100000000000001) {
                                                if (input[6] > 70.50000000000001) {
                                                    var5 = 0.01617857210578457;
                                                } else {
                                                    var5 = -0.004299270230586882;
                                                }
                                            } else {
                                                var5 = -0.015822473513307397;
                                            }
                                        }
                                    }
                                }
                            } else {
                                if (input[10] > 2.3200000000000007) {
                                    var5 = -0.03147060610353947;
                                } else {
                                    var5 = -0.015624671988189221;
                                }
                            }
                        }
                    } else {
                        var5 = -0.027560748405508945;
                    }
                }
            } else {
                if (input[7] > 0.09000000000000001) {
                    var5 = 0.009466914252306407;
                } else {
                    var5 = 0.03588930726051331;
                }
            }
        }
    }
    var var6;
    if (input[7] > 0.8300000000000001) {
        if (input[0] > 0.6050000000000001) {
            if (input[7] > 1.715) {
                if (input[5] > 1024.5000000000002) {
                    var6 = 0.020438057174906137;
                } else {
                    var6 = 0.0003728343009510461;
                }
            } else {
                var6 = -0.014284734208794201;
            }
        } else {
            if (input[2] <= -0.7549999999999999) {
                if (input[8] > 12.500000000000002) {
                    var6 = 0.00020665318006649614;
                } else {
                    if (input[4] > 20.655000000000005) {
                        var6 = 0.03147882301182974;
                    } else {
                        var6 = 0.01247883133945011;
                    }
                }
            } else {
                if (input[9] > 5.1400000000000015) {
                    if (input[6] > 44.50000000000001) {
                        var6 = 0.034745199761043;
                    } else {
                        var6 = 0.050831674585739776;
                    }
                } else {
                    if (input[7] > 4.640000000000001) {
                        var6 = 0.019662327038352953;
                    } else {
                        if (input[4] > 19.450000000000006) {
                            if (input[9] > 4.415000000000001) {
                                var6 = 0.025986727642325253;
                            } else {
                                if (input[5] > 1020.5000000000001) {
                                    var6 = 0.034872700067769206;
                                } else {
                                    var6 = 0.054856736093759545;
                                }
                            }
                        } else {
                            var6 = 0.019623427010244793;
                        }
                    }
                }
            }
        }
    } else {
        if (input[4] > 16.075000000000003) {
            if (input[5] > 1016.5000000000001) {
                if (input[4] > 25.065) {
                    if (input[6] > 47.50000000000001) {
                        var6 = 0.005218437151052058;
                    } else {
                        var6 = 0.03237179125780645;
                    }
                } else {
                    if (input[2] <= -0.7099999999999999) {
                        if (input[6] > 79.50000000000001) {
                            var6 = 0.016976783424615862;
                        } else {
                            if (input[1] > 0.38000000000000006) {
                                if (input[2] <= -0.7249999999999999) {
                                    if (input[6] > 75.50000000000001) {
                                        var6 = -0.007861805707216262;
                                    } else {
                                        var6 = -0.0283833723353303;
                                    }
                                } else {
                                    var6 = 0.0036113817075436767;
                                }
                            } else {
                                if (input[6] > 55.50000000000001) {
                                    var6 = 0.011135585984836022;
                                } else {
                                    var6 = -0.006292355642222834;
                                }
                            }
                        }
                    } else {
                        if (input[0] <= -0.7899999999999999) {
                            var6 = 0.003294888497995479;
                        } else {
                            if (input[4] > 20.990000000000006) {
                                var6 = -0.007985753227363933;
                            } else {
                                var6 = -0.02472766934132034;
                            }
                        }
                    }
                }
            } else {
                if (input[4] > 19.8) {
                    var6 = 0.009623273661626238;
                } else {
                    var6 = 0.03551096256984317;
                }
            }
        } else {
            if (input[5] > 1017.5000000000001) {
                if (input[2] <= -0.7349999999999999) {
                    var6 = -0.02786077604455463;
                } else {
                    if (input[2] <= -0.6949999999999998) {
                        var6 = -0.012080452066699141;
                    } else {
                        var6 = -0.029229348897933962;
                    }
                }
            } else {
                if (input[9] > 2.9950000000000006) {
                    var6 = -0.020506195817142726;
                } else {
                    var6 = 0.006891057160956894;
                }
            }
        }
    }
    var var7;
    if (input[7] > 0.7450000000000001) {
        if (input[4] > 20.655000000000005) {
            if (input[8] > 3.5000000000000004) {
                if (input[9] > 4.905) {
                    if (input[0] <= -0.6049999999999999) {
                        var7 = 0.0511742252856493;
                    } else {
                        var7 = 0.03479730162769556;
                    }
                } else {
                    if (input[4] > 21.815) {
                        if (input[8] > 27.500000000000004) {
                            var7 = 0.027481730694642232;
                        } else {
                            var7 = 0.009955338745013528;
                        }
                    } else {
                        var7 = 0.04425822989647522;
                    }
                }
            } else {
                var7 = 0.009966682934242747;
            }
        } else {
            if (input[9] > 4.865000000000001) {
                var7 = 0.03290183783606871;
            } else {
                if (input[7] > 2.095) {
                    if (input[8] > 24.500000000000004) {
                        if (input[5] > 1018.5000000000001) {
                            if (input[4] > 17.565) {
                                var7 = 0.004209491093310395;
                            } else {
                                var7 = -0.009222431415691972;
                            }
                        } else {
                            var7 = 0.016744774978222517;
                        }
                    } else {
                        var7 = 0.023274254827545242;
                    }
                } else {
                    if (input[6] > 78.50000000000001) {
                        var7 = -0.0004716050843226499;
                    } else {
                        var7 = -0.022722885636207852;
                    }
                }
            }
        }
    } else {
        if (input[4] > 16.075000000000003) {
            if (input[5] > 1016.5000000000001) {
                if (input[6] > 49.50000000000001) {
                    if (input[5] > 1025.5000000000002) {
                        if (input[1] > 0.6050000000000001) {
                            var7 = -0.026285184700699418;
                        } else {
                            var7 = -0.01290389902708007;
                        }
                    } else {
                        if (input[10] > 2.3200000000000007) {
                            if (input[9] > 1.8050000000000004) {
                                if (input[1] > 0.6050000000000001) {
                                    var7 = -0.024889720624519718;
                                } else {
                                    var7 = 0.006875323749014311;
                                }
                            } else {
                                if (input[4] > 17.205000000000002) {
                                    if (input[5] > 1021.5000000000001) {
                                        var7 = 0.00776404084309059;
                                    } else {
                                        var7 = -0.005337169879804487;
                                    }
                                } else {
                                    var7 = 0.018600921738235392;
                                }
                            }
                        } else {
                            if (input[8] > 60.50000000000001) {
                                if (input[6] > 75.50000000000001) {
                                    var7 = 0.0028197259455919267;
                                } else {
                                    if (input[0] <= -0.9199999999999998) {
                                        var7 = -0.012266770397933821;
                                    } else {
                                        var7 = -0.023675154980558617;
                                    }
                                }
                            } else {
                                var7 = 0.0037363423690707845;
                            }
                        }
                    }
                } else {
                    if (input[8] > 63.50000000000001) {
                        var7 = 0.004185069832377709;
                    } else {
                        var7 = 0.02964357336302503;
                    }
                }
            } else {
                if (input[7] > 0.09000000000000001) {
                    var7 = 0.008114132851075668;
                } else {
                    var7 = 0.03283704742789269;
                }
            }
        } else {
            if (input[5] > 1017.5000000000001) {
                var7 = -0.0244166377066022;
            } else {
                if (input[9] > 2.9950000000000006) {
                    var7 = -0.019480886664241553;
                } else {
                    var7 = 0.006546504491387739;
                }
            }
        }
    }
    var var8;
    if (input[7] > 0.8300000000000001) {
        if (input[0] > 0.38000000000000006) {
            if (input[2] <= -0.7549999999999999) {
                var8 = -0.014671329570313293;
            } else {
                if (input[7] > 2.8850000000000002) {
                    var8 = 0.019574262731923506;
                } else {
                    if (input[2] <= -0.7349999999999999) {
                        var8 = 0.008157722580169018;
                    } else {
                        var8 = -0.011520897705728811;
                    }
                }
            }
        } else {
            if (input[7] > 5.495) {
                if (input[4] > 22.600000000000005) {
                    var8 = 0.01994334571424808;
                } else {
                    var8 = 0.00032734684180468326;
                }
            } else {
                if (input[1] <= -0.9849999999999999) {
                    var8 = 0.04816474821418524;
                } else {
                    if (input[2] <= -0.7099999999999999) {
                        if (input[6] > 53.50000000000001) {
                            var8 = 0.04265097246869751;
                        } else {
                            if (input[6] > 44.50000000000001) {
                                if (input[6] > 48.50000000000001) {
                                    var8 = 0.026658092775652488;
                                } else {
                                    var8 = 0.0020587408045927686;
                                }
                            } else {
                                var8 = 0.02868677739889416;
                            }
                        }
                    } else {
                        var8 = 0.04362709245954951;
                    }
                }
            }
        }
    } else {
        if (input[2] <= -0.7549999999999999) {
            if (input[4] > 18.705000000000002) {
                var8 = -0.0003938730070857625;
            } else {
                var8 = -0.02546432874505482;
            }
        } else {
            if (input[5] > 1016.5000000000001) {
                if (input[4] > 24.305000000000003) {
                    if (input[8] > 98.50000000000001) {
                        var8 = -0.0019663341560358693;
                    } else {
                        if (input[6] > 50.50000000000001) {
                            var8 = 0.013652718847706205;
                        } else {
                            var8 = 0.029591381895755022;
                        }
                    }
                } else {
                    if (input[2] <= -0.6949999999999998) {
                        if (input[5] > 1025.5000000000002) {
                            var8 = -0.017592817739300107;
                        } else {
                            if (input[4] > 13.575000000000001) {
                                if (input[6] > 81.50000000000001) {
                                    if (input[1] > 0.000000000000000000000000000000000010000000180025095) {
                                        var8 = 0.018766698194667697;
                                    } else {
                                        var8 = -0.006636130470239247;
                                    }
                                } else {
                                    if (input[7] > 0.26500000000000007) {
                                        var8 = 0.019799092399295084;
                                    } else {
                                        if (input[8] > 99.50000000000001) {
                                            var8 = -0.01451436955707543;
                                        } else {
                                            if (input[10] > 4.845000000000001) {
                                                var8 = -0.016990785495865912;
                                            } else {
                                                if (input[0] <= -0.000000000000000000000000000000000010000000180025095) {
                                                    if (input[6] > 69.50000000000001) {
                                                        var8 = 0.01934581651197126;
                                                    } else {
                                                        var8 = 0.000053394911810755735;
                                                    }
                                                } else {
                                                    var8 = -0.00655093084089458;
                                                }
                                            }
                                        }
                                    }
                                }
                            } else {
                                if (input[10] > 2.3200000000000007) {
                                    var8 = -0.027640034755071003;
                                } else {
                                    var8 = -0.01295283262928327;
                                }
                            }
                        }
                    } else {
                        var8 = -0.024185057852294422;
                    }
                }
            } else {
                if (input[4] > 19.8) {
                    var8 = 0.008294923284224102;
                } else {
                    var8 = 0.03252352612174075;
                }
            }
        }
    }
    var var9;
    if (input[7] > 0.7450000000000001) {
        if (input[4] > 20.655000000000005) {
            if (input[8] > 3.5000000000000004) {
                if (input[4] > 21.555000000000003) {
                    if (input[9] > 4.905) {
                        var9 = 0.038863849244080484;
                    } else {
                        if (input[4] > 25.575000000000003) {
                            var9 = 0.031827923300720394;
                        } else {
                            if (input[6] > 47.50000000000001) {
                                var9 = 0.024775190824686096;
                            } else {
                                var9 = 0.009105527873314848;
                            }
                        }
                    }
                } else {
                    var9 = 0.040828919742489235;
                }
            } else {
                var9 = 0.008722723890905795;
            }
        } else {
            if (input[10] > 5.760000000000001) {
                if (input[1] <= -0.7899999999999999) {
                    var9 = 0.03636403858794698;
                } else {
                    var9 = 0.01339466937351972;
                }
            } else {
                if (input[8] > 3.5000000000000004) {
                    if (input[7] > 2.095) {
                        if (input[6] > 73.50000000000001) {
                            var9 = 0.008724892348276848;
                        } else {
                            var9 = -0.004031399947901567;
                        }
                    } else {
                        var9 = -0.016685413936706816;
                    }
                } else {
                    var9 = 0.020742903628519604;
                }
            }
        }
    } else {
        if (input[4] > 16.075000000000003) {
            if (input[5] > 1016.5000000000001) {
                if (input[1] > 0.38000000000000006) {
                    if (input[6] > 75.50000000000001) {
                        if (input[2] <= -0.7099999999999999) {
                            if (input[2] <= -0.7349999999999999) {
                                var9 = -0.006742967267831167;
                            } else {
                                var9 = 0.019699016306549313;
                            }
                        } else {
                            var9 = -0.020910968082515816;
                        }
                    } else {
                        if (input[4] > 18.435000000000006) {
                            if (input[8] > 98.50000000000001) {
                                var9 = -0.020945035897452256;
                            } else {
                                var9 = -0.0031131477297648143;
                            }
                        } else {
                            var9 = -0.025801628143949942;
                        }
                    }
                } else {
                    if (input[6] > 79.50000000000001) {
                        if (input[8] > 49.00000000000001) {
                            var9 = -0.0035736617587861564;
                        } else {
                            var9 = -0.021325743198394777;
                        }
                    } else {
                        if (input[7] > 0.3000000000000001) {
                            var9 = 0.021818433159255777;
                        } else {
                            if (input[4] > 27.975000000000005) {
                                var9 = 0.018383166637143185;
                            } else {
                                if (input[6] > 58.50000000000001) {
                                    if (input[6] > 68.50000000000001) {
                                        var9 = -0.0018567935696669987;
                                    } else {
                                        var9 = 0.018554646933140854;
                                    }
                                } else {
                                    var9 = -0.006487358264336042;
                                }
                            }
                        }
                    }
                }
            } else {
                if (input[7] > 0.09000000000000001) {
                    var9 = 0.006920931536632662;
                } else {
                    var9 = 0.030053591400384907;
                }
            }
        } else {
            if (input[5] > 1017.5000000000001) {
                var9 = -0.022060033153191903;
            } else {
                if (input[8] > 97.50000000000001) {
                    if (input[6] > 83.50000000000001) {
                        var9 = -0.0018544113535123568;
                    } else {
                        var9 = 0.012842903762227959;
                    }
                } else {
                    var9 = -0.018091010432690385;
                }
            }
        }
    }
    var var10;
    if (input[7] > 0.8300000000000001) {
        if (input[0] > 0.6050000000000001) {
            if (input[7] > 1.715) {
                if (input[5] > 1024.5000000000002) {
                    var10 = 0.01718786105979234;
                } else {
                    var10 = -0.0003119731787592173;
                }
            } else {
                var10 = -0.012189090564189589;
            }
        } else {
            if (input[2] <= -0.7549999999999999) {
                if (input[8] > 12.500000000000002) {
                    var10 = -0.00035471993232412;
                } else {
                    if (input[10] > 2.3200000000000007) {
                        var10 = 0.008771996785487448;
                    } else {
                        var10 = 0.028039489651010153;
                    }
                }
            } else {
                if (input[9] > 5.1400000000000015) {
                    if (input[6] > 44.50000000000001) {
                        var10 = 0.027413575793616474;
                    } else {
                        var10 = 0.04242970017095407;
                    }
                } else {
                    if (input[7] > 3.5700000000000007) {
                        var10 = 0.017936282068258154;
                    } else {
                        if (input[9] > 4.415000000000001) {
                            var10 = 0.019284251733468132;
                        } else {
                            var10 = 0.03918752463886867;
                        }
                    }
                }
            }
        }
    } else {
        if (input[2] <= -0.7549999999999999) {
            if (input[4] > 18.705000000000002) {
                var10 = -0.00067339790372276;
            } else {
                var10 = -0.023114101367968102;
            }
        } else {
            if (input[5] > 1016.5000000000001) {
                if (input[4] > 25.065) {
                    if (input[6] > 47.50000000000001) {
                        var10 = 0.003873698571987916;
                    } else {
                        var10 = 0.02808190708089134;
                    }
                } else {
                    if (input[2] <= -0.6949999999999998) {
                        if (input[5] > 1025.5000000000002) {
                            if (input[4] > 16.275000000000002) {
                                var10 = -0.01995469289629356;
                            } else {
                                var10 = -0.007293631265992704;
                            }
                        } else {
                            if (input[4] > 13.575000000000001) {
                                if (input[5] > 1020.5000000000001) {
                                    if (input[9] > 0.8800000000000001) {
                                        if (input[4] > 16.345000000000002) {
                                            if (input[4] > 17.365000000000006) {
                                                var10 = 0.010380966345278117;
                                            } else {
                                                var10 = 0.025851403328124436;
                                            }
                                        } else {
                                            var10 = 0.003694996387576279;
                                        }
                                    } else {
                                        var10 = -0.004437169389954458;
                                    }
                                } else {
                                    if (input[6] > 77.50000000000001) {
                                        if (input[10] > 4.465000000000001) {
                                            var10 = -0.0076248740404844285;
                                        } else {
                                            var10 = 0.008650040140253354;
                                        }
                                    } else {
                                        if (input[1] > 0.000000000000000000000000000000000010000000180025095) {
                                            var10 = -0.020200491255643417;
                                        } else {
                                            var10 = 0.0019098909517527897;
                                        }
                                    }
                                }
                            } else {
                                if (input[10] > 2.3200000000000007) {
                                    var10 = -0.025269009917974473;
                                } else {
                                    var10 = -0.011202189698815347;
                                }
                            }
                        }
                    } else {
                        if (input[4] > 20.990000000000006) {
                            var10 = -0.01273885359366735;
                        } else {
                            var10 = -0.023813243744088643;
                        }
                    }
                }
            } else {
                if (input[4] > 19.8) {
                    var10 = 0.007121046778878995;
                } else {
                    var10 = 0.029796977222735145;
                }
            }
        }
    }
    var var11;
    if (input[7] > 0.8300000000000001) {
        if (input[0] > 0.6050000000000001) {
            if (input[7] > 1.715) {
                if (input[5] > 1024.5000000000002) {
                    var11 = 0.01632846811437048;
                } else {
                    var11 = -0.0002963747486800832;
                }
            } else {
                var11 = -0.0115796359584612;
            }
        } else {
            if (input[2] <= -0.7549999999999999) {
                if (input[8] > 12.500000000000002) {
                    var11 = -0.000336984065361321;
                } else {
                    if (input[10] > 2.3200000000000007) {
                        var11 = 0.008333397585721243;
                    } else {
                        var11 = 0.026637515815950575;
                    }
                }
            } else {
                if (input[9] > 5.1400000000000015) {
                    if (input[10] > 6.000000000000001) {
                        var11 = 0.027758534411869703;
                    } else {
                        var11 = 0.042337453154766044;
                    }
                } else {
                    if (input[7] > 4.640000000000001) {
                        var11 = 0.015170662658975313;
                    } else {
                        if (input[4] > 19.450000000000006) {
                            if (input[9] > 4.415000000000001) {
                                var11 = 0.019436432765080378;
                            } else {
                                if (input[5] > 1020.5000000000001) {
                                    var11 = 0.027233525631683214;
                                } else {
                                    var11 = 0.045028314441442494;
                                }
                            }
                        } else {
                            var11 = 0.014347909797948819;
                        }
                    }
                }
            }
        }
    } else {
        if (input[2] <= -0.7549999999999999) {
            if (input[4] > 18.705000000000002) {
                var11 = -0.0006397281620210331;
            } else {
                var11 = -0.021958396855800873;
            }
        } else {
            if (input[5] > 1016.5000000000001) {
                if (input[4] > 25.065) {
                    if (input[6] > 47.50000000000001) {
                        var11 = 0.0036800135461817264;
                    } else {
                        var11 = 0.026677811805553654;
                    }
                } else {
                    if (input[2] <= -0.6949999999999998) {
                        if (input[5] > 1025.5000000000002) {
                            var11 = -0.014947622269392015;
                        } else {
                            if (input[4] > 13.575000000000001) {
                                if (input[6] > 81.50000000000001) {
                                    if (input[1] > 0.000000000000000000000000000000000010000000180025095) {
                                        var11 = 0.01676232404030499;
                                    } else {
                                        var11 = -0.006618191815990333;
                                    }
                                } else {
                                    if (input[7] > 0.26500000000000007) {
                                        var11 = 0.015553366737731267;
                                    } else {
                                        if (input[8] > 99.50000000000001) {
                                            var11 = -0.012713224525478753;
                                        } else {
                                            if (input[4] > 15.100000000000001) {
                                                if (input[6] > 70.50000000000001) {
                                                    var11 = 0.01402053584254557;
                                                } else {
                                                    var11 = -0.0030317731334694796;
                                                }
                                            } else {
                                                var11 = -0.013140975166526106;
                                            }
                                        }
                                    }
                                }
                            } else {
                                if (input[6] > 83.50000000000001) {
                                    var11 = -0.010469911123315495;
                                } else {
                                    var11 = -0.024177728034555913;
                                }
                            }
                        }
                    } else {
                        if (input[4] > 20.990000000000006) {
                            var11 = -0.012101911207040152;
                        } else {
                            var11 = -0.022622581515739214;
                        }
                    }
                }
            } else {
                if (input[7] > 0.09000000000000001) {
                    var11 = 0.005869972705841065;
                } else {
                    var11 = 0.02751458114385605;
                }
            }
        }
    }
    var var12;
    if (input[7] > 0.7450000000000001) {
        if (input[4] > 20.655000000000005) {
            if (input[8] > 3.5000000000000004) {
                if (input[4] > 21.555000000000003) {
                    if (input[9] > 4.905) {
                        if (input[0] <= -0.6049999999999999) {
                            var12 = 0.04123132281005383;
                        } else {
                            var12 = 0.025825537985074334;
                        }
                    } else {
                        if (input[4] > 25.575000000000003) {
                            var12 = 0.027414653082156466;
                        } else {
                            if (input[6] > 47.50000000000001) {
                                var12 = 0.021453650191772818;
                            } else {
                                var12 = 0.007071401979084369;
                            }
                        }
                    }
                } else {
                    var12 = 0.03656531167216599;
                }
            } else {
                var12 = 0.006572243251392375;
            }
        } else {
            if (input[9] > 4.865000000000001) {
                var12 = 0.025910138441127186;
            } else {
                if (input[8] > 3.5000000000000004) {
                    if (input[7] > 2.095) {
                        if (input[5] > 1018.5000000000001) {
                            var12 = -0.001086901041509753;
                        } else {
                            var12 = 0.01322139195760648;
                        }
                    } else {
                        if (input[6] > 78.50000000000001) {
                            var12 = -0.002241277109299387;
                        } else {
                            var12 = -0.026437818454578522;
                        }
                    }
                } else {
                    var12 = 0.01623358301679931;
                }
            }
        }
    } else {
        if (input[4] > 16.075000000000003) {
            if (input[5] > 1016.5000000000001) {
                if (input[1] > 0.38000000000000006) {
                    if (input[6] > 75.50000000000001) {
                        if (input[2] <= -0.7099999999999999) {
                            if (input[2] <= -0.7349999999999999) {
                                var12 = -0.005591097573439281;
                            } else {
                                var12 = 0.01697985708613285;
                            }
                        } else {
                            var12 = -0.0179866892334662;
                        }
                    } else {
                        if (input[4] > 18.435000000000006) {
                            if (input[8] > 98.50000000000001) {
                                var12 = -0.018315466210759922;
                            } else {
                                var12 = -0.0031453293788692225;
                            }
                        } else {
                            var12 = -0.022850008403713054;
                        }
                    }
                } else {
                    if (input[6] > 79.50000000000001) {
                        if (input[8] > 49.00000000000001) {
                            var12 = -0.0028777706392464184;
                        } else {
                            var12 = -0.018300584256649016;
                        }
                    } else {
                        if (input[8] > 60.50000000000001) {
                            if (input[10] > 2.3200000000000007) {
                                var12 = 0.00812588231638074;
                            } else {
                                var12 = -0.008703288174324876;
                            }
                        } else {
                            if (input[8] > 39.50000000000001) {
                                var12 = 0.024435942666605117;
                            } else {
                                if (input[4] > 24.110000000000003) {
                                    var12 = 0.014040679200774148;
                                } else {
                                    var12 = -0.009558446211919475;
                                }
                            }
                        }
                    }
                }
            } else {
                if (input[4] > 19.8) {
                    var12 = 0.006084985152951309;
                } else {
                    var12 = 0.027307827701873108;
                }
            }
        } else {
            if (input[5] > 1017.5000000000001) {
                var12 = -0.018924314621481836;
            } else {
                if (input[9] > 2.9950000000000006) {
                    var12 = -0.016205541100353004;
                } else {
                    var12 = 0.005104513848474359;
                }
            }
        }
    }
    var var13;
    if (input[7] > 0.8300000000000001) {
        if (input[0] > 0.38000000000000006) {
            if (input[2] <= -0.7549999999999999) {
                var13 = -0.012630341552818817;
            } else {
                if (input[7] > 2.8850000000000002) {
                    var13 = 0.015272311168798928;
                } else {
                    if (input[2] <= -0.7349999999999999) {
                        var13 = 0.0083626065752469;
                    } else {
                        var13 = -0.010948096304976692;
                    }
                }
            }
        } else {
            if (input[6] > 65.50000000000001) {
                var13 = 0.03979494088329375;
            } else {
                if (input[9] > 4.905) {
                    if (input[4] > 22.800000000000004) {
                        var13 = 0.036423466068156295;
                    } else {
                        var13 = 0.020969068103780353;
                    }
                } else {
                    if (input[4] > 20.655000000000005) {
                        if (input[4] > 22.070000000000004) {
                            var13 = 0.015982546563179274;
                        } else {
                            var13 = 0.026753373284425053;
                        }
                    } else {
                        if (input[10] > 3.095) {
                            var13 = -0.002611215498662837;
                        } else {
                            var13 = 0.014219160471111537;
                        }
                    }
                }
            }
        }
    } else {
        if (input[2] <= -0.7549999999999999) {
            if (input[4] > 19.355000000000004) {
                var13 = 0.002077933622459913;
            } else {
                var13 = -0.019461915418129378;
            }
        } else {
            if (input[5] > 1016.5000000000001) {
                if (input[4] > 25.065) {
                    if (input[6] > 47.50000000000001) {
                        var13 = 0.002894935374206398;
                    } else {
                        var13 = 0.02462303149311439;
                    }
                } else {
                    if (input[2] <= -0.6949999999999998) {
                        if (input[5] > 1025.5000000000002) {
                            if (input[4] > 16.535000000000004) {
                                var13 = -0.01781391203403473;
                            } else {
                                var13 = -0.006076502456114842;
                            }
                        } else {
                            if (input[4] > 13.575000000000001) {
                                if (input[5] > 1020.5000000000001) {
                                    if (input[9] > 0.8800000000000001) {
                                        if (input[4] > 16.345000000000002) {
                                            if (input[4] > 17.365000000000006) {
                                                var13 = 0.009103308092707242;
                                            } else {
                                                var13 = 0.022883148289596044;
                                            }
                                        } else {
                                            var13 = 0.003385135656951562;
                                        }
                                    } else {
                                        var13 = -0.003882095435013374;
                                    }
                                } else {
                                    if (input[6] > 77.50000000000001) {
                                        if (input[10] > 4.465000000000001) {
                                            var13 = -0.006734963208436966;
                                        } else {
                                            var13 = 0.007851987343174636;
                                        }
                                    } else {
                                        if (input[1] > 0.000000000000000000000000000000000010000000180025095) {
                                            if (input[4] > 17.725000000000005) {
                                                var13 = -0.010027797371149064;
                                            } else {
                                                var13 = -0.023196535274900242;
                                            }
                                        } else {
                                            var13 = 0.001420090241696347;
                                        }
                                    }
                                }
                            } else {
                                if (input[10] > 2.3200000000000007) {
                                    var13 = -0.022112042705217997;
                                } else {
                                    var13 = -0.009001020962993305;
                                }
                            }
                        }
                    } else {
                        var13 = -0.01760075408005223;
                    }
                }
            } else {
                if (input[7] > 0.09000000000000001) {
                    var13 = 0.004945719242095948;
                } else {
                    var13 = 0.02519791752099991;
                }
            }
        }
    }
    return var0 + var1 + var2 + var3 + var4 + var5 + var6 + var7 + var8 + var9 + var10 + var11 + var12 + var13;
}
