export function soil_score2(input) {
    var var0;
    if (input[4] > 21.555000000000003) {
        if (input[0] <= -0.37999999999999995) {
            if (input[6] > 51.50000000000001) {
                if (input[5] > 1018.5000000000001) {
                    var0 = 48736.65316293813;
                } else {
                    var0 = 48707.52979522589;
                }
            } else {
                if (input[4] > 24.485000000000003) {
                    if (input[2] <= -0.7099999999999999) {
                        var0 = 48764.89359228608;
                    } else {
                        var0 = 48774.89215466225;
                    }
                } else {
                    if (input[9] > 3.2700000000000005) {
                        var0 = 48756.805299614185;
                    } else {
                        var0 = 48741.31013077931;
                    }
                }
            }
        } else {
            if (input[4] > 23.970000000000002) {
                if (input[0] <= -0.000000000000000000000000000000000010000000180025095) {
                    var0 = 48721.64002282752;
                } else {
                    var0 = 48711.877522474664;
                }
            } else {
                if (input[10] > 4.845000000000001) {
                    var0 = 48708.927522484635;
                } else {
                    var0 = 48697.358291802266;
                }
            }
        }
    } else {
        if (input[4] > 15.595000000000002) {
            if (input[0] <= -0.7899999999999999) {
                if (input[8] > 60.50000000000001) {
                    if (input[4] > 18.435000000000006) {
                        if (input[5] > 1017.5000000000001) {
                            var0 = 48715.08287940363;
                        } else {
                            var0 = 48702.055522610084;
                        }
                    } else {
                        var0 = 48691.89002244367;
                    }
                } else {
                    var0 = 48733.140380147495;
                }
            } else {
                if (input[1] > 0.6050000000000001) {
                    if (input[2] <= -0.6949999999999998) {
                        if (input[8] > 90.50000000000001) {
                            var0 = 48698.140757832036;
                        } else {
                            var0 = 48705.74280034225;
                        }
                    } else {
                        var0 = 48711.78492994318;
                    }
                } else {
                    if (input[4] > 20.430000000000003) {
                        if (input[5] > 1020.5000000000001) {
                            var0 = 48693.09180814536;
                        } else {
                            var0 = 48710.71615897615;
                        }
                    } else {
                        if (input[2] <= -0.7449999999999999) {
                            if (input[8] > 27.500000000000004) {
                                if (input[10] > 5.9750000000000005) {
                                    var0 = 48685.58823642387;
                                } else {
                                    var0 = 48677.950249766756;
                                }
                            } else {
                                var0 = 48692.58704619064;
                            }
                        } else {
                            if (input[8] > 1.5000000000000002) {
                                if (input[2] <= -0.7349999999999999) {
                                    var0 = 48689.847259105205;
                                } else {
                                    var0 = 48695.69860685763;
                                }
                            } else {
                                var0 = 48683.45252217036;
                            }
                        }
                    }
                }
            }
        } else {
            if (input[2] <= -0.7449999999999999) {
                if (input[8] > 90.50000000000001) {
                    var0 = 48680.649829960836;
                } else {
                    if (input[6] > 69.50000000000001) {
                        if (input[0] > 0.92) {
                            var0 = 48661.03863452991;
                        } else {
                            var0 = 48667.41067554296;
                        }
                    } else {
                        var0 = 48678.44502250328;
                    }
                }
            } else {
                if (input[4] > 13.935000000000002) {
                    var0 = 48693.98976735919;
                } else {
                    var0 = 48683.10105184323;
                }
            }
        }
    }
    var var1;
    if (input[4] > 19.290000000000003) {
        if (input[0] <= -0.37999999999999995) {
            if (input[4] > 23.915000000000003) {
                if (input[6] > 49.50000000000001) {
                    var1 = 45.44245185852051;
                } else {
                    if (input[2] <= -0.7099999999999999) {
                        var1 = 57.60294545491537;
                    } else {
                        var1 = 71.03839850174754;
                    }
                }
            } else {
                if (input[8] > 93.50000000000001) {
                    if (input[2] <= -0.7349999999999999) {
                        var1 = 3.812052066433124;
                    } else {
                        var1 = 14.23404219945272;
                    }
                } else {
                    if (input[9] > 3.2700000000000005) {
                        var1 = 50.76780584829825;
                    } else {
                        if (input[0] <= -0.7899999999999999) {
                            if (input[7] > 0.14500000000000005) {
                                var1 = 40.778405230978265;
                            } else {
                                var1 = 25.488533528645835;
                            }
                        } else {
                            var1 = 17.76521899541219;
                        }
                    }
                }
            }
        } else {
            if (input[4] > 23.840000000000003) {
                if (input[0] <= -0.000000000000000000000000000000000010000000180025095) {
                    var1 = 18.530499038696288;
                } else {
                    var1 = 8.742967367172241;
                }
            } else {
                if (input[8] > 84.00000000000001) {
                    var1 = 5.150229479955591;
                } else {
                    if (input[2] <= -0.7099999999999999) {
                        var1 = -11.716836329868862;
                    } else {
                        var1 = -2.592156368082968;
                    }
                }
            }
        }
    } else {
        if (input[2] <= -0.7449999999999999) {
            if (input[4] > 14.65) {
                if (input[9] > 0.8800000000000001) {
                    if (input[4] > 17.625000000000004) {
                        var1 = -12.329285852805429;
                    } else {
                        if (input[2] <= -0.7549999999999999) {
                            var1 = -26.134842790876117;
                        } else {
                            var1 = -18.61582714173852;
                        }
                    }
                } else {
                    var1 = -5.135538148880006;
                }
            } else {
                if (input[8] > 98.50000000000001) {
                    var1 = -21.247075366973878;
                } else {
                    if (input[0] > 0.6050000000000001) {
                        var1 = -37.439064326051806;
                    } else {
                        if (input[6] > 75.50000000000001) {
                            var1 = -34.31627992670587;
                        } else {
                            var1 = -26.110840790847256;
                        }
                    }
                }
            }
        } else {
            if (input[0] > 0.6050000000000001) {
                if (input[8] > 38.00000000000001) {
                    if (input[2] <= -0.7349999999999999) {
                        var1 = -11.728471333639963;
                    } else {
                        var1 = -6.5162544301965015;
                    }
                } else {
                    if (input[2] <= -0.6949999999999998) {
                        var1 = -20.412002602601664;
                    } else {
                        var1 = -12.249345070975167;
                    }
                }
            } else {
                if (input[2] <= -0.7349999999999999) {
                    var1 = -7.4632852268219;
                } else {
                    if (input[4] > 15.080000000000002) {
                        if (input[0] <= -0.6049999999999999) {
                            var1 = 7.368207409858704;
                        } else {
                            if (input[2] <= -0.6949999999999998) {
                                var1 = -0.4153965676372702;
                            } else {
                                var1 = 7.373705158233642;
                            }
                        }
                    } else {
                        var1 = -7.563777810051327;
                    }
                }
            }
        }
    }
    var var2;
    if (input[4] > 21.555000000000003) {
        if (input[0] <= -0.37999999999999995) {
            if (input[6] > 51.50000000000001) {
                if (input[5] > 1018.5000000000001) {
                    var2 = 31.099119802621694;
                } else {
                    var2 = 4.935180362788114;
                }
            } else {
                if (input[4] > 25.035000000000004) {
                    if (input[0] <= -0.7899999999999999) {
                        var2 = 66.32085579537056;
                    } else {
                        var2 = 57.91897226969401;
                    }
                } else {
                    if (input[10] > 4.025000000000001) {
                        var2 = 51.14938973819508;
                    } else {
                        var2 = 32.57207125709171;
                    }
                }
            }
        } else {
            if (input[4] > 23.970000000000002) {
                if (input[0] <= -0.000000000000000000000000000000000010000000180025095) {
                    var2 = 17.603973715007307;
                } else {
                    var2 = 8.818975700378418;
                }
            } else {
                if (input[10] > 4.465000000000001) {
                    var2 = 5.1956482143313805;
                } else {
                    var2 = -5.3825479416620166;
                }
            }
        }
    } else {
        if (input[4] > 15.595000000000002) {
            if (input[0] <= -0.7899999999999999) {
                if (input[8] > 60.50000000000001) {
                    if (input[4] > 18.435000000000006) {
                        if (input[5] > 1017.5000000000001) {
                            var2 = 11.756809541583062;
                        } else {
                            var2 = -0.16250750350952148;
                        }
                    } else {
                        var2 = -9.17191776752472;
                    }
                } else {
                    var2 = 28.04306224278041;
                }
            } else {
                if (input[1] > 0.6050000000000001) {
                    if (input[2] <= -0.6949999999999998) {
                        if (input[8] > 90.50000000000001) {
                            var2 = -3.6187358344886817;
                        } else {
                            var2 = 3.2494858695401088;
                        }
                    } else {
                        var2 = 8.760659352055303;
                    }
                } else {
                    if (input[4] > 20.430000000000003) {
                        if (input[5] > 1020.5000000000001) {
                            var2 = -8.134815363089244;
                        } else {
                            var2 = 7.751964642784812;
                        }
                    } else {
                        if (input[2] <= -0.7449999999999999) {
                            if (input[8] > 27.500000000000004) {
                                if (input[10] > 5.9750000000000005) {
                                    var2 = -14.844036088671004;
                                } else {
                                    var2 = -21.9629794958866;
                                }
                            } else {
                                var2 = -9.006323153632028;
                            }
                        } else {
                            if (input[8] > 1.5000000000000002) {
                                if (input[2] <= -0.7349999999999999) {
                                    var2 = -11.202858450538235;
                                } else {
                                    var2 = -5.822976558897869;
                                }
                            } else {
                                var2 = -16.934723385897552;
                            }
                        }
                    }
                }
            }
        } else {
            if (input[2] <= -0.7449999999999999) {
                if (input[8] > 90.50000000000001) {
                    var2 = -19.42503142136794;
                } else {
                    if (input[6] > 69.50000000000001) {
                        if (input[0] > 0.92) {
                            var2 = -37.16886630588108;
                        } else {
                            var2 = -31.326475383924404;
                        }
                    } else {
                        var2 = -21.46115989685059;
                    }
                }
            } else {
                if (input[4] > 13.935000000000002) {
                    var2 = -7.346657453751078;
                } else {
                    var2 = -17.24297703013701;
                }
            }
        }
    }
    var var3;
    if (input[4] > 19.290000000000003) {
        if (input[0] <= -0.37999999999999995) {
            if (input[4] > 23.915000000000003) {
                if (input[1] <= -0.000000000000000000000000000000000010000000180025095) {
                    if (input[0] <= -0.6049999999999999) {
                        var3 = 64.64429370117188;
                    } else {
                        var3 = 44.128498985653835;
                    }
                } else {
                    var3 = 41.23258880615234;
                }
            } else {
                if (input[8] > 98.50000000000001) {
                    if (input[2] <= -0.7349999999999999) {
                        var3 = 3.485793888874543;
                    } else {
                        var3 = 11.350366668701172;
                    }
                } else {
                    if (input[4] > 21.750000000000004) {
                        if (input[10] > 4.025000000000001) {
                            var3 = 50.71879518949069;
                        } else {
                            var3 = 28.177423132033574;
                        }
                    } else {
                        if (input[0] <= -0.7899999999999999) {
                            var3 = 27.48884593963623;
                        } else {
                            var3 = 8.083741948604583;
                        }
                    }
                }
            }
        } else {
            if (input[0] > 0.000000000000000000000000000000000010000000180025095) {
                if (input[4] > 20.765000000000004) {
                    var3 = -1.4324057462123725;
                } else {
                    var3 = -8.740218061003192;
                }
            } else {
                if (input[4] > 23.970000000000002) {
                    var3 = 15.730057237297297;
                } else {
                    if (input[8] > 99.50000000000001) {
                        var3 = 8.612307533851036;
                    } else {
                        var3 = -2.976490707397461;
                    }
                }
            }
        }
    } else {
        if (input[2] <= -0.7449999999999999) {
            if (input[4] > 14.65) {
                if (input[9] > 0.8800000000000001) {
                    if (input[4] > 17.625000000000004) {
                        var3 = -11.191454912268597;
                    } else {
                        if (input[2] <= -0.7549999999999999) {
                            var3 = -23.740773010253907;
                        } else {
                            var3 = -16.80740276197108;
                        }
                    }
                } else {
                    var3 = -4.440945386886597;
                }
            } else {
                if (input[8] > 98.50000000000001) {
                    var3 = -19.213469441731775;
                } else {
                    if (input[0] > 0.6050000000000001) {
                        var3 = -33.82838905209401;
                    } else {
                        if (input[5] > 1020.5000000000001) {
                            var3 = -24.013141721837663;
                        } else {
                            var3 = -31.464619845435735;
                        }
                    }
                }
            }
        } else {
            if (input[0] > 0.6050000000000001) {
                if (input[8] > 38.00000000000001) {
                    if (input[2] <= -0.7349999999999999) {
                        var3 = -10.654439830212366;
                    } else {
                        var3 = -5.914334988864986;
                    }
                } else {
                    if (input[2] <= -0.6949999999999998) {
                        var3 = -18.58435118259528;
                    } else {
                        var3 = -11.074236070542108;
                    }
                }
            } else {
                if (input[2] <= -0.7349999999999999) {
                    var3 = -6.898684991002082;
                } else {
                    if (input[4] > 15.080000000000002) {
                        if (input[2] <= -0.7249999999999999) {
                            var3 = -0.6172871693968773;
                        } else {
                            if (input[5] > 1025.5000000000002) {
                                var3 = 1.0164818338858777;
                            } else {
                                var3 = 6.6510581652323415;
                            }
                        }
                    } else {
                        var3 = -6.606192056905655;
                    }
                }
            }
        }
    }
    var var4;
    if (input[4] > 21.555000000000003) {
        if (input[0] <= -0.37999999999999995) {
            if (input[6] > 51.50000000000001) {
                if (input[5] > 1019.5000000000001) {
                    var4 = 28.247076446131658;
                } else {
                    var4 = 4.941258803657863;
                }
            } else {
                if (input[4] > 24.485000000000003) {
                    if (input[4] > 28.100000000000005) {
                        var4 = 62.26069919752038;
                    } else {
                        if (input[8] > 69.50000000000001) {
                            var4 = 47.0478793334961;
                        } else {
                            var4 = 57.70377690241887;
                        }
                    }
                } else {
                    if (input[9] > 3.2700000000000005) {
                        var4 = 44.516691306785305;
                    } else {
                        var4 = 32.46346236519192;
                    }
                }
            }
        } else {
            if (input[4] > 23.970000000000002) {
                if (input[0] <= -0.000000000000000000000000000000000010000000180025095) {
                    var4 = 15.937272291183474;
                } else {
                    var4 = 8.037747856140136;
                }
            } else {
                if (input[10] > 4.845000000000001) {
                    var4 = 5.843097114562989;
                } else {
                    var4 = -3.9931523102980395;
                }
            }
        }
    } else {
        if (input[4] > 15.595000000000002) {
            if (input[0] <= -0.6049999999999999) {
                if (input[8] > 60.50000000000001) {
                    if (input[4] > 17.215000000000003) {
                        if (input[5] > 1017.5000000000001) {
                            var4 = 8.471985205245572;
                        } else {
                            var4 = -1.1507045791033776;
                        }
                    } else {
                        var4 = -11.400432002026102;
                    }
                } else {
                    if (input[1] > 0.000000000000000000000000000000000010000000180025095) {
                        var4 = 13.152533398866655;
                    } else {
                        var4 = 27.699407400908292;
                    }
                }
            } else {
                if (input[1] > 0.6050000000000001) {
                    if (input[2] <= -0.6949999999999998) {
                        if (input[5] > 1020.5000000000001) {
                            var4 = -0.474088627078395;
                        } else {
                            var4 = -5.480031258364519;
                        }
                    } else {
                        var4 = 7.924769631138554;
                    }
                } else {
                    if (input[2] <= -0.7449999999999999) {
                        if (input[8] > 24.500000000000004) {
                            var4 = -16.307108266425853;
                        } else {
                            var4 = -6.890811969041825;
                        }
                    } else {
                        if (input[0] > 0.6050000000000001) {
                            if (input[8] > 1.5000000000000002) {
                                var4 = -7.407551295435535;
                            } else {
                                var4 = -15.20337603569031;
                            }
                        } else {
                            var4 = -0.3531824382575783;
                        }
                    }
                }
            }
        } else {
            if (input[2] <= -0.7449999999999999) {
                if (input[8] > 90.50000000000001) {
                    var4 = -17.56365713266226;
                } else {
                    if (input[6] > 69.50000000000001) {
                        if (input[0] > 0.92) {
                            var4 = -33.61900367736816;
                        } else {
                            var4 = -28.26387872281282;
                        }
                    } else {
                        var4 = -19.434821853637697;
                    }
                }
            } else {
                if (input[0] > 0.92) {
                    var4 = -17.395082259178164;
                } else {
                    if (input[4] > 13.935000000000002) {
                        var4 = -4.678712130847731;
                    } else {
                        var4 = -12.422699192592077;
                    }
                }
            }
        }
    }
    var var5;
    if (input[4] > 19.290000000000003) {
        if (input[0] <= -0.37999999999999995) {
            if (input[4] > 23.365000000000006) {
                if (input[1] <= -0.000000000000000000000000000000000010000000180025095) {
                    if (input[0] <= -0.6049999999999999) {
                        if (input[2] <= -0.7099999999999999) {
                            var5 = 51.42008875066585;
                        } else {
                            var5 = 61.7102520942688;
                        }
                    } else {
                        var5 = 39.32513420798562;
                    }
                } else {
                    var5 = 34.95994860331218;
                }
            } else {
                if (input[8] > 63.50000000000001) {
                    if (input[6] > 51.50000000000001) {
                        if (input[2] <= -0.7349999999999999) {
                            var5 = 3.197214817389464;
                        } else {
                            var5 = 9.194004363105412;
                        }
                    } else {
                        var5 = 24.045284919738773;
                    }
                } else {
                    if (input[0] <= -0.7899999999999999) {
                        if (input[4] > 21.585000000000004) {
                            var5 = 51.836125488281255;
                        } else {
                            var5 = 28.587386028583236;
                        }
                    } else {
                        var5 = 10.858059325218202;
                    }
                }
            }
        } else {
            if (input[0] > 0.000000000000000000000000000000000010000000180025095) {
                if (input[2] <= -0.7099999999999999) {
                    var5 = -7.0195387452840805;
                } else {
                    var5 = -0.553286710890328;
                }
            } else {
                if (input[2] <= -0.7099999999999999) {
                    if (input[10] > 3.9000000000000004) {
                        var5 = 8.24299639080252;
                    } else {
                        var5 = -3.064326767921448;
                    }
                } else {
                    var5 = 14.775077699025472;
                }
            }
        }
    } else {
        if (input[2] <= -0.7449999999999999) {
            if (input[4] > 14.65) {
                if (input[9] > 0.8800000000000001) {
                    if (input[4] > 17.525000000000002) {
                        var5 = -10.651415395736695;
                    } else {
                        if (input[8] > 95.50000000000001) {
                            var5 = -15.28087297726984;
                        } else {
                            var5 = -20.663603271484376;
                        }
                    }
                } else {
                    var5 = -3.8533366282780968;
                }
            } else {
                if (input[8] > 98.50000000000001) {
                    var5 = -17.374613014856973;
                } else {
                    if (input[0] > 0.6050000000000001) {
                        var5 = -30.56575532506724;
                    } else {
                        if (input[6] > 75.50000000000001) {
                            var5 = -28.12698714885306;
                        } else {
                            var5 = -20.915435264850487;
                        }
                    }
                }
            }
        } else {
            if (input[0] > 0.6050000000000001) {
                if (input[8] > 38.00000000000001) {
                    if (input[2] <= -0.7349999999999999) {
                        var5 = -9.762964497329225;
                    } else {
                        var5 = -5.309468598528342;
                    }
                } else {
                    if (input[2] <= -0.6949999999999998) {
                        var5 = -16.892786290095405;
                    } else {
                        var5 = -9.854687599908738;
                    }
                }
            } else {
                if (input[2] <= -0.7349999999999999) {
                    var5 = -6.337867787778378;
                } else {
                    if (input[4] > 15.080000000000002) {
                        if (input[2] <= -0.7249999999999999) {
                            var5 = -0.5966649787257087;
                        } else {
                            var5 = 3.4701807214663583;
                        }
                    } else {
                        var5 = -5.876004355294364;
                    }
                }
            }
        }
    }
    var var6;
    if (input[4] > 21.555000000000003) {
        if (input[0] <= -0.37999999999999995) {
            if (input[6] > 51.50000000000001) {
                if (input[5] > 1019.5000000000001) {
                    var6 = 25.326213726244475;
                } else {
                    var6 = 4.521298607535985;
                }
            } else {
                if (input[4] > 25.035000000000004) {
                    if (input[4] > 28.100000000000005) {
                        var6 = 56.41228465204654;
                    } else {
                        var6 = 48.586870258610425;
                    }
                } else {
                    if (input[10] > 4.025000000000001) {
                        var6 = 41.96749716366039;
                    } else {
                        var6 = 26.249457186744326;
                    }
                }
            }
        } else {
            if (input[4] > 23.970000000000002) {
                var6 = 10.566092925601536;
            } else {
                if (input[10] > 4.465000000000001) {
                    var6 = 4.41752716170417;
                } else {
                    var6 = -4.699377527691069;
                }
            }
        }
    } else {
        if (input[4] > 15.595000000000002) {
            if (input[0] <= -0.7899999999999999) {
                if (input[8] > 60.50000000000001) {
                    if (input[4] > 18.435000000000006) {
                        if (input[5] > 1017.5000000000001) {
                            var6 = 9.774045320068089;
                        } else {
                            var6 = -0.17297517681121827;
                        }
                    } else {
                        var6 = -7.3153506433963775;
                    }
                } else {
                    var6 = 23.358062030247282;
                }
            } else {
                if (input[1] > 0.6050000000000001) {
                    if (input[2] <= -0.6949999999999998) {
                        if (input[8] > 90.50000000000001) {
                            var6 = -3.0230531059935983;
                        } else {
                            var6 = 2.5570669665932657;
                        }
                    } else {
                        var6 = 7.17641378067158;
                    }
                } else {
                    if (input[4] > 20.430000000000003) {
                        if (input[5] > 1020.5000000000001) {
                            var6 = -6.966195193926494;
                        } else {
                            var6 = 6.767215245420283;
                        }
                    } else {
                        if (input[2] <= -0.7449999999999999) {
                            if (input[8] > 27.500000000000004) {
                                if (input[10] > 5.9750000000000005) {
                                    var6 = -11.833390399387905;
                                } else {
                                    var6 = -18.398020333954783;
                                }
                            } else {
                                var6 = -7.866102090619859;
                            }
                        } else {
                            if (input[8] > 1.5000000000000002) {
                                if (input[7] > 2.8850000000000002) {
                                    var6 = -1.2532975168455216;
                                } else {
                                    var6 = -7.135824090361595;
                                }
                            } else {
                                var6 = -14.020411933552134;
                            }
                        }
                    }
                }
            }
        } else {
            if (input[2] <= -0.7449999999999999) {
                if (input[8] > 90.50000000000001) {
                    var6 = -15.870354960514948;
                } else {
                    if (input[6] > 69.50000000000001) {
                        if (input[0] > 0.92) {
                            var6 = -30.409765964084205;
                        } else {
                            var6 = -25.48986030246901;
                        }
                    } else {
                        var6 = -17.633102951049803;
                    }
                }
            } else {
                if (input[0] > 0.92) {
                    var6 = -15.798181732495628;
                } else {
                    if (input[4] > 13.935000000000002) {
                        var6 = -4.2231944993922585;
                    } else {
                        var6 = -11.192998686290924;
                    }
                }
            }
        }
    }
    var var7;
    if (input[4] > 19.290000000000003) {
        if (input[0] <= -0.37999999999999995) {
            if (input[4] > 23.915000000000003) {
                if (input[1] <= -0.000000000000000000000000000000000010000000180025095) {
                    if (input[0] <= -0.6049999999999999) {
                        if (input[6] > 42.50000000000001) {
                            var7 = 56.120388305664065;
                        } else {
                            var7 = 50.57883984375;
                        }
                    } else {
                        var7 = 35.15040904453823;
                    }
                } else {
                    var7 = 33.71975006103516;
                }
            } else {
                if (input[8] > 78.00000000000001) {
                    if (input[7] > 0.7250000000000001) {
                        var7 = 18.786676624843054;
                    } else {
                        if (input[2] <= -0.7349999999999999) {
                            var7 = 0.6416047795613607;
                        } else {
                            var7 = 8.164108084548603;
                        }
                    }
                } else {
                    if (input[0] <= -0.7899999999999999) {
                        if (input[4] > 21.585000000000004) {
                            var7 = 43.27968266805013;
                        } else {
                            var7 = 25.99011418269231;
                        }
                    } else {
                        var7 = 14.664050441980363;
                    }
                }
            }
        } else {
            if (input[0] > 0.000000000000000000000000000000000010000000180025095) {
                if (input[2] <= -0.7099999999999999) {
                    var7 = -6.483591427356005;
                } else {
                    var7 = -0.5985747331753374;
                }
            } else {
                if (input[2] <= -0.7099999999999999) {
                    if (input[10] > 4.675000000000001) {
                        var7 = 8.819538101282987;
                    } else {
                        var7 = -1.5437177106738091;
                    }
                } else {
                    var7 = 13.582906614939374;
                }
            }
        }
    } else {
        if (input[2] <= -0.7449999999999999) {
            if (input[4] > 14.565000000000003) {
                if (input[0] <= -0.9199999999999998) {
                    var7 = -3.6636866523669323;
                } else {
                    if (input[0] > 0.6050000000000001) {
                        var7 = -17.651226258277894;
                    } else {
                        var7 = -12.82737587677805;
                    }
                }
            } else {
                if (input[8] > 98.50000000000001) {
                    var7 = -15.70212919815727;
                } else {
                    if (input[0] > 0.6050000000000001) {
                        var7 = -27.655179214477542;
                    } else {
                        if (input[5] > 1020.5000000000001) {
                            var7 = -19.46407484574752;
                        } else {
                            var7 = -25.84027688162668;
                        }
                    }
                }
            }
        } else {
            if (input[0] > 0.6050000000000001) {
                if (input[8] > 38.00000000000001) {
                    if (input[2] <= -0.7349999999999999) {
                        var7 = -8.961497779119583;
                    } else {
                        var7 = -4.75319237566807;
                    }
                } else {
                    if (input[2] <= -0.6949999999999998) {
                        var7 = -15.354158127613557;
                    } else {
                        var7 = -8.750458865506308;
                    }
                }
            } else {
                if (input[2] <= -0.7349999999999999) {
                    var7 = -5.878221199810505;
                } else {
                    if (input[8] > 34.00000000000001) {
                        if (input[0] > 0.000000000000000000000000000000000010000000180025095) {
                            var7 = -0.9509396684169769;
                        } else {
                            if (input[5] > 1021.5000000000001) {
                                var7 = 5.342378819639033;
                            } else {
                                var7 = -1.169059587066824;
                            }
                        }
                    } else {
                        var7 = -4.590984623248761;
                    }
                }
            }
        }
    }
    var var8;
    if (input[4] > 21.555000000000003) {
        if (input[0] <= -0.37999999999999995) {
            if (input[6] > 51.50000000000001) {
                if (input[5] > 1019.5000000000001) {
                    var8 = 22.75911561438912;
                } else {
                    var8 = 3.829249541655831;
                }
            } else {
                if (input[4] > 25.035000000000004) {
                    if (input[4] > 27.380000000000006) {
                        var8 = 50.97046292622884;
                    } else {
                        var8 = 43.77014025688172;
                    }
                } else {
                    if (input[10] > 4.025000000000001) {
                        var8 = 38.195067327162796;
                    } else {
                        var8 = 23.697112455822175;
                    }
                }
            }
        } else {
            if (input[0] > 0.000000000000000000000000000000000010000000180025095) {
                var8 = -0.7941127255558968;
            } else {
                if (input[2] <= -0.7099999999999999) {
                    var8 = 4.269516919120665;
                } else {
                    var8 = 14.601792606711388;
                }
            }
        }
    } else {
        if (input[4] > 15.595000000000002) {
            if (input[0] <= -0.6049999999999999) {
                if (input[8] > 60.50000000000001) {
                    if (input[4] > 17.215000000000003) {
                        if (input[5] > 1017.5000000000001) {
                            var8 = 7.167763938546874;
                        } else {
                            var8 = -0.932328845608619;
                        }
                    } else {
                        var8 = -9.346305090448132;
                    }
                } else {
                    if (input[1] > 0.000000000000000000000000000000000010000000180025095) {
                        var8 = 10.626328755021095;
                    } else {
                        var8 = 22.951937407034418;
                    }
                }
            } else {
                if (input[2] <= -0.7449999999999999) {
                    if (input[8] > 24.500000000000004) {
                        var8 = -13.510189599701853;
                    } else {
                        var8 = -5.995163863003254;
                    }
                } else {
                    if (input[0] > 0.38000000000000006) {
                        if (input[8] > 1.5000000000000002) {
                            if (input[0] > 0.92) {
                                var8 = -7.580631153924125;
                            } else {
                                var8 = -3.6598304272244833;
                            }
                        } else {
                            var8 = -12.58717651211967;
                        }
                    } else {
                        if (input[2] <= -0.6949999999999998) {
                            if (input[4] > 17.87) {
                                var8 = 3.1836453501383466;
                            } else {
                                if (input[8] > 98.50000000000001) {
                                    var8 = -4.258595350457401;
                                } else {
                                    var8 = 1.063144455353419;
                                }
                            }
                        } else {
                            var8 = 6.479402775234647;
                        }
                    }
                }
            }
        } else {
            if (input[2] <= -0.7449999999999999) {
                if (input[8] > 90.50000000000001) {
                    var8 = -14.335252092801609;
                } else {
                    if (input[6] > 69.50000000000001) {
                        if (input[0] > 0.92) {
                            var8 = -27.506518893771705;
                        } else {
                            if (input[6] > 75.50000000000001) {
                                var8 = -24.289334160173443;
                            } else {
                                var8 = -18.675602140880766;
                            }
                        }
                    } else {
                        var8 = -15.89592311859131;
                    }
                }
            } else {
                if (input[0] > 0.92) {
                    var8 = -14.350186546643577;
                } else {
                    if (input[4] > 13.935000000000002) {
                        var8 = -3.7801287243240758;
                    } else {
                        var8 = -10.096280406770253;
                    }
                }
            }
        }
    }
    var var9;
    if (input[4] > 21.555000000000003) {
        if (input[0] <= -0.37999999999999995) {
            if (input[6] > 51.50000000000001) {
                if (input[2] <= -0.7099999999999999) {
                    var9 = 6.184649362871724;
                } else {
                    var9 = 23.784967784881594;
                }
            } else {
                if (input[4] > 24.485000000000003) {
                    if (input[2] <= -0.7099999999999999) {
                        var9 = 39.25080587523325;
                    } else {
                        var9 = 46.6925658807522;
                    }
                } else {
                    if (input[9] > 3.2700000000000005) {
                        var9 = 34.743371355975114;
                    } else {
                        var9 = 25.233093394403873;
                    }
                }
            }
        } else {
            if (input[4] > 23.970000000000002) {
                if (input[0] <= -0.000000000000000000000000000000000010000000180025095) {
                    var9 = 13.030930914878846;
                } else {
                    var9 = 6.362317833185196;
                }
            } else {
                if (input[10] > 4.465000000000001) {
                    var9 = 3.795787623635045;
                } else {
                    var9 = -4.38915000643049;
                }
            }
        }
    } else {
        if (input[4] > 15.595000000000002) {
            if (input[0] <= -0.7899999999999999) {
                if (input[8] > 60.50000000000001) {
                    if (input[4] > 18.435000000000006) {
                        if (input[5] > 1017.5000000000001) {
                            var9 = 8.575054946967533;
                        } else {
                            var9 = -0.07622886085510255;
                        }
                    } else {
                        var9 = -6.262574614286423;
                    }
                } else {
                    var9 = 20.255039542061944;
                }
            } else {
                if (input[1] > 0.6050000000000001) {
                    if (input[2] <= -0.6949999999999998) {
                        if (input[2] <= -0.7349999999999999) {
                            var9 = -4.784681899730976;
                        } else {
                            var9 = -0.07137946257687579;
                        }
                    } else {
                        var9 = 6.155432602211281;
                    }
                } else {
                    if (input[4] > 20.430000000000003) {
                        if (input[5] > 1020.5000000000001) {
                            var9 = -6.077846674975895;
                        } else {
                            var9 = 5.910091027346525;
                        }
                    } else {
                        if (input[2] <= -0.7449999999999999) {
                            if (input[0] > 0.38000000000000006) {
                                var9 = -15.778146167901847;
                            } else {
                                var9 = -9.790107004344463;
                            }
                        } else {
                            if (input[8] > 1.5000000000000002) {
                                if (input[2] <= -0.7349999999999999) {
                                    var9 = -8.35397189039933;
                                } else {
                                    var9 = -3.828896431319685;
                                }
                            } else {
                                var9 = -12.102872753143311;
                            }
                        }
                    }
                }
            }
        } else {
            if (input[2] <= -0.7449999999999999) {
                if (input[8] > 90.50000000000001) {
                    var9 = -13.618489394554727;
                } else {
                    if (input[6] > 69.50000000000001) {
                        if (input[0] > 0.92) {
                            var9 = -26.13119299146864;
                        } else {
                            if (input[6] > 75.50000000000001) {
                                var9 = -23.074867484938935;
                            } else {
                                var9 = -17.741822088332405;
                            }
                        }
                    } else {
                        var9 = -15.10112678527832;
                    }
                }
            } else {
                if (input[4] > 13.935000000000002) {
                    var9 = -4.9915266976064565;
                } else {
                    var9 = -12.367143513174618;
                }
            }
        }
    }
    var var10;
    if (input[4] > 19.290000000000003) {
        if (input[0] <= -0.37999999999999995) {
            if (input[4] > 23.365000000000006) {
                if (input[1] <= -0.000000000000000000000000000000000010000000180025095) {
                    if (input[0] <= -0.6049999999999999) {
                        if (input[2] <= -0.7099999999999999) {
                            var10 = 40.516259488192475;
                        } else {
                            var10 = 49.090203094482426;
                        }
                    } else {
                        var10 = 29.287894264676357;
                    }
                } else {
                    var10 = 26.904328982035324;
                }
            } else {
                if (input[8] > 63.50000000000001) {
                    if (input[6] > 51.50000000000001) {
                        if (input[2] <= -0.7349999999999999) {
                            var10 = 2.3884289373189977;
                        } else {
                            var10 = 6.495931976111163;
                        }
                    } else {
                        var10 = 17.813373413085937;
                    }
                } else {
                    if (input[0] <= -0.7899999999999999) {
                        if (input[4] > 21.585000000000004) {
                            var10 = 42.131628417968756;
                        } else {
                            var10 = 22.64877430842473;
                        }
                    } else {
                        var10 = 7.898986426591873;
                    }
                }
            }
        } else {
            if (input[0] > 0.000000000000000000000000000000000010000000180025095) {
                if (input[2] <= -0.7099999999999999) {
                    var10 = -5.735028660595417;
                } else {
                    var10 = -0.5067801487155077;
                }
            } else {
                if (input[4] > 23.970000000000002) {
                    var10 = 11.630013892054558;
                } else {
                    if (input[8] > 99.50000000000001) {
                        var10 = 6.4609495438062226;
                    } else {
                        var10 = -2.5419676673412326;
                    }
                }
            }
        }
    } else {
        if (input[2] <= -0.7449999999999999) {
            if (input[4] > 14.565000000000003) {
                if (input[9] > 0.8800000000000001) {
                    if (input[10] > 5.9750000000000005) {
                        var10 = -8.767894138097764;
                    } else {
                        var10 = -13.589428672092883;
                    }
                } else {
                    var10 = -2.568835418701172;
                }
            } else {
                if (input[8] > 98.50000000000001) {
                    var10 = -13.519335340416951;
                } else {
                    if (input[6] > 75.50000000000001) {
                        var10 = -22.83853145355874;
                    } else {
                        var10 = -18.48253800927139;
                    }
                }
            }
        } else {
            if (input[0] > 0.6050000000000001) {
                if (input[8] > 11.000000000000002) {
                    if (input[2] <= -0.7349999999999999) {
                        var10 = -7.8617335909888855;
                    } else {
                        var10 = -4.261884517222643;
                    }
                } else {
                    if (input[2] <= -0.6949999999999998) {
                        var10 = -13.967374426977976;
                    } else {
                        var10 = -7.358574930826824;
                    }
                }
            } else {
                if (input[2] <= -0.7349999999999999) {
                    if (input[8] > 99.50000000000001) {
                        var10 = -2.3904454314708707;
                    } else {
                        var10 = -7.987593615055085;
                    }
                } else {
                    if (input[8] > 34.00000000000001) {
                        if (input[0] > 0.000000000000000000000000000000000010000000180025095) {
                            var10 = -0.7736550490558147;
                        } else {
                            if (input[5] > 1021.5000000000001) {
                                var10 = 4.59619639876214;
                            } else {
                                var10 = -1.232401804490523;
                            }
                        }
                    } else {
                        var10 = -3.779758803202556;
                    }
                }
            }
        }
    }
    var var11;
    if (input[4] > 21.555000000000003) {
        if (input[0] <= -0.37999999999999995) {
            if (input[6] > 51.50000000000001) {
                if (input[5] > 1018.5000000000001) {
                    var11 = 19.248197472401156;
                } else {
                    var11 = 2.816558386249976;
                }
            } else {
                if (input[0] <= -0.6049999999999999) {
                    if (input[4] > 24.485000000000003) {
                        var11 = 42.65177722507053;
                    } else {
                        if (input[8] > 39.50000000000001) {
                            var11 = 22.759001617431643;
                        } else {
                            var11 = 38.535634994506836;
                        }
                    }
                } else {
                    var11 = 22.813422225952152;
                }
            }
        } else {
            if (input[0] > 0.000000000000000000000000000000000010000000180025095) {
                var11 = -0.7539603035700949;
            } else {
                if (input[2] <= -0.7099999999999999) {
                    var11 = 3.5292151789511403;
                } else {
                    var11 = 12.944858780006568;
                }
            }
        }
    } else {
        if (input[4] > 15.595000000000002) {
            if (input[0] <= -0.7899999999999999) {
                if (input[8] > 60.50000000000001) {
                    if (input[4] > 18.435000000000006) {
                        if (input[5] > 1017.5000000000001) {
                            var11 = 7.840407485621316;
                        } else {
                            var11 = -0.08237641716003419;
                        }
                    } else {
                        var11 = -5.597148404121399;
                    }
                } else {
                    var11 = 18.341953476497107;
                }
            } else {
                if (input[1] > 0.6050000000000001) {
                    if (input[2] <= -0.6949999999999998) {
                        if (input[8] > 90.50000000000001) {
                            var11 = -2.4075577978409974;
                        } else {
                            var11 = 1.885086510019998;
                        }
                    } else {
                        var11 = 5.6193182256486685;
                    }
                } else {
                    if (input[4] > 20.430000000000003) {
                        if (input[5] > 1020.5000000000001) {
                            var11 = -5.622712450935727;
                        } else {
                            var11 = 5.496942620927637;
                        }
                    } else {
                        if (input[2] <= -0.7449999999999999) {
                            if (input[8] > 27.500000000000004) {
                                if (input[10] > 5.9750000000000005) {
                                    var11 = -8.9752985562597;
                                } else {
                                    var11 = -14.878378550211588;
                                }
                            } else {
                                var11 = -6.2371994393212455;
                            }
                        } else {
                            if (input[8] > 1.5000000000000002) {
                                if (input[7] > 2.8850000000000002) {
                                    var11 = -0.2975520446186974;
                                } else {
                                    var11 = -5.668195106931031;
                                }
                            } else {
                                var11 = -10.975650123032658;
                            }
                        }
                    }
                }
            }
        } else {
            if (input[2] <= -0.7449999999999999) {
                if (input[8] > 90.50000000000001) {
                    var11 = -12.274169120788574;
                } else {
                    if (input[6] > 69.50000000000001) {
                        if (input[0] > 0.92) {
                            var11 = -23.761356989542644;
                        } else {
                            var11 = -19.68567232878312;
                        }
                    } else {
                        var11 = -13.709580478668213;
                    }
                }
            } else {
                if (input[0] > 0.92) {
                    var11 = -12.594074567159018;
                } else {
                    if (input[4] > 13.935000000000002) {
                        var11 = -3.131641992142326;
                    } else {
                        var11 = -8.585479550134568;
                    }
                }
            }
        }
    }
    var var12;
    if (input[4] > 19.290000000000003) {
        if (input[0] <= -0.37999999999999995) {
            if (input[4] > 24.415000000000003) {
                if (input[6] > 48.50000000000001) {
                    var12 = 28.897094650268556;
                } else {
                    if (input[2] <= -0.7099999999999999) {
                        var12 = 33.55994946616037;
                    } else {
                        var12 = 42.150748203822545;
                    }
                }
            } else {
                if (input[8] > 93.50000000000001) {
                    if (input[2] <= -0.7349999999999999) {
                        var12 = 2.1913615446824295;
                    } else {
                        var12 = 6.88549201005214;
                    }
                } else {
                    if (input[4] > 21.750000000000004) {
                        if (input[10] > 4.025000000000001) {
                            var12 = 32.768221947454634;
                        } else {
                            var12 = 17.75601095116657;
                        }
                    } else {
                        if (input[0] <= -0.7899999999999999) {
                            var12 = 18.605057921129113;
                        } else {
                            var12 = 4.626667905151844;
                        }
                    }
                }
            }
        } else {
            if (input[4] > 23.970000000000002) {
                if (input[4] > 25.390000000000004) {
                    var12 = 11.29558369432177;
                } else {
                    var12 = 5.3597731004158655;
                }
            } else {
                if (input[8] > 84.00000000000001) {
                    var12 = 3.4769304963557617;
                } else {
                    if (input[5] > 1026.5000000000002) {
                        var12 = 0.7186700474648249;
                    } else {
                        var12 = -6.953434370426422;
                    }
                }
            }
        }
    } else {
        if (input[2] <= -0.7449999999999999) {
            if (input[4] > 14.65) {
                if (input[9] > 0.8800000000000001) {
                    if (input[10] > 5.9750000000000005) {
                        var12 = -7.890374399125577;
                    } else {
                        var12 = -12.21129990954732;
                    }
                } else {
                    var12 = -1.8653512636820477;
                }
            } else {
                if (input[5] > 1017.5000000000001) {
                    if (input[6] > 74.50000000000001) {
                        if (input[9] > 0.9350000000000002) {
                            var12 = -19.731025848388672;
                        } else {
                            var12 = -23.468460761176217;
                        }
                    } else {
                        var12 = -16.44618788023253;
                    }
                } else {
                    var12 = -13.158689162135126;
                }
            }
        } else {
            if (input[0] > 0.6050000000000001) {
                if (input[8] > 38.00000000000001) {
                    if (input[2] <= -0.7349999999999999) {
                        var12 = -7.222128584271386;
                    } else {
                        var12 = -3.6387915134429933;
                    }
                } else {
                    if (input[2] <= -0.6949999999999998) {
                        var12 = -12.188635681837034;
                    } else {
                        var12 = -6.508829015777225;
                    }
                }
            } else {
                if (input[2] <= -0.7349999999999999) {
                    if (input[8] > 99.50000000000001) {
                        var12 = -2.161633318774402;
                    } else {
                        var12 = -7.4740314245224;
                    }
                } else {
                    if (input[8] > 34.00000000000001) {
                        if (input[0] > 0.000000000000000000000000000000000010000000180025095) {
                            var12 = -0.6580380108207464;
                        } else {
                            if (input[5] > 1021.5000000000001) {
                                var12 = 4.139674467742443;
                            } else {
                                var12 = -1.143567098270763;
                            }
                        }
                    } else {
                        var12 = -3.388033063595112;
                    }
                }
            }
        }
    }
    var var13;
    if (input[4] > 19.290000000000003) {
        if (input[0] <= -0.37999999999999995) {
            if (input[4] > 24.415000000000003) {
                if (input[8] > 69.50000000000001) {
                    var13 = 29.983414780466184;
                } else {
                    var13 = 37.86404544406467;
                }
            } else {
                if (input[8] > 78.00000000000001) {
                    if (input[6] > 50.50000000000001) {
                        var13 = 3.8095195433672737;
                    } else {
                        var13 = 17.955113002232142;
                    }
                } else {
                    if (input[7] > 3.1250000000000004) {
                        var13 = 6.615465581417084;
                    } else {
                        if (input[4] > 21.585000000000004) {
                            var13 = 33.119556242844155;
                        } else {
                            var13 = 19.703966995765427;
                        }
                    }
                }
            }
        } else {
            if (input[0] > 0.000000000000000000000000000000000010000000180025095) {
                if (input[2] <= -0.7099999999999999) {
                    var13 = -5.207920763790607;
                } else {
                    var13 = -0.4365314929950528;
                }
            } else {
                if (input[2] <= -0.7099999999999999) {
                    if (input[5] > 1020.5000000000001) {
                        var13 = -1.9489213506380718;
                    } else {
                        var13 = 6.752372911572457;
                    }
                } else {
                    var13 = 10.476333023707072;
                }
            }
        }
    } else {
        if (input[2] <= -0.7449999999999999) {
            if (input[4] > 14.65) {
                if (input[9] > 0.8800000000000001) {
                    if (input[4] > 17.565) {
                        var13 = -6.32485874414444;
                    } else {
                        if (input[8] > 95.50000000000001) {
                            var13 = -10.127539737914738;
                        } else {
                            var13 = -14.787318458557131;
                        }
                    }
                } else {
                    var13 = -1.772083862622579;
                }
            } else {
                if (input[5] > 1017.5000000000001) {
                    if (input[6] > 74.50000000000001) {
                        if (input[9] > 0.9350000000000002) {
                            var13 = -18.744474727924054;
                        } else {
                            var13 = -22.29503727665654;
                        }
                    } else {
                        var13 = -15.623878355283995;
                    }
                } else {
                    var13 = -12.500754737108947;
                }
            }
        } else {
            if (input[0] > 0.6050000000000001) {
                if (input[8] > 11.000000000000002) {
                    if (input[2] <= -0.7349999999999999) {
                        var13 = -6.861022223745074;
                    } else {
                        var13 = -3.6114445518216365;
                    }
                } else {
                    if (input[2] <= -0.6949999999999998) {
                        var13 = -12.101115039416722;
                    } else {
                        var13 = -6.1833876379898625;
                    }
                }
            } else {
                if (input[2] <= -0.7349999999999999) {
                    if (input[8] > 99.50000000000001) {
                        var13 = -2.0535515701770786;
                    } else {
                        var13 = -7.100329747200013;
                    }
                } else {
                    if (input[0] > 0.000000000000000000000000000000000010000000180025095) {
                        if (input[5] > 1024.5000000000002) {
                            var13 = -4.390490140020847;
                        } else {
                            var13 = 0.4245151042938233;
                        }
                    } else {
                        if (input[5] > 1021.5000000000001) {
                            if (input[8] > 41.00000000000001) {
                                var13 = 4.453588158013869;
                            } else {
                                var13 = -0.8566175031661989;
                            }
                        } else {
                            var13 = -1.0863887678493154;
                        }
                    }
                }
            }
        }
    }
    var var14;
    if (input[4] > 21.950000000000006) {
        if (input[0] <= -0.37999999999999995) {
            if (input[6] > 50.50000000000001) {
                if (input[4] > 23.215000000000003) {
                    var14 = 20.329637660980225;
                } else {
                    var14 = 8.2959725685658;
                }
            } else {
                if (input[0] <= -0.6049999999999999) {
                    if (input[4] > 25.035000000000004) {
                        if (input[2] <= -0.7099999999999999) {
                            var14 = 35.078674697875975;
                        } else {
                            var14 = 39.666953777444775;
                        }
                    } else {
                        var14 = 28.87597434997559;
                    }
                } else {
                    var14 = 20.57625194390615;
                }
            }
        } else {
            if (input[0] > 0.000000000000000000000000000000000010000000180025095) {
                var14 = -0.5941767133772373;
            } else {
                if (input[6] > 49.50000000000001) {
                    var14 = 10.4636286765337;
                } else {
                    var14 = 2.269023761749268;
                }
            }
        }
    } else {
        if (input[4] > 15.595000000000002) {
            if (input[0] <= -0.6049999999999999) {
                if (input[8] > 42.50000000000001) {
                    if (input[5] > 1017.5000000000001) {
                        if (input[1] > 0.000000000000000000000000000000000010000000180025095) {
                            var14 = 3.412949984550476;
                        } else {
                            var14 = 11.749368598244407;
                        }
                    } else {
                        if (input[4] > 20.330000000000002) {
                            var14 = 1.5698882979154587;
                        } else {
                            var14 = -5.5391878177722305;
                        }
                    }
                } else {
                    var14 = 18.51529661996024;
                }
            } else {
                if (input[2] <= -0.7449999999999999) {
                    if (input[8] > 11.000000000000002) {
                        if (input[7] > 4.490000000000001) {
                            var14 = -8.600284828458514;
                        } else {
                            var14 = -12.800329985441985;
                        }
                    } else {
                        var14 = -4.35671166600216;
                    }
                } else {
                    if (input[0] > 0.38000000000000006) {
                        if (input[8] > 1.5000000000000002) {
                            if (input[4] > 16.135) {
                                var14 = -3.0775873100840965;
                            } else {
                                var14 = -7.59081834157308;
                            }
                        } else {
                            var14 = -9.453973325093587;
                        }
                    } else {
                        if (input[2] <= -0.6949999999999998) {
                            if (input[4] > 16.845000000000002) {
                                if (input[10] > 2.4450000000000007) {
                                    var14 = 2.3462052910885913;
                                } else {
                                    var14 = -2.0457648962736132;
                                }
                            } else {
                                var14 = -3.849211469718388;
                            }
                        } else {
                            var14 = 4.7001415627343315;
                        }
                    }
                }
            }
        } else {
            if (input[2] <= -0.7449999999999999) {
                if (input[8] > 90.50000000000001) {
                    var14 = -10.484757106487569;
                } else {
                    if (input[0] > 0.6050000000000001) {
                        var14 = -19.478138099083537;
                    } else {
                        if (input[6] > 73.50000000000001) {
                            var14 = -17.428303409923206;
                        } else {
                            var14 = -10.857719584873745;
                        }
                    }
                }
            } else {
                if (input[0] > 0.92) {
                    var14 = -10.940277961889905;
                } else {
                    if (input[4] > 13.935000000000002) {
                        var14 = -2.642550770232552;
                    } else {
                        var14 = -7.376384183338711;
                    }
                }
            }
        }
    }
    var var15;
    if (input[4] > 21.555000000000003) {
        if (input[0] <= -0.37999999999999995) {
            if (input[6] > 51.50000000000001) {
                if (input[2] <= -0.7099999999999999) {
                    var15 = 4.205015222872457;
                } else {
                    var15 = 17.504402901331584;
                }
            } else {
                if (input[0] <= -0.6049999999999999) {
                    if (input[4] > 25.035000000000004) {
                        var15 = 35.458955993652346;
                    } else {
                        if (input[8] > 39.50000000000001) {
                            var15 = 18.352024529197;
                        } else {
                            var15 = 33.156103584983136;
                        }
                    }
                } else {
                    var15 = 17.9070408782959;
                }
            }
        } else {
            if (input[4] > 23.970000000000002) {
                if (input[4] > 25.390000000000004) {
                    var15 = 10.148173840840657;
                } else {
                    var15 = 4.6946170429388685;
                }
            } else {
                if (input[10] > 4.465000000000001) {
                    var15 = 2.892261019459477;
                } else {
                    var15 = -3.692833529199873;
                }
            }
        }
    } else {
        if (input[4] > 15.060000000000002) {
            if (input[4] > 18.630000000000006) {
                if (input[7] > 2.8850000000000002) {
                    if (input[8] > 98.50000000000001) {
                        var15 = 1.25856700707227;
                    } else {
                        if (input[7] > 4.640000000000001) {
                            var15 = -8.37070083618164;
                        } else {
                            var15 = -2.9097867241272564;
                        }
                    }
                } else {
                    if (input[2] <= -0.7549999999999999) {
                        var15 = 17.194043262188252;
                    } else {
                        if (input[6] > 69.50000000000001) {
                            var15 = 0.9048427539815505;
                        } else {
                            if (input[2] <= -0.7349999999999999) {
                                var15 = 2.275853128018587;
                            } else {
                                var15 = 8.342514174514347;
                            }
                        }
                    }
                }
            } else {
                if (input[2] <= -0.7349999999999999) {
                    if (input[7] > 0.09000000000000001) {
                        if (input[8] > 98.50000000000001) {
                            var15 = -7.623577678366883;
                        } else {
                            var15 = -11.411309510185605;
                        }
                    } else {
                        if (input[4] > 16.500000000000004) {
                            var15 = -2.3770404001077017;
                        } else {
                            var15 = -8.85528267570164;
                        }
                    }
                } else {
                    if (input[0] > 0.38000000000000006) {
                        if (input[8] > 49.00000000000001) {
                            var15 = -2.4273289078407077;
                        } else {
                            var15 = -7.587610231596848;
                        }
                    } else {
                        var15 = 1.2609097603747719;
                    }
                }
            }
        } else {
            if (input[2] <= -0.7449999999999999) {
                if (input[5] > 1017.5000000000001) {
                    if (input[6] > 70.50000000000001) {
                        if (input[0] > 0.92) {
                            var15 = -20.042284277713662;
                        } else {
                            var15 = -16.382349313335656;
                        }
                    } else {
                        var15 = -12.081860427856446;
                    }
                } else {
                    if (input[4] > 14.240000000000002) {
                        var15 = -8.59652224743005;
                    } else {
                        var15 = -13.479779016403924;
                    }
                }
            } else {
                if (input[0] > 0.92) {
                    var15 = -11.20358289082845;
                } else {
                    var15 = -4.78378471610221;
                }
            }
        }
    }
    var var16;
    if (input[4] > 21.750000000000004) {
        if (input[0] <= -0.37999999999999995) {
            if (input[6] > 50.50000000000001) {
                if (input[8] > 98.50000000000001) {
                    var16 = 5.348766065713687;
                } else {
                    var16 = 23.21830045938492;
                }
            } else {
                if (input[0] <= -0.6049999999999999) {
                    if (input[4] > 25.035000000000004) {
                        if (input[6] > 41.50000000000001) {
                            var16 = 36.049158150809156;
                        } else {
                            var16 = 31.57469097319104;
                        }
                    } else {
                        var16 = 26.112749426705495;
                    }
                } else {
                    var16 = 18.652087610960006;
                }
            }
        } else {
            if (input[4] > 25.390000000000004) {
                var16 = 9.640765244620187;
            } else {
                if (input[9] > 1.7050000000000003) {
                    var16 = 6.296091900931465;
                } else {
                    var16 = -1.3385711344331503;
                }
            }
        }
    } else {
        if (input[4] > 16.135) {
            if (input[0] <= -0.6049999999999999) {
                if (input[8] > 42.50000000000001) {
                    if (input[5] > 1017.5000000000001) {
                        if (input[1] > 0.000000000000000000000000000000000010000000180025095) {
                            var16 = 3.4564308692245405;
                        } else {
                            var16 = 10.553193491155453;
                        }
                    } else {
                        if (input[10] > 5.310000000000001) {
                            var16 = -5.866688529968262;
                        } else {
                            var16 = 0.11542313182726503;
                        }
                    }
                } else {
                    var16 = 15.78989127332514;
                }
            } else {
                if (input[2] <= -0.7449999999999999) {
                    if (input[0] > 0.38000000000000006) {
                        var16 = -11.355893888927643;
                    } else {
                        var16 = -6.793198616387414;
                    }
                } else {
                    if (input[8] > 27.500000000000004) {
                        if (input[2] <= -0.6949999999999998) {
                            if (input[4] > 18.630000000000006) {
                                var16 = 1.8294297486543656;
                            } else {
                                if (input[0] > 0.38000000000000006) {
                                    var16 = -3.141623345602836;
                                } else {
                                    if (input[8] > 98.50000000000001) {
                                        var16 = -2.5225829077733533;
                                    } else {
                                        var16 = 1.7300869974596749;
                                    }
                                }
                            }
                        } else {
                            var16 = 5.096970973696028;
                        }
                    } else {
                        var16 = -8.078386647773511;
                    }
                }
            }
        } else {
            if (input[2] <= -0.7349999999999999) {
                if (input[8] > 90.50000000000001) {
                    if (input[9] > 1.2950000000000002) {
                        var16 = -8.657906599778396;
                    } else {
                        var16 = -11.800190575917561;
                    }
                } else {
                    if (input[6] > 69.50000000000001) {
                        if (input[0] > 0.92) {
                            var16 = -18.68060419294569;
                        } else {
                            if (input[6] > 75.50000000000001) {
                                var16 = -16.123517920265737;
                            } else {
                                var16 = -12.06653439885094;
                            }
                        }
                    } else {
                        var16 = -9.977250255237927;
                    }
                }
            } else {
                if (input[4] > 13.935000000000002) {
                    if (input[0] > 0.6050000000000001) {
                        var16 = -4.620087832212448;
                    } else {
                        var16 = -0.19278628210867607;
                    }
                } else {
                    var16 = -9.01831966638565;
                }
            }
        }
    }
    var var17;
    if (input[4] > 21.950000000000006) {
        if (input[0] <= -0.37999999999999995) {
            if (input[6] > 50.50000000000001) {
                if (input[4] > 23.215000000000003) {
                    var17 = 17.812894449234008;
                } else {
                    var17 = 6.779390781925571;
                }
            } else {
                if (input[0] <= -0.6049999999999999) {
                    if (input[4] > 25.035000000000004) {
                        if (input[2] <= -0.7099999999999999) {
                            var17 = 29.883569183349607;
                        } else {
                            var17 = 34.17763166756466;
                        }
                    } else {
                        var17 = 24.80711230141776;
                    }
                } else {
                    var17 = 17.719483101367953;
                }
            }
        } else {
            if (input[0] > 0.000000000000000000000000000000000010000000180025095) {
                var17 = -0.7708144524600358;
            } else {
                if (input[6] > 49.50000000000001) {
                    var17 = 9.341603351198136;
                } else {
                    var17 = 1.8548105907440187;
                }
            }
        }
    } else {
        if (input[4] > 16.565) {
            if (input[0] <= -0.6049999999999999) {
                if (input[8] > 42.50000000000001) {
                    if (input[5] > 1017.5000000000001) {
                        if (input[1] > 0.000000000000000000000000000000000010000000180025095) {
                            var17 = 3.415425872295461;
                        } else {
                            var17 = 10.02553360678933;
                        }
                    } else {
                        if (input[4] > 20.330000000000002) {
                            var17 = 1.2876082599163057;
                        } else {
                            var17 = -2.905753473043442;
                        }
                    }
                } else {
                    var17 = 16.19678479058402;
                }
            } else {
                if (input[2] <= -0.7449999999999999) {
                    if (input[8] > 11.000000000000002) {
                        var17 = -8.487149904171627;
                    } else {
                        var17 = -3.5097529638381233;
                    }
                } else {
                    if (input[8] > 27.500000000000004) {
                        if (input[4] > 18.630000000000006) {
                            var17 = 2.0681182025266547;
                        } else {
                            if (input[5] > 1020.5000000000001) {
                                if (input[0] > 0.000000000000000000000000000000000010000000180025095) {
                                    var17 = -1.6784894521119165;
                                } else {
                                    var17 = 3.533671918138862;
                                }
                            } else {
                                var17 = -3.2714886776038576;
                            }
                        }
                    } else {
                        var17 = -7.494956720286402;
                    }
                }
            }
        } else {
            if (input[2] <= -0.7449999999999999) {
                if (input[8] > 95.50000000000001) {
                    var17 = -8.579241147248641;
                } else {
                    if (input[0] <= -0.6049999999999999) {
                        var17 = -9.326485785745806;
                    } else {
                        if (input[1] > 0.38000000000000006) {
                            if (input[5] > 1020.5000000000001) {
                                var17 = -12.598410352071127;
                            } else {
                                var17 = -16.109620541617982;
                            }
                        } else {
                            var17 = -17.50844484412152;
                        }
                    }
                }
            } else {
                if (input[0] > 0.7900000000000001) {
                    if (input[4] > 13.970000000000002) {
                        if (input[6] > 80.50000000000001) {
                            var17 = -4.358856480202433;
                        } else {
                            var17 = -8.053209053386341;
                        }
                    } else {
                        var17 = -9.777815445609715;
                    }
                } else {
                    if (input[9] > 1.5450000000000002) {
                        var17 = 0.7030099521423209;
                    } else {
                        var17 = -3.813031767947333;
                    }
                }
            }
        }
    }
    return var0 + var1 + var2 + var3 + var4 + var5 + var6 + var7 + var8 + var9 + var10 + var11 + var12 + var13 + var14 + var15 + var16 + var17;
}
