export function wind_score2(input) {
    var var0;
    if (input[1] <= -0.6049999999999999) {
        if (input[9] > 4.865000000000001) {
            if (input[6] > 44.50000000000001) {
                var0 = 0.38330388164337487;
            } else {
                var0 = 0.40043057788412173;
            }
        } else {
            if (input[5] > 1016.5000000000001) {
                if (input[0] <= -0.000000000000000000000000000000000010000000180025095) {
                    if (input[10] > 3.265) {
                        if (input[4] > 23.970000000000002) {
                            var0 = 0.3756032131362781;
                        } else {
                            var0 = 0.3873423430041687;
                        }
                    } else {
                        var0 = 0.36846734360766575;
                    }
                } else {
                    if (input[7] > 4.410000000000001) {
                        if (input[4] > 20.655000000000005) {
                            if (input[6] > 57.50000000000001) {
                                var0 = 0.3694256771943188;
                            } else {
                                var0 = 0.37591377214326055;
                            }
                        } else {
                            var0 = 0.3624894024149792;
                        }
                    } else {
                        if (input[4] > 17.235000000000003) {
                            if (input[4] > 23.575000000000006) {
                                var0 = 0.3595923437827544;
                            } else {
                                var0 = 0.3540731130946203;
                            }
                        } else {
                            var0 = 0.3630923434810059;
                        }
                    }
                }
            } else {
                var0 = 0.38892129078629306;
            }
        }
    } else {
        if (input[5] > 1016.5000000000001) {
            if (input[6] > 49.50000000000001) {
                if (input[8] > 95.50000000000001) {
                    if (input[4] > 16.685000000000006) {
                        if (input[6] > 77.50000000000001) {
                            var0 = 0.3537709153667236;
                        } else {
                            if (input[0] <= -0.9199999999999998) {
                                var0 = 0.3508423438510514;
                            } else {
                                var0 = 0.3438335720873617;
                            }
                        }
                    } else {
                        if (input[6] > 84.50000000000001) {
                            var0 = 0.349217343788808;
                        } else {
                            if (input[9] > 1.7050000000000003) {
                                var0 = 0.355542343841614;
                            } else {
                                if (input[2] <= -0.7349999999999999) {
                                    if (input[0] > 0.38000000000000006) {
                                        var0 = 0.37814234350782794;
                                    } else {
                                        var0 = 0.3680923437417762;
                                    }
                                } else {
                                    var0 = 0.36273708033056173;
                                }
                            }
                        }
                    }
                } else {
                    if (input[4] > 17.765000000000004) {
                        if (input[0] > 0.000000000000000000000000000000000010000000180025095) {
                            var0 = 0.3466901701180096;
                        } else {
                            if (input[5] > 1021.5000000000001) {
                                var0 = 0.3647423435316698;
                            } else {
                                var0 = 0.35370598015124494;
                            }
                        }
                    } else {
                        if (input[7] > 0.20500000000000004) {
                            if (input[8] > 49.00000000000001) {
                                var0 = 0.3447709153842857;
                            } else {
                                var0 = 0.3527771265522854;
                            }
                        } else {
                            var0 = 0.34360716615631126;
                        }
                    }
                }
            } else {
                if (input[4] > 21.700000000000006) {
                    if (input[6] > 45.50000000000001) {
                        var0 = 0.3656032133597955;
                    } else {
                        var0 = 0.3805241615788357;
                    }
                } else {
                    var0 = 0.3557514344957596;
                }
            }
        } else {
            if (input[7] > 0.09000000000000001) {
                var0 = 0.3696952846999886;
            } else {
                var0 = 0.3935423425452129;
            }
        }
    }
    var var1;
    if (input[1] <= -0.6049999999999999) {
        if (input[9] > 4.865000000000001) {
            if (input[6] > 44.50000000000001) {
                var1 = 0.0217963444463049;
            } else {
                var1 = 0.03806670682409758;
            }
        } else {
            if (input[5] > 1016.5000000000001) {
                if (input[0] <= -0.000000000000000000000000000000000010000000180025095) {
                    if (input[10] > 3.265) {
                        if (input[4] > 23.970000000000002) {
                            var1 = 0.01448070954369462;
                        } else {
                            var1 = 0.02563288279809058;
                        }
                    } else {
                        var1 = 0.007701633381657302;
                    }
                } else {
                    if (input[7] > 4.410000000000001) {
                        if (input[4] > 20.655000000000005) {
                            if (input[6] > 57.50000000000001) {
                                var1 = 0.008612049619356792;
                            } else {
                                var1 = 0.014775740266555832;
                            }
                        } else {
                            var1 = 0.002022588559809853;
                        }
                    } else {
                        if (input[4] > 17.235000000000003) {
                            if (input[4] > 23.575000000000006) {
                                var1 = -0.0007296169269829988;
                            } else {
                                var1 = -0.005972886142822413;
                            }
                        } else {
                            var1 = 0.002595382761210203;
                        }
                    }
                }
            } else {
                var1 = 0.027132883138562505;
            }
        }
    } else {
        if (input[5] > 1016.5000000000001) {
            if (input[6] > 49.50000000000001) {
                if (input[8] > 95.50000000000001) {
                    if (input[4] > 16.685000000000006) {
                        if (input[6] > 77.50000000000001) {
                            var1 = -0.006259974045678973;
                        } else {
                            if (input[0] <= -0.9199999999999998) {
                                var1 = -0.009042117378364007;
                            } else {
                                var1 = -0.01570045019320229;
                            }
                        }
                    } else {
                        if (input[6] > 84.50000000000001) {
                            var1 = -0.010585867607733236;
                        } else {
                            if (input[9] > 1.7050000000000003) {
                                var1 = -0.004577116839587689;
                            } else {
                                if (input[8] > 98.50000000000001) {
                                    if (input[10] > 3.0750000000000006) {
                                        var1 = 0.008096980282829867;
                                    } else {
                                        var1 = 0.01730044520947905;
                                    }
                                } else {
                                    var1 = 0.00000879380565423232;
                                }
                            }
                        }
                    }
                } else {
                    if (input[4] > 17.765000000000004) {
                        if (input[0] > 0.000000000000000000000000000000000010000000180025095) {
                            var1 = -0.01298668276032676;
                        } else {
                            if (input[5] > 1021.5000000000001) {
                                var1 = 0.004162883006036282;
                            } else {
                                var1 = -0.006321662517659592;
                            }
                        }
                    } else {
                        if (input[7] > 0.20500000000000004) {
                            if (input[8] > 49.00000000000001) {
                                var1 = -0.0148099740168878;
                            } else {
                                var1 = -0.007204073456966359;
                            }
                        } else {
                            var1 = -0.015915535764378524;
                        }
                    }
                }
            } else {
                if (input[4] > 21.700000000000006) {
                    if (input[6] > 45.50000000000001) {
                        var1 = 0.004980709338965624;
                    } else {
                        var1 = 0.01915561047693094;
                    }
                } else {
                    var1 = -0.004378480836749077;
                }
            }
        } else {
            if (input[7] > 0.09000000000000001) {
                var1 = 0.00886817684616236;
            } else {
                var1 = 0.03152288302779198;
            }
        }
    }
    var var2;
    if (input[7] > 1.8350000000000002) {
        if (input[9] > 4.905) {
            if (input[6] > 44.50000000000001) {
                var2 = 0.02161998873052653;
            } else {
                var2 = 0.03606856547089087;
            }
        } else {
            if (input[4] > 20.865000000000006) {
                if (input[4] > 21.880000000000006) {
                    if (input[8] > 27.500000000000004) {
                        var2 = 0.015583462938666344;
                    } else {
                        var2 = 0.004208419274685806;
                    }
                } else {
                    var2 = 0.03698115312804778;
                }
            } else {
                if (input[8] > 99.50000000000001) {
                    var2 = 0.011244371674697974;
                } else {
                    if (input[8] > 66.00000000000001) {
                        if (input[6] > 52.50000000000001) {
                            var2 = -0.007802629901561886;
                        } else {
                            var2 = 0.0022460487501865085;
                        }
                    } else {
                        if (input[4] > 19.055000000000003) {
                            var2 = 0.01162382039640631;
                        } else {
                            var2 = 0.0039019654815395676;
                        }
                    }
                }
            }
        }
    } else {
        if (input[5] > 1016.5000000000001) {
            if (input[6] > 49.50000000000001) {
                if (input[5] > 1017.5000000000001) {
                    if (input[4] > 16.115000000000006) {
                        if (input[5] > 1025.5000000000002) {
                            var2 = -0.013988577518612148;
                        } else {
                            if (input[8] > 98.50000000000001) {
                                if (input[4] > 16.685000000000006) {
                                    if (input[0] <= -0.9199999999999998) {
                                        var2 = -0.00859001082678636;
                                    } else {
                                        var2 = -0.015331569157148662;
                                    }
                                } else {
                                    var2 = 0.0018451618005496427;
                                }
                            } else {
                                if (input[5] > 1021.5000000000001) {
                                    if (input[9] > 1.2950000000000002) {
                                        var2 = -0.0032667357991966934;
                                    } else {
                                        var2 = 0.006648777249668326;
                                    }
                                } else {
                                    if (input[4] > 20.765000000000004) {
                                        var2 = -0.010464453413372949;
                                    } else {
                                        var2 = -0.002619231298255424;
                                    }
                                }
                            }
                        }
                    } else {
                        if (input[2] <= -0.7349999999999999) {
                            var2 = -0.016080173365771774;
                        } else {
                            if (input[6] > 86.50000000000001) {
                                var2 = -0.01593054761083759;
                            } else {
                                var2 = -0.010325486461321514;
                            }
                        }
                    }
                } else {
                    if (input[6] > 77.50000000000001) {
                        if (input[8] > 99.50000000000001) {
                            if (input[10] > 3.0750000000000006) {
                                var2 = -0.00552907588355469;
                            } else {
                                var2 = 0.004249061595486558;
                            }
                        } else {
                            var2 = 0.00877835376886651;
                        }
                    } else {
                        var2 = -0.013127356538405785;
                    }
                }
            } else {
                if (input[4] > 21.700000000000006) {
                    if (input[8] > 63.50000000000001) {
                        var2 = 0.006022105136556396;
                    } else {
                        var2 = 0.014913414279686144;
                    }
                } else {
                    var2 = -0.005317423984408379;
                }
            }
        } else {
            if (input[7] > 0.09000000000000001) {
                if (input[1] <= -0.37999999999999995) {
                    var2 = 0.006746913458813321;
                } else {
                    var2 = 0.01675364521162754;
                }
            } else {
                var2 = 0.029946738213300707;
            }
        }
    }
    var var3;
    if (input[7] > 1.8350000000000002) {
        if (input[9] > 4.905) {
            if (input[6] > 44.50000000000001) {
                var3 = 0.020538989427344254;
            } else {
                var3 = 0.034265137419828944;
            }
        } else {
            if (input[4] > 20.865000000000006) {
                if (input[4] > 21.880000000000006) {
                    if (input[8] > 27.500000000000004) {
                        var3 = 0.01480428977869451;
                    } else {
                        var3 = 0.003997998214081714;
                    }
                } else {
                    var3 = 0.035132094320530695;
                }
            } else {
                if (input[8] > 99.50000000000001) {
                    var3 = 0.010682153033799139;
                } else {
                    if (input[8] > 66.00000000000001) {
                        if (input[6] > 52.50000000000001) {
                            var3 = -0.007412498473422602;
                        } else {
                            var3 = 0.0021337464536455544;
                        }
                    } else {
                        if (input[4] > 19.055000000000003) {
                            var3 = 0.011042629075901849;
                        } else {
                            var3 = 0.0037068670792948636;
                        }
                    }
                }
            }
        }
    } else {
        if (input[5] > 1016.5000000000001) {
            if (input[6] > 50.50000000000001) {
                if (input[5] > 1017.5000000000001) {
                    if (input[4] > 16.115000000000006) {
                        if (input[5] > 1025.5000000000002) {
                            var3 = -0.013289148467592896;
                        } else {
                            if (input[8] > 98.50000000000001) {
                                if (input[4] > 16.685000000000006) {
                                    if (input[0] <= -0.9199999999999998) {
                                        var3 = -0.007910511137119361;
                                    } else {
                                        var3 = -0.01456498971470354;
                                    }
                                } else {
                                    var3 = 0.0017529037277642136;
                                }
                            } else {
                                if (input[5] > 1021.5000000000001) {
                                    if (input[9] > 1.2950000000000002) {
                                        var3 = -0.0031033990490767693;
                                    } else {
                                        var3 = 0.0057379885068671276;
                                    }
                                } else {
                                    var3 = -0.006323688539365928;
                                }
                            }
                        }
                    } else {
                        if (input[2] <= -0.7249999999999999) {
                            var3 = -0.015237131797605092;
                        } else {
                            if (input[6] > 86.50000000000001) {
                                var3 = -0.0151340195110866;
                            } else {
                                var3 = -0.00943995670161464;
                            }
                        }
                    }
                } else {
                    if (input[9] > 2.9950000000000006) {
                        var3 = -0.011941458677340831;
                    } else {
                        if (input[4] > 16.685000000000006) {
                            var3 = -0.010286435645750979;
                        } else {
                            if (input[1] > 0.000000000000000000000000000000000010000000180025095) {
                                if (input[6] > 81.50000000000001) {
                                    var3 = 0.014898811355638114;
                                } else {
                                    var3 = 0.005977025574871472;
                                }
                            } else {
                                var3 = -0.0005020133083841453;
                            }
                        }
                    }
                }
            } else {
                if (input[4] > 21.700000000000006) {
                    if (input[6] > 45.50000000000001) {
                        var3 = 0.004690059039153552;
                    } else {
                        var3 = 0.014924842868586658;
                    }
                } else {
                    var3 = -0.0033616788271400664;
                }
            }
        } else {
            if (input[7] > 0.09000000000000001) {
                if (input[1] <= -0.37999999999999995) {
                    var3 = 0.006409567408263684;
                } else {
                    var3 = 0.015915963359558107;
                }
            } else {
                var3 = 0.028449401497840882;
            }
        }
    }
    var var4;
    if (input[1] <= -0.6049999999999999) {
        if (input[9] > 4.865000000000001) {
            if (input[6] > 44.50000000000001) {
                var4 = 0.018710126570211007;
            } else {
                var4 = 0.03284066809094785;
            }
        } else {
            if (input[5] > 1016.5000000000001) {
                if (input[0] <= -0.000000000000000000000000000000000010000000180025095) {
                    if (input[6] > 48.50000000000001) {
                        var4 = 0.019256507339099806;
                    } else {
                        if (input[6] > 46.50000000000001) {
                            var4 = -0.00035426901357079097;
                        } else {
                            var4 = 0.013361339242611495;
                        }
                    }
                } else {
                    if (input[6] > 51.50000000000001) {
                        if (input[5] > 1026.5000000000002) {
                            var4 = 0.010624545409033697;
                        } else {
                            if (input[4] > 17.090000000000003) {
                                if (input[8] > 72.00000000000001) {
                                    var4 = -0.0096743434343649;
                                } else {
                                    var4 = -0.002196785041702573;
                                }
                            } else {
                                var4 = 0.009674077835820971;
                            }
                        }
                    } else {
                        var4 = 0.011778900774449787;
                    }
                }
            } else {
                var4 = 0.02387162839111529;
            }
        }
    } else {
        if (input[5] > 1016.5000000000001) {
            if (input[6] > 49.50000000000001) {
                if (input[5] > 1017.5000000000001) {
                    if (input[4] > 16.115000000000006) {
                        if (input[2] <= -0.7099999999999999) {
                            if (input[5] > 1020.5000000000001) {
                                if (input[1] > 0.7900000000000001) {
                                    var4 = 0.0070697054173797375;
                                } else {
                                    if (input[4] > 16.685000000000006) {
                                        var4 = -0.006454563640058041;
                                    } else {
                                        var4 = 0.0003907691155161176;
                                    }
                                }
                            } else {
                                if (input[4] > 18.630000000000006) {
                                    var4 = -0.005187596566975117;
                                } else {
                                    var4 = -0.014880784547754697;
                                }
                            }
                        } else {
                            if (input[0] <= -0.9199999999999998) {
                                var4 = -0.00036779929545115343;
                            } else {
                                if (input[7] > 0.20500000000000004) {
                                    var4 = -0.007070844038389624;
                                } else {
                                    var4 = -0.014173675848057125;
                                }
                            }
                        }
                    } else {
                        if (input[2] <= -0.7349999999999999) {
                            var4 = -0.014531532546479098;
                        } else {
                            if (input[6] > 86.50000000000001) {
                                var4 = -0.014377319113332399;
                            } else {
                                var4 = -0.009313058635840815;
                            }
                        }
                    }
                } else {
                    if (input[6] > 77.50000000000001) {
                        if (input[8] > 99.50000000000001) {
                            if (input[10] > 3.0750000000000006) {
                                var4 = -0.005422041050213225;
                            } else {
                                var4 = 0.004403448728128122;
                            }
                        } else {
                            var4 = 0.00785471453693592;
                        }
                    } else {
                        var4 = -0.011930924439086365;
                    }
                }
            } else {
                if (input[4] > 21.700000000000006) {
                    if (input[6] > 45.50000000000001) {
                        var4 = 0.0040577760209207945;
                    } else {
                        var4 = 0.016551461288084587;
                    }
                } else {
                    var4 = -0.003725602240724997;
                }
            }
        } else {
            if (input[7] > 0.09000000000000001) {
                var4 = 0.007187264772844227;
            } else {
                var4 = 0.02702693083882332;
            }
        }
    }
    var var5;
    if (input[7] > 1.8350000000000002) {
        if (input[9] > 4.905) {
            if (input[6] > 44.50000000000001) {
                var5 = 0.0185765337664634;
            } else {
                var5 = 0.031000343772272274;
            }
        } else {
            if (input[4] > 20.865000000000006) {
                if (input[4] > 21.880000000000006) {
                    if (input[8] > 27.500000000000004) {
                        var5 = 0.013379715094342829;
                    } else {
                        var5 = 0.0034584446185219444;
                    }
                } else {
                    var5 = 0.032552326798128584;
                }
            } else {
                if (input[8] > 99.50000000000001) {
                    var5 = 0.009539564429172155;
                } else {
                    if (input[8] > 66.00000000000001) {
                        if (input[6] > 52.50000000000001) {
                            var5 = -0.0068299457547254866;
                        } else {
                            var5 = 0.0016574448577805678;
                        }
                    } else {
                        if (input[4] > 19.055000000000003) {
                            var5 = 0.009979214749875523;
                        } else {
                            var5 = 0.003470530869838383;
                        }
                    }
                }
            }
        }
    } else {
        if (input[5] > 1016.5000000000001) {
            if (input[6] > 49.50000000000001) {
                if (input[5] > 1017.5000000000001) {
                    if (input[4] > 16.115000000000006) {
                        if (input[5] > 1025.5000000000002) {
                            var5 = -0.012080541248433293;
                        } else {
                            if (input[8] > 98.50000000000001) {
                                if (input[4] > 16.685000000000006) {
                                    if (input[0] <= -0.9199999999999998) {
                                        var5 = -0.007579471388210853;
                                    } else {
                                        var5 = -0.01316576348617673;
                                    }
                                } else {
                                    var5 = 0.0016177702216884577;
                                }
                            } else {
                                if (input[5] > 1021.5000000000001) {
                                    if (input[9] > 1.2950000000000002) {
                                        var5 = -0.002750467088211466;
                                    } else {
                                        var5 = 0.005808877306325095;
                                    }
                                } else {
                                    if (input[4] > 20.765000000000004) {
                                        var5 = -0.00943737750252088;
                                    } else {
                                        var5 = -0.0019240458418304724;
                                    }
                                }
                            }
                        }
                    } else {
                        if (input[2] <= -0.7249999999999999) {
                            var5 = -0.013755947123799059;
                        } else {
                            var5 = -0.01121898536515292;
                        }
                    }
                } else {
                    if (input[9] > 2.9950000000000006) {
                        var5 = -0.01091056088251727;
                    } else {
                        if (input[4] > 16.685000000000006) {
                            var5 = -0.009561596311290157;
                        } else {
                            if (input[1] > 0.000000000000000000000000000000000010000000180025095) {
                                if (input[6] > 81.50000000000001) {
                                    var5 = 0.013885236482905306;
                                } else {
                                    var5 = 0.005285438757744574;
                                }
                            } else {
                                var5 = -0.00035600855092828476;
                            }
                        }
                    }
                }
            } else {
                if (input[4] > 21.700000000000006) {
                    if (input[8] > 63.50000000000001) {
                        var5 = 0.00481176060580072;
                    } else {
                        var5 = 0.013092746486007754;
                    }
                } else {
                    var5 = -0.004717416808009148;
                }
            }
        } else {
            if (input[7] > 0.09000000000000001) {
                if (input[1] <= -0.37999999999999995) {
                    var5 = 0.005222321013835344;
                } else {
                    var5 = 0.014760801725258883;
                }
            } else {
                var5 = 0.025675585478544233;
            }
        }
    }
    var var6;
    if (input[1] <= -0.6049999999999999) {
        if (input[9] > 4.865000000000001) {
            if (input[6] > 44.50000000000001) {
                var6 = 0.01689715569552321;
            } else {
                var6 = 0.02973491955165039;
            }
        } else {
            if (input[5] > 1017.5000000000001) {
                if (input[0] <= -0.000000000000000000000000000000000010000000180025095) {
                    if (input[6] > 48.50000000000001) {
                        var6 = 0.017792116195264766;
                    } else {
                        if (input[6] > 46.50000000000001) {
                            var6 = -0.0006370799996974793;
                        } else {
                            var6 = 0.012058144935441238;
                        }
                    }
                } else {
                    if (input[6] > 51.50000000000001) {
                        if (input[5] > 1026.5000000000002) {
                            var6 = 0.009589352786982393;
                        } else {
                            if (input[6] > 56.50000000000001) {
                                if (input[6] > 60.50000000000001) {
                                    if (input[7] > 3.1700000000000004) {
                                        var6 = -0.0006311929198326888;
                                    } else {
                                        var6 = -0.0063143768771128225;
                                    }
                                } else {
                                    var6 = 0.0031815792345220133;
                                }
                            } else {
                                var6 = -0.00855410390537145;
                            }
                        }
                    } else {
                        var6 = 0.010608995458195833;
                    }
                }
            } else {
                if (input[1] <= -0.9199999999999998) {
                    var6 = 0.03470182982051656;
                } else {
                    var6 = 0.008532913838728116;
                }
            }
        }
    } else {
        if (input[5] > 1016.5000000000001) {
            if (input[6] > 49.50000000000001) {
                if (input[5] > 1017.5000000000001) {
                    if (input[4] > 16.115000000000006) {
                        if (input[2] <= -0.7099999999999999) {
                            if (input[5] > 1020.5000000000001) {
                                if (input[1] > 0.000000000000000000000000000000000010000000180025095) {
                                    if (input[4] > 18.435000000000006) {
                                        var6 = -0.004379273072949478;
                                    } else {
                                        var6 = 0.007766774718243725;
                                    }
                                } else {
                                    var6 = -0.0064930008238424436;
                                }
                            } else {
                                if (input[4] > 18.630000000000006) {
                                    var6 = -0.004554986488074064;
                                } else {
                                    var6 = -0.013588681604181016;
                                }
                            }
                        } else {
                            if (input[0] <= -0.9199999999999998) {
                                var6 = -0.00013753870417448607;
                            } else {
                                if (input[7] > 0.20500000000000004) {
                                    var6 = -0.006191030670306645;
                                } else {
                                    var6 = -0.012933700277547665;
                                }
                            }
                        }
                    } else {
                        var6 = -0.012143721021555956;
                    }
                } else {
                    if (input[6] > 77.50000000000001) {
                        if (input[8] > 99.50000000000001) {
                            if (input[10] > 3.0750000000000006) {
                                var6 = -0.004979682593222927;
                            } else {
                                var6 = 0.004184082644776656;
                            }
                        } else {
                            var6 = 0.007018544324415012;
                        }
                    } else {
                        var6 = -0.010837683394381133;
                    }
                }
            } else {
                if (input[4] > 21.700000000000006) {
                    if (input[6] > 45.50000000000001) {
                        var6 = 0.003479107922833899;
                    } else {
                        var6 = 0.015046809794324817;
                    }
                } else {
                    var6 = -0.0033034507523883477;
                }
            }
        } else {
            if (input[7] > 0.09000000000000001) {
                var6 = 0.006279157499289688;
            } else {
                var6 = 0.02439180573821068;
            }
        }
    }
    var var7;
    if (input[7] > 1.8350000000000002) {
        if (input[9] > 4.905) {
            if (input[6] > 44.50000000000001) {
                var7 = 0.016802848875522615;
            } else {
                var7 = 0.028045180398556926;
            }
        } else {
            if (input[4] > 20.865000000000006) {
                if (input[4] > 21.880000000000006) {
                    if (input[8] > 27.500000000000004) {
                        var7 = 0.012048206222243608;
                    } else {
                        var7 = 0.003007955665357019;
                    }
                } else {
                    var7 = 0.02984688552096486;
                }
            } else {
                if (input[8] > 99.50000000000001) {
                    var7 = 0.008650975301861763;
                } else {
                    if (input[8] > 66.00000000000001) {
                        if (input[0] > 0.38000000000000006) {
                            var7 = -0.0060679034056032415;
                        } else {
                            var7 = 0.001686947141715791;
                        }
                    } else {
                        if (input[4] > 19.055000000000003) {
                            var7 = 0.008995383729537327;
                        } else {
                            var7 = 0.0031537325165811037;
                        }
                    }
                }
            }
        }
    } else {
        if (input[5] > 1016.5000000000001) {
            if (input[6] > 49.50000000000001) {
                if (input[5] > 1017.5000000000001) {
                    if (input[4] > 16.115000000000006) {
                        if (input[5] > 1025.5000000000002) {
                            var7 = -0.010958913465146908;
                        } else {
                            if (input[8] > 98.50000000000001) {
                                if (input[4] > 16.685000000000006) {
                                    if (input[0] <= -0.9199999999999998) {
                                        var7 = -0.007001204074670871;
                                    } else {
                                        var7 = -0.011893372917384432;
                                    }
                                } else {
                                    var7 = 0.0014425708709766057;
                                }
                            } else {
                                if (input[5] > 1021.5000000000001) {
                                    if (input[0] <= -0.000000000000000000000000000000000010000000180025095) {
                                        var7 = 0.0055511868682087346;
                                    } else {
                                        var7 = -0.0023404432809911667;
                                    }
                                } else {
                                    if (input[4] > 20.765000000000004) {
                                        var7 = -0.008742361107752436;
                                    } else {
                                        var7 = -0.0016131748522942265;
                                    }
                                }
                            }
                        }
                    } else {
                        if (input[1] <= -0.000000000000000000000000000000000010000000180025095) {
                            var7 = -0.008003196927408378;
                        } else {
                            var7 = -0.01191094414081792;
                        }
                    }
                } else {
                    if (input[9] > 2.9950000000000006) {
                        var7 = -0.009969598706811668;
                    } else {
                        if (input[4] > 16.685000000000006) {
                            var7 = -0.008896349057216537;
                        } else {
                            if (input[1] > 0.000000000000000000000000000000000010000000180025095) {
                                if (input[6] > 81.50000000000001) {
                                    var7 = 0.012949106008138346;
                                } else {
                                    var7 = 0.0046702396224385925;
                                }
                            } else {
                                var7 = -0.00022974890695574382;
                            }
                        }
                    }
                }
            } else {
                if (input[4] > 21.700000000000006) {
                    if (input[8] > 63.50000000000001) {
                        var7 = 0.004163569806232339;
                    } else {
                        var7 = 0.01191040885169059;
                    }
                } else {
                    var7 = -0.004332371354103089;
                }
            }
        } else {
            if (input[7] > 0.09000000000000001) {
                if (input[1] <= -0.37999999999999995) {
                    var7 = 0.004418567830527371;
                } else {
                    var7 = 0.013708803633397278;
                }
            } else {
                var7 = 0.023172215014696122;
            }
        }
    }
    var var8;
    if (input[1] <= -0.6049999999999999) {
        if (input[5] > 1018.5000000000001) {
            if (input[0] <= -0.000000000000000000000000000000000010000000180025095) {
                if (input[10] > 3.265) {
                    if (input[9] > 2.4750000000000005) {
                        var8 = 0.02151988909010672;
                    } else {
                        var8 = 0.011990470808398511;
                    }
                } else {
                    var8 = 0.004900466894032434;
                }
            } else {
                if (input[6] > 50.50000000000001) {
                    if (input[5] > 1026.5000000000002) {
                        var8 = 0.008654627002154787;
                    } else {
                        if (input[10] > 2.4450000000000007) {
                            if (input[8] > 72.00000000000001) {
                                var8 = -0.00838343764522246;
                            } else {
                                if (input[4] > 21.570000000000004) {
                                    var8 = -0.006276419340865687;
                                } else {
                                    var8 = -0.000573733934889669;
                                }
                            }
                        } else {
                            var8 = 0.001083972902658085;
                        }
                    }
                } else {
                    var8 = 0.011843223985284567;
                }
            }
        } else {
            if (input[1] <= -0.9199999999999998) {
                var8 = 0.03245170749590865;
            } else {
                if (input[2] <= -0.7449999999999999) {
                    var8 = 0.015756497718393804;
                } else {
                    var8 = 0.0058920884361633894;
                }
            }
        }
    } else {
        if (input[5] > 1016.5000000000001) {
            if (input[6] > 49.50000000000001) {
                if (input[5] > 1017.5000000000001) {
                    if (input[4] > 16.115000000000006) {
                        if (input[2] <= -0.7099999999999999) {
                            if (input[5] > 1020.5000000000001) {
                                if (input[1] > 0.000000000000000000000000000000000010000000180025095) {
                                    if (input[4] > 18.435000000000006) {
                                        var8 = -0.003978223892460976;
                                    } else {
                                        var8 = 0.007304505807144615;
                                    }
                                } else {
                                    var8 = -0.006048056791010111;
                                }
                            } else {
                                if (input[4] > 19.355000000000004) {
                                    var8 = -0.002939969012594043;
                                } else {
                                    var8 = -0.011382665107440619;
                                }
                            }
                        } else {
                            if (input[0] <= -0.9199999999999998) {
                                var8 = -0.000047893396748060536;
                            } else {
                                if (input[7] > 0.20500000000000004) {
                                    var8 = -0.005404096278361976;
                                } else {
                                    var8 = -0.01182717881941547;
                                }
                            }
                        }
                    } else {
                        var8 = -0.010963052983500969;
                    }
                } else {
                    if (input[9] > 2.9950000000000006) {
                        var8 = -0.009471119008958341;
                    } else {
                        if (input[4] > 16.685000000000006) {
                            var8 = -0.006481468630954623;
                        } else {
                            if (input[6] > 83.50000000000001) {
                                var8 = -0.0011585423523294074;
                            } else {
                                if (input[0] > 0.38000000000000006) {
                                    var8 = 0.0127315544922437;
                                } else {
                                    var8 = 0.004912541086031568;
                                }
                            }
                        }
                    }
                }
            } else {
                if (input[4] > 21.700000000000006) {
                    if (input[6] > 45.50000000000001) {
                        var8 = 0.0029697830586329754;
                    } else {
                        var8 = 0.013682490526557421;
                    }
                } else {
                    var8 = -0.002921659761870449;
                }
            }
        } else {
            if (input[7] > 0.34500000000000003) {
                var8 = 0.001706078806521625;
            } else {
                var8 = 0.018876720587345394;
            }
        }
    }
    var var9;
    if (input[1] <= -0.6049999999999999) {
        if (input[5] > 1018.5000000000001) {
            if (input[0] <= -0.000000000000000000000000000000000010000000180025095) {
                if (input[10] > 3.265) {
                    if (input[9] > 2.4750000000000005) {
                        var9 = 0.02044389472446508;
                    } else {
                        var9 = 0.011390947071569306;
                    }
                } else {
                    var9 = 0.004655443354276941;
                }
            } else {
                if (input[6] > 50.50000000000001) {
                    if (input[5] > 1026.5000000000002) {
                        var9 = 0.008221895581421753;
                    } else {
                        if (input[10] > 2.4450000000000007) {
                            var9 = -0.004672462898452068;
                        } else {
                            var9 = 0.0010297740732009212;
                        }
                    }
                } else {
                    var9 = 0.011251063220202924;
                }
            }
        } else {
            if (input[1] <= -0.9199999999999998) {
                var9 = 0.03082912232194628;
            } else {
                if (input[2] <= -0.7449999999999999) {
                    var9 = 0.014968672860413791;
                } else {
                    var9 = 0.0055974841099948845;
                }
            }
        }
    } else {
        if (input[5] > 1016.5000000000001) {
            if (input[6] > 49.50000000000001) {
                if (input[5] > 1017.5000000000001) {
                    if (input[4] > 16.115000000000006) {
                        if (input[2] <= -0.7099999999999999) {
                            if (input[5] > 1020.5000000000001) {
                                if (input[1] > 0.000000000000000000000000000000000010000000180025095) {
                                    if (input[4] > 18.435000000000006) {
                                        var9 = -0.003779312688857317;
                                    } else {
                                        var9 = 0.006939280455564866;
                                    }
                                } else {
                                    var9 = -0.005745653840510742;
                                }
                            } else {
                                if (input[4] > 18.630000000000006) {
                                    var9 = -0.00374651175822962;
                                } else {
                                    var9 = -0.011845084452735527;
                                }
                            }
                        } else {
                            if (input[7] > 0.20500000000000004) {
                                var9 = -0.0002916730513485769;
                            } else {
                                if (input[0] <= -0.7899999999999999) {
                                    var9 = -0.006849127140206596;
                                } else {
                                    var9 = -0.011545755869398516;
                                }
                            }
                        }
                    } else {
                        if (input[2] <= -0.7249999999999999) {
                            var9 = -0.011365948603424715;
                        } else {
                            if (input[6] > 86.50000000000001) {
                                var9 = -0.01134661758432583;
                            } else {
                                var9 = -0.006221555181863634;
                            }
                        }
                    }
                } else {
                    if (input[6] > 77.50000000000001) {
                        if (input[9] > 1.7050000000000003) {
                            var9 = -0.0037223302862710427;
                        } else {
                            if (input[1] > 0.000000000000000000000000000000000010000000180025095) {
                                if (input[1] > 0.92) {
                                    var9 = -0.00038286679424345496;
                                } else {
                                    var9 = 0.013699208328034729;
                                }
                            } else {
                                var9 = -0.0021315563544631005;
                            }
                        }
                    } else {
                        var9 = -0.009456099925312;
                    }
                }
            } else {
                if (input[4] > 21.700000000000006) {
                    if (input[6] > 45.50000000000001) {
                        var9 = 0.002821294023938801;
                    } else {
                        var9 = 0.0129983660774914;
                    }
                } else {
                    var9 = -0.002775576134974306;
                }
            }
        } else {
            if (input[7] > 0.09000000000000001) {
                var9 = 0.00507145767332986;
            } else {
                var9 = 0.02106976840272546;
            }
        }
    }
    var var10;
    if (input[1] <= -0.6049999999999999) {
        if (input[5] > 1018.5000000000001) {
            if (input[0] <= -0.000000000000000000000000000000000010000000180025095) {
                if (input[10] > 3.265) {
                    if (input[9] > 2.4750000000000005) {
                        var10 = 0.019421699829399588;
                    } else {
                        var10 = 0.010821399944169183;
                    }
                } else {
                    var10 = 0.004422671518768766;
                }
            } else {
                if (input[6] > 50.50000000000001) {
                    if (input[5] > 1026.5000000000002) {
                        var10 = 0.007810800980466108;
                    } else {
                        if (input[10] > 2.4450000000000007) {
                            if (input[8] > 72.00000000000001) {
                                var10 = -0.00773064238684518;
                            } else {
                                if (input[4] > 21.570000000000004) {
                                    var10 = -0.005728975227102638;
                                } else {
                                    var10 = -0.0003114239029262377;
                                }
                            }
                        } else {
                            var10 = 0.0009782854700461031;
                        }
                    }
                } else {
                    var10 = 0.010688510164618492;
                }
            }
        } else {
            if (input[1] <= -0.9199999999999998) {
                var10 = 0.02928766550828836;
            } else {
                if (input[2] <= -0.7449999999999999) {
                    var10 = 0.014220238896086812;
                } else {
                    var10 = 0.005317610013662488;
                }
            }
        }
    } else {
        if (input[5] > 1016.5000000000001) {
            if (input[6] > 49.50000000000001) {
                if (input[5] > 1017.5000000000001) {
                    if (input[4] > 16.115000000000006) {
                        if (input[2] <= -0.7099999999999999) {
                            if (input[5] > 1020.5000000000001) {
                                if (input[1] > 0.000000000000000000000000000000000010000000180025095) {
                                    if (input[4] > 18.435000000000006) {
                                        var10 = -0.003590347005852631;
                                    } else {
                                        var10 = 0.006592316332106026;
                                    }
                                } else {
                                    var10 = -0.005458371292637742;
                                }
                            } else {
                                if (input[4] > 19.355000000000004) {
                                    var10 = -0.0026056450631084115;
                                } else {
                                    var10 = -0.010311261670560474;
                                }
                            }
                        } else {
                            if (input[0] <= -0.9199999999999998) {
                                var10 = 0.00023734415458007293;
                            } else {
                                if (input[7] > 0.20500000000000004) {
                                    var10 = -0.0051193080283701425;
                                } else {
                                    var10 = -0.010687885723503618;
                                }
                            }
                        }
                    } else {
                        var10 = -0.009894155185654074;
                    }
                } else {
                    if (input[9] > 2.9950000000000006) {
                        var10 = -0.008668102244181294;
                    } else {
                        if (input[4] > 16.685000000000006) {
                            var10 = -0.006088134452390174;
                        } else {
                            if (input[1] > 0.000000000000000000000000000000000010000000180025095) {
                                if (input[6] > 81.50000000000001) {
                                    var10 = 0.01154718171886128;
                                } else {
                                    var10 = 0.004132520939622607;
                                }
                            } else {
                                var10 = -0.0014671716570424348;
                            }
                        }
                    }
                }
            } else {
                if (input[4] > 21.700000000000006) {
                    if (input[6] > 45.50000000000001) {
                        var10 = 0.002680228942114374;
                    } else {
                        var10 = 0.01234844742540383;
                    }
                } else {
                    var10 = -0.002636798242615028;
                }
            }
        } else {
            if (input[7] > 0.34500000000000003) {
                var10 = 0.001367201998999173;
            } else {
                var10 = 0.01713882806282994;
            }
        }
    }
    var var11;
    if (input[1] <= -0.6049999999999999) {
        if (input[5] > 1018.5000000000001) {
            if (input[0] <= -0.000000000000000000000000000000000010000000180025095) {
                if (input[10] > 3.265) {
                    if (input[9] > 2.4750000000000005) {
                        var11 = 0.01845061503764656;
                    } else {
                        var11 = 0.010280329848007698;
                    }
                } else {
                    var11 = 0.00420153766812291;
                }
            } else {
                if (input[6] > 50.50000000000001) {
                    if (input[5] > 1026.5000000000002) {
                        var11 = 0.007420260730820399;
                    } else {
                        if (input[10] > 2.4450000000000007) {
                            var11 = -0.004216897877631709;
                        } else {
                            var11 = 0.0009293711705443761;
                        }
                    }
                } else {
                    var11 = 0.01015408455580473;
                }
            }
        } else {
            if (input[1] <= -0.9199999999999998) {
                var11 = 0.027823282378625927;
            } else {
                if (input[2] <= -0.7449999999999999) {
                    var11 = 0.013509226978446046;
                } else {
                    var11 = 0.005051729274698748;
                }
            }
        }
    } else {
        if (input[5] > 1016.5000000000001) {
            if (input[6] > 49.50000000000001) {
                if (input[5] > 1017.5000000000001) {
                    if (input[4] > 16.115000000000006) {
                        if (input[2] <= -0.7099999999999999) {
                            if (input[5] > 1020.5000000000001) {
                                if (input[1] > 0.000000000000000000000000000000000010000000180025095) {
                                    if (input[4] > 18.435000000000006) {
                                        var11 = -0.0034108297300658058;
                                    } else {
                                        var11 = 0.006262700656094612;
                                    }
                                } else {
                                    var11 = -0.005185452630014523;
                                }
                            } else {
                                if (input[4] > 18.630000000000006) {
                                    var11 = -0.0033455999215712424;
                                } else {
                                    var11 = -0.01073726671914171;
                                }
                            }
                        } else {
                            if (input[7] > 0.20500000000000004) {
                                var11 = -0.00006576310843229294;
                            } else {
                                if (input[0] <= -0.7899999999999999) {
                                    var11 = -0.006300033494674912;
                                } else {
                                    var11 = -0.010434074066246727;
                                }
                            }
                        }
                    } else {
                        if (input[2] <= -0.7349999999999999) {
                            var11 = -0.010335651286353003;
                        } else {
                            if (input[9] > 1.2950000000000002) {
                                var11 = -0.01093886914221864;
                            } else {
                                var11 = -0.00615471985696231;
                            }
                        }
                    }
                } else {
                    if (input[6] > 77.50000000000001) {
                        if (input[9] > 1.7050000000000003) {
                            var11 = -0.0034552388790029067;
                        } else {
                            if (input[1] > 0.000000000000000000000000000000000010000000180025095) {
                                if (input[1] > 0.92) {
                                    var11 = -0.000519246170297265;
                                } else {
                                    var11 = 0.012688224425073714;
                                }
                            } else {
                                var11 = -0.001905410148203373;
                            }
                        }
                    } else {
                        var11 = -0.008618314114685817;
                    }
                }
            } else {
                if (input[4] > 21.700000000000006) {
                    if (input[6] > 45.50000000000001) {
                        var11 = 0.0025462177460608276;
                    } else {
                        var11 = 0.011731025570947113;
                    }
                } else {
                    var11 = -0.002504957780580629;
                }
            }
        } else {
            if (input[8] > 99.50000000000001) {
                var11 = 0.005044108117628541;
            } else {
                var11 = 0.020198742105540905;
            }
        }
    }
    var var12;
    if (input[1] <= -0.6049999999999999) {
        if (input[5] > 1018.5000000000001) {
            if (input[0] <= -0.000000000000000000000000000000000010000000180025095) {
                if (input[10] > 3.265) {
                    if (input[9] > 2.4750000000000005) {
                        var12 = 0.01752808406535122;
                    } else {
                        var12 = 0.009766313295611846;
                    }
                } else {
                    var12 = 0.00399146065232344;
                }
            } else {
                if (input[6] > 50.50000000000001) {
                    if (input[5] > 1026.5000000000002) {
                        var12 = 0.007049247645772994;
                    } else {
                        if (input[10] > 2.4450000000000007) {
                            if (input[8] > 72.00000000000001) {
                                var12 = -0.00713326551374935;
                            } else {
                                if (input[4] > 21.570000000000004) {
                                    var12 = -0.005231681689620018;
                                } else {
                                    var12 = -0.00008500786903111831;
                                }
                            }
                        } else {
                            var12 = 0.0008829026754635076;
                        }
                    }
                } else {
                    var12 = 0.00964638026058674;
                }
            }
        } else {
            if (input[1] <= -0.9199999999999998) {
                var12 = 0.02643211810716561;
            } else {
                if (input[2] <= -0.7449999999999999) {
                    var12 = 0.012833765971784792;
                } else {
                    var12 = 0.004799142886454669;
                }
            }
        }
    } else {
        if (input[5] > 1016.5000000000001) {
            if (input[6] > 49.50000000000001) {
                if (input[5] > 1017.5000000000001) {
                    if (input[4] > 16.115000000000006) {
                        if (input[2] <= -0.7099999999999999) {
                            if (input[5] > 1020.5000000000001) {
                                if (input[1] > 0.000000000000000000000000000000000010000000180025095) {
                                    if (input[4] > 18.435000000000006) {
                                        var12 = -0.0032402883616409134;
                                    } else {
                                        var12 = 0.005949565768241883;
                                    }
                                } else {
                                    var12 = -0.004926179883920629;
                                }
                            } else {
                                if (input[4] > 19.355000000000004) {
                                    var12 = -0.002308082808579864;
                                } else {
                                    var12 = -0.00934096515330667;
                                }
                            }
                        } else {
                            if (input[0] <= -0.9199999999999998) {
                                var12 = 0.0004838038870895451;
                            } else {
                                if (input[7] > 0.20500000000000004) {
                                    var12 = -0.00486005399376154;
                                } else {
                                    var12 = -0.00965762537222569;
                                }
                            }
                        }
                    } else {
                        var12 = -0.008929475230529171;
                    }
                } else {
                    if (input[9] > 2.9950000000000006) {
                        var12 = -0.00793285851499864;
                    } else {
                        if (input[4] > 16.685000000000006) {
                            var12 = -0.0057228159469862785;
                        } else {
                            if (input[6] > 83.50000000000001) {
                                var12 = -0.0012733716501056084;
                            } else {
                                if (input[0] > 0.38000000000000006) {
                                    var12 = 0.01117962938733399;
                                } else {
                                    var12 = 0.0044296624848530405;
                                }
                            }
                        }
                    }
                }
            } else {
                if (input[4] > 21.700000000000006) {
                    if (input[6] > 45.50000000000001) {
                        var12 = 0.002418906824744266;
                    } else {
                        var12 = 0.0111444742051941;
                    }
                } else {
                    var12 = -0.0023797099520875653;
                }
            }
        } else {
            if (input[7] > 0.34500000000000003) {
                var12 = 0.0007022130049087785;
            } else {
                var12 = 0.01578393060945264;
            }
        }
    }
    var var13;
    if (input[1] <= -0.6049999999999999) {
        if (input[9] > 4.865000000000001) {
            if (input[6] > 44.50000000000001) {
                var13 = 0.010614097430012548;
            } else {
                var13 = 0.022062279130606093;
            }
        } else {
            if (input[5] > 1016.5000000000001) {
                if (input[0] <= -0.000000000000000000000000000000000010000000180025095) {
                    if (input[6] > 48.50000000000001) {
                        var13 = 0.014178109628504472;
                    } else {
                        if (input[6] > 46.50000000000001) {
                            var13 = -0.002787593790245327;
                        } else {
                            var13 = 0.008369224001136091;
                        }
                    }
                } else {
                    if (input[6] > 51.50000000000001) {
                        if (input[6] > 56.50000000000001) {
                            if (input[5] > 1026.5000000000002) {
                                var13 = 0.006696785326736669;
                            } else {
                                if (input[4] > 17.090000000000003) {
                                    if (input[0] > 0.6050000000000001) {
                                        var13 = -0.007727730460464955;
                                    } else {
                                        var13 = 0.0009933048271034894;
                                    }
                                } else {
                                    var13 = 0.006322224227534164;
                                }
                            }
                        } else {
                            var13 = -0.007365735648199916;
                        }
                    } else {
                        var13 = 0.007412540777163072;
                    }
                }
            } else {
                var13 = 0.01584472681248659;
            }
        }
    } else {
        if (input[5] > 1016.5000000000001) {
            if (input[6] > 49.50000000000001) {
                if (input[5] > 1017.5000000000001) {
                    if (input[4] > 16.115000000000006) {
                        if (input[2] <= -0.6949999999999998) {
                            if (input[5] > 1025.5000000000002) {
                                var13 = -0.0076232679584791185;
                            } else {
                                if (input[5] > 1020.5000000000001) {
                                    if (input[10] > 2.0150000000000006) {
                                        if (input[4] > 16.555000000000003) {
                                            if (input[4] > 17.365000000000006) {
                                                var13 = 0.0026397008747153453;
                                            } else {
                                                var13 = 0.009066118886694311;
                                            }
                                        } else {
                                            var13 = -0.0024475733749568466;
                                        }
                                    } else {
                                        var13 = -0.004334603409682002;
                                    }
                                } else {
                                    if (input[4] > 18.630000000000006) {
                                        var13 = -0.0029868847312959465;
                                    } else {
                                        var13 = -0.00973335525652926;
                                    }
                                }
                            }
                        } else {
                            var13 = -0.009277490159930213;
                        }
                    } else {
                        var13 = -0.008483001454070866;
                    }
                } else {
                    if (input[9] > 2.9950000000000006) {
                        var13 = -0.007536215488133687;
                    } else {
                        if (input[4] > 16.685000000000006) {
                            var13 = -0.005436675231127689;
                        } else {
                            if (input[6] > 83.50000000000001) {
                                var13 = -0.0012097032158635557;
                            } else {
                                if (input[0] > 0.38000000000000006) {
                                    var13 = 0.010620647883929668;
                                } else {
                                    var13 = 0.00420817949232601;
                                }
                            }
                        }
                    }
                }
            } else {
                if (input[2] <= -0.7099999999999999) {
                    if (input[9] > 1.7050000000000003) {
                        var13 = -0.002353995842471098;
                    } else {
                        var13 = 0.004803258411843201;
                    }
                } else {
                    var13 = 0.010787913709878923;
                }
            }
        } else {
            if (input[8] > 99.50000000000001) {
                var13 = 0.004247274683989786;
            } else {
                var13 = 0.018742374999617988;
            }
        }
    }
    var var14;
    if (input[7] > 1.9300000000000004) {
        if (input[9] > 4.905) {
            if (input[6] > 43.50000000000001) {
                var14 = 0.011576078099509082;
            } else {
                var14 = 0.021870665463308497;
            }
        } else {
            if (input[5] > 1016.5000000000001) {
                if (input[4] > 21.425000000000004) {
                    if (input[5] > 1021.5000000000001) {
                        if (input[7] > 5.9700000000000015) {
                            var14 = 0.0028332805843092504;
                        } else {
                            var14 = 0.007189650386571884;
                        }
                    } else {
                        var14 = 0.0131483007936428;
                    }
                } else {
                    if (input[6] > 69.50000000000001) {
                        if (input[7] > 3.1700000000000004) {
                            var14 = 0.011186389808300072;
                        } else {
                            var14 = 0.0003210554068738764;
                        }
                    } else {
                        if (input[4] > 20.330000000000002) {
                            var14 = -0.010793004669249059;
                        } else {
                            if (input[0] > 0.38000000000000006) {
                                var14 = -0.004015471673171435;
                            } else {
                                var14 = 0.00886351849961405;
                            }
                        }
                    }
                }
            } else {
                var14 = 0.017303208433664764;
            }
        }
    } else {
        if (input[5] > 1016.5000000000001) {
            if (input[6] > 50.50000000000001) {
                if (input[5] > 1017.5000000000001) {
                    if (input[4] > 16.115000000000006) {
                        if (input[5] > 1025.5000000000002) {
                            var14 = -0.007976029853452929;
                        } else {
                            if (input[8] > 98.50000000000001) {
                                if (input[4] > 16.695000000000004) {
                                    if (input[0] <= -0.9199999999999998) {
                                        var14 = -0.005011748766992241;
                                    } else {
                                        var14 = -0.008455868689010718;
                                    }
                                } else {
                                    var14 = 0.0008113432307972721;
                                }
                            } else {
                                if (input[5] > 1021.5000000000001) {
                                    if (input[2] <= -0.6949999999999998) {
                                        var14 = 0.004517167157438748;
                                    } else {
                                        var14 = -0.0016658328930274227;
                                    }
                                } else {
                                    var14 = -0.004013633772205466;
                                }
                            }
                        }
                    } else {
                        if (input[1] <= -0.000000000000000000000000000000000010000000180025095) {
                            var14 = -0.004720532599215707;
                        } else {
                            var14 = -0.008409636507921375;
                        }
                    }
                } else {
                    if (input[6] > 77.50000000000001) {
                        if (input[8] > 99.50000000000001) {
                            if (input[10] > 3.0750000000000006) {
                                var14 = -0.0035195512979319605;
                            } else {
                                var14 = 0.003262093128717464;
                            }
                        } else {
                            var14 = 0.004863699039237367;
                        }
                    } else {
                        var14 = -0.007551468484318601;
                    }
                }
            } else {
                if (input[2] <= -0.7099999999999999) {
                    if (input[4] > 20.655000000000005) {
                        if (input[0] <= -0.9199999999999998) {
                            var14 = -0.001450774854137784;
                        } else {
                            var14 = 0.006136394859779449;
                        }
                    } else {
                        var14 = -0.003862859222572297;
                    }
                } else {
                    var14 = 0.007744374206023557;
                }
            }
        } else {
            if (input[1] <= -0.37999999999999995) {
                var14 = 0.0012913963793835137;
            } else {
                if (input[7] > 0.09000000000000001) {
                    var14 = 0.010537158516870643;
                } else {
                    var14 = 0.017193979204632344;
                }
            }
        }
    }
    var var15;
    if (input[1] <= -0.6049999999999999) {
        if (input[5] > 1018.5000000000001) {
            if (input[0] <= -0.000000000000000000000000000000000010000000180025095) {
                if (input[10] > 3.265) {
                    if (input[9] > 2.4750000000000005) {
                        var15 = 0.015335347275767061;
                    } else {
                        var15 = 0.008505602616683714;
                    }
                } else {
                    var15 = 0.0031431268365122375;
                }
            } else {
                if (input[6] > 50.50000000000001) {
                    if (input[5] > 1026.5000000000002) {
                        var15 = 0.006099001657761013;
                    } else {
                        if (input[10] > 2.4450000000000007) {
                            if (input[8] > 72.00000000000001) {
                                var15 = -0.006744273698755673;
                            } else {
                                var15 = -0.0020874695214821936;
                            }
                        } else {
                            var15 = 0.0008340080016447852;
                        }
                    }
                } else {
                    var15 = 0.008511263012886048;
                }
            }
        } else {
            if (input[1] <= -0.9199999999999998) {
                var15 = 0.023536555873496193;
            } else {
                if (input[2] <= -0.7449999999999999) {
                    var15 = 0.010812823283777107;
                } else {
                    var15 = 0.003519090458016413;
                }
            }
        }
    } else {
        if (input[5] > 1016.5000000000001) {
            if (input[6] > 49.50000000000001) {
                if (input[5] > 1017.5000000000001) {
                    if (input[4] > 16.115000000000006) {
                        if (input[2] <= -0.6949999999999998) {
                            if (input[5] > 1025.5000000000002) {
                                if (input[1] > 0.38000000000000006) {
                                    var15 = -0.008604434705339373;
                                } else {
                                    var15 = -0.003942654910497368;
                                }
                            } else {
                                if (input[5] > 1020.5000000000001) {
                                    if (input[10] > 2.0150000000000006) {
                                        if (input[4] > 16.555000000000003) {
                                            if (input[4] > 17.365000000000006) {
                                                var15 = 0.002378071806015214;
                                            } else {
                                                var15 = 0.008547250111587346;
                                            }
                                        } else {
                                            var15 = -0.0023550007277383257;
                                        }
                                    } else {
                                        var15 = -0.004001417152938389;
                                    }
                                } else {
                                    if (input[4] > 19.355000000000004) {
                                        var15 = -0.0018323363800501003;
                                    } else {
                                        var15 = -0.008105135874615775;
                                    }
                                }
                            }
                        } else {
                            var15 = -0.008521294924591123;
                        }
                    } else {
                        var15 = -0.007658730622475469;
                    }
                } else {
                    if (input[9] > 2.9950000000000006) {
                        var15 = -0.0068826293107122185;
                    } else {
                        if (input[4] > 16.685000000000006) {
                            var15 = -0.005053752330907931;
                        } else {
                            if (input[6] > 83.50000000000001) {
                                var15 = -0.0011644078701335406;
                            } else {
                                if (input[4] > 15.010000000000002) {
                                    var15 = 0.009987800686874174;
                                } else {
                                    var15 = 0.0034583428362384445;
                                }
                            }
                        }
                    }
                }
            } else {
                if (input[4] > 21.700000000000006) {
                    if (input[6] > 45.50000000000001) {
                        var15 = 0.0018102930453808412;
                    } else {
                        var15 = 0.009874940482955992;
                    }
                } else {
                    var15 = -0.0022208720318634403;
                }
            }
        } else {
            if (input[7] > 0.34500000000000003) {
                var15 = -0.0001493961825458841;
            } else {
                var15 = 0.013795563898275834;
            }
        }
    }
    var var16;
    if (input[1] <= -0.6049999999999999) {
        if (input[5] > 1018.5000000000001) {
            if (input[0] <= -0.000000000000000000000000000000000010000000180025095) {
                if (input[10] > 3.265) {
                    if (input[9] > 2.4750000000000005) {
                        var16 = 0.014568579486674733;
                    } else {
                        var16 = 0.008080322591454856;
                    }
                } else {
                    var16 = 0.002985970685258508;
                }
            } else {
                if (input[6] > 50.50000000000001) {
                    if (input[5] > 1026.5000000000002) {
                        var16 = 0.00579405169604191;
                    } else {
                        if (input[10] > 2.4450000000000007) {
                            var16 = -0.0034347091465406266;
                        } else {
                            var16 = 0.0007923079091900339;
                        }
                    }
                } else {
                    var16 = 0.008085700087249278;
                }
            }
        } else {
            if (input[1] <= -0.9199999999999998) {
                var16 = 0.022359727961676464;
            } else {
                if (input[2] <= -0.7449999999999999) {
                    var16 = 0.010272182138093437;
                } else {
                    var16 = 0.0033431360372700373;
                }
            }
        }
    } else {
        if (input[5] > 1016.5000000000001) {
            if (input[6] > 49.50000000000001) {
                if (input[5] > 1017.5000000000001) {
                    if (input[4] > 16.115000000000006) {
                        if (input[2] <= -0.6949999999999998) {
                            if (input[5] > 1025.5000000000002) {
                                if (input[1] > 0.38000000000000006) {
                                    var16 = -0.008174212852027267;
                                } else {
                                    var16 = -0.0037455222569406036;
                                }
                            } else {
                                if (input[5] > 1020.5000000000001) {
                                    if (input[10] > 2.0150000000000006) {
                                        if (input[4] > 16.555000000000003) {
                                            if (input[4] > 17.365000000000006) {
                                                var16 = 0.0022591682623897213;
                                            } else {
                                                var16 = 0.008119887397624552;
                                            }
                                        } else {
                                            var16 = -0.0022372508708101055;
                                        }
                                    } else {
                                        var16 = -0.0038013463751191186;
                                    }
                                } else {
                                    if (input[4] > 18.630000000000006) {
                                        var16 = -0.0024472866817755075;
                                    } else {
                                        var16 = -0.008468818059191108;
                                    }
                                }
                            }
                        } else {
                            var16 = -0.008095230219949937;
                        }
                    } else {
                        if (input[2] <= -0.7249999999999999) {
                            var16 = -0.008142333699084103;
                        } else {
                            var16 = -0.005915420874702915;
                        }
                    }
                } else {
                    if (input[6] > 77.50000000000001) {
                        if (input[7] > 0.4050000000000001) {
                            var16 = -0.0033948258951899007;
                        } else {
                            if (input[9] > 1.7050000000000003) {
                                var16 = -0.0034612477249042553;
                            } else {
                                if (input[1] > 0.92) {
                                    var16 = -0.0013876067474484445;
                                } else {
                                    var16 = 0.0094745566486381;
                                }
                            }
                        }
                    } else {
                        var16 = -0.006900894487849795;
                    }
                }
            } else {
                if (input[2] <= -0.7099999999999999) {
                    if (input[9] > 1.7050000000000003) {
                        var16 = -0.0023308956500841306;
                    } else {
                        var16 = 0.004250472260574843;
                    }
                } else {
                    var16 = 0.00941583452001214;
                }
            }
        } else {
            if (input[8] > 99.50000000000001) {
                var16 = 0.0030024306949328733;
            } else {
                var16 = 0.01685007999397137;
            }
        }
    }
    var var17;
    if (input[1] <= -0.6049999999999999) {
        if (input[5] > 1018.5000000000001) {
            if (input[0] <= -0.000000000000000000000000000000000010000000180025095) {
                if (input[10] > 3.265) {
                    if (input[9] > 2.4750000000000005) {
                        var17 = 0.01384015064686537;
                    } else {
                        var17 = 0.007676306506618858;
                    }
                } else {
                    var17 = 0.0028366721118800345;
                }
            } else {
                if (input[6] > 51.50000000000001) {
                    if (input[5] > 1024.5000000000002) {
                        if (input[2] <= -0.6949999999999998) {
                            var17 = 0.006018551878615058;
                        } else {
                            var17 = -0.0011408368028545132;
                        }
                    } else {
                        if (input[7] > 5.310000000000001) {
                            var17 = -0.0003581178152341057;
                        } else {
                            var17 = -0.006412723536292713;
                        }
                    }
                } else {
                    var17 = 0.007093606876402066;
                }
            }
        } else {
            if (input[1] <= -0.9199999999999998) {
                var17 = 0.02124174153166158;
            } else {
                if (input[2] <= -0.7449999999999999) {
                    var17 = 0.009758573029345524;
                } else {
                    var17 = 0.0031759793798510844;
                }
            }
        }
    } else {
        if (input[5] > 1016.5000000000001) {
            if (input[6] > 49.50000000000001) {
                if (input[5] > 1017.5000000000001) {
                    if (input[4] > 16.115000000000006) {
                        if (input[2] <= -0.6949999999999998) {
                            if (input[5] > 1025.5000000000002) {
                                if (input[1] > 0.38000000000000006) {
                                    var17 = -0.007765502310357989;
                                } else {
                                    var17 = -0.0035582460618267457;
                                }
                            } else {
                                if (input[5] > 1020.5000000000001) {
                                    if (input[10] > 2.0150000000000006) {
                                        if (input[4] > 16.555000000000003) {
                                            if (input[4] > 17.365000000000006) {
                                                var17 = 0.0021462097589392214;
                                            } else {
                                                var17 = 0.007713892811443657;
                                            }
                                        } else {
                                            var17 = -0.002125388147452703;
                                        }
                                    } else {
                                        var17 = -0.003611279083859353;
                                    }
                                } else {
                                    if (input[4] > 19.355000000000004) {
                                        var17 = -0.0016183551786274745;
                                    } else {
                                        var17 = -0.007343344280121124;
                                    }
                                }
                            }
                        } else {
                            var17 = -0.007690468803048134;
                        }
                    } else {
                        var17 = -0.0069120045572082876;
                    }
                } else {
                    if (input[9] > 2.9950000000000006) {
                        var17 = -0.006279444142377803;
                    } else {
                        if (input[4] > 16.685000000000006) {
                            var17 = -0.004720206841011532;
                        } else {
                            if (input[1] > 0.000000000000000000000000000000000010000000180025095) {
                                if (input[6] > 81.50000000000001) {
                                    var17 = 0.009498553852672162;
                                } else {
                                    var17 = 0.0028215658097040085;
                                }
                            } else {
                                var17 = -0.0015650871039654774;
                            }
                        }
                    }
                }
            } else {
                if (input[8] > 87.00000000000001) {
                    var17 = -0.0015189455938525499;
                } else {
                    if (input[6] > 45.50000000000001) {
                        var17 = 0.001386186179633324;
                    } else {
                        var17 = 0.01119361136538478;
                    }
                }
            }
        } else {
            if (input[7] > 0.34500000000000003) {
                var17 = -0.0006067672575061972;
            } else {
                var17 = 0.012731108185205911;
            }
        }
    }
    return var0 + var1 + var2 + var3 + var4 + var5 + var6 + var7 + var8 + var9 + var10 + var11 + var12 + var13 + var14 + var15 + var16 + var17;
}
