export function wind_score2(input) {
    var var0;
    if (input[1] <= -0.6049999999999999) {
        if (input[9] > 4.865000000000001) {
            if (input[6] > 44.50000000000001) {
                var0 = 0.36367268872189795;
            } else {
                var0 = 0.3807993857123384;
            }
        } else {
            if (input[5] > 1016.5000000000001) {
                if (input[0] <= -0.000000000000000000000000000000000010000000180025095) {
                    if (input[10] > 3.265) {
                        if (input[4] > 23.970000000000002) {
                            var0 = 0.35597201965040104;
                        } else {
                            var0 = 0.3677111502188082;
                        }
                    } else {
                        var0 = 0.34883615023557196;
                    }
                } else {
                    if (input[7] > 4.410000000000001) {
                        if (input[4] > 20.655000000000005) {
                            var0 = 0.35282226121360744;
                        } else {
                            var0 = 0.3428582086270773;
                        }
                    } else {
                        if (input[4] > 17.235000000000003) {
                            var0 = 0.33684158459487434;
                        } else {
                            var0 = 0.3434611497084434;
                        }
                    }
                }
            } else {
                var0 = 0.36929009770683063;
            }
        }
    } else {
        if (input[5] > 1016.5000000000001) {
            if (input[6] > 49.50000000000001) {
                if (input[5] > 1017.5000000000001) {
                    if (input[4] > 16.115000000000006) {
                        if (input[2] <= -0.7099999999999999) {
                            if (input[6] > 76.50000000000001) {
                                if (input[1] > 0.000000000000000000000000000000000010000000180025095) {
                                    var0 = 0.3479675601251367;
                                } else {
                                    var0 = 0.3319611498351033;
                                }
                            } else {
                                if (input[4] > 18.705000000000002) {
                                    if (input[4] > 20.330000000000002) {
                                        var0 = 0.3303897209754969;
                                    } else {
                                        var0 = 0.3387405614959393;
                                    }
                                } else {
                                    var0 = 0.32549961091478097;
                                }
                            }
                        } else {
                            if (input[0] <= -0.9199999999999998) {
                                var0 = 0.339756604452693;
                            } else {
                                if (input[7] > 0.20500000000000004) {
                                    var0 = 0.33121114957247033;
                                } else {
                                    var0 = 0.3239611493848864;
                                }
                            }
                        }
                    } else {
                        if (input[2] <= -0.7349999999999999) {
                            var0 = 0.32294675141654133;
                        } else {
                            if (input[6] > 86.50000000000001) {
                                var0 = 0.3233233942588102;
                            } else {
                                if (input[10] > 2.3200000000000007) {
                                    var0 = 0.32533019710610234;
                                } else {
                                    var0 = 0.33197040893100166;
                                }
                            }
                        }
                    }
                } else {
                    if (input[6] > 77.50000000000001) {
                        if (input[8] > 99.50000000000001) {
                            if (input[10] > 3.095) {
                                var0 = 0.3344758556869965;
                            } else {
                                var0 = 0.3455957654400839;
                            }
                        } else {
                            var0 = 0.3500722613371629;
                        }
                    } else {
                        var0 = 0.3259803802458465;
                    }
                }
            } else {
                if (input[4] > 21.655000000000005) {
                    if (input[6] > 45.50000000000001) {
                        var0 = 0.3459720196390632;
                    } else {
                        var0 = 0.36089296851972275;
                    }
                } else {
                    var0 = 0.3361202404996797;
                }
            }
        } else {
            if (input[7] > 0.09000000000000001) {
                var0 = 0.35006409115861326;
            } else {
                var0 = 0.37391115009885384;
            }
        }
    }
    var var1;
    if (input[1] <= -0.6049999999999999) {
        if (input[9] > 4.865000000000001) {
            if (input[6] > 44.50000000000001) {
                var1 = 0.02277790388235679;
            } else {
                var1 = 0.03904826474266456;
            }
        } else {
            if (input[5] > 1016.5000000000001) {
                if (input[0] <= -0.000000000000000000000000000000000010000000180025095) {
                    if (input[10] > 3.265) {
                        if (input[4] > 23.970000000000002) {
                            var1 = 0.015462268978033378;
                        } else {
                            var1 = 0.026614442653954032;
                        }
                    } else {
                        var1 = 0.008683192851021886;
                    }
                } else {
                    if (input[7] > 4.410000000000001) {
                        if (input[4] > 20.655000000000005) {
                            if (input[6] > 57.50000000000001) {
                                var1 = 0.009442220240210493;
                            } else {
                                var1 = 0.01593031549737567;
                            }
                        } else {
                            var1 = 0.003004148865447325;
                        }
                    } else {
                        if (input[4] > 17.235000000000003) {
                            var1 = -0.0027116442828074745;
                        } else {
                            var1 = 0.0035769421979784965;
                        }
                    }
                }
            } else {
                var1 = 0.02811444252729416;
            }
        }
    } else {
        if (input[5] > 1016.5000000000001) {
            if (input[6] > 49.50000000000001) {
                if (input[5] > 1017.5000000000001) {
                    if (input[4] > 16.115000000000006) {
                        if (input[2] <= -0.7099999999999999) {
                            if (input[6] > 76.50000000000001) {
                                if (input[1] > 0.000000000000000000000000000000000010000000180025095) {
                                    var1 = 0.007858032002471961;
                                } else {
                                    var1 = -0.007348057404160499;
                                }
                            } else {
                                if (input[4] > 18.705000000000002) {
                                    if (input[4] > 20.330000000000002) {
                                        var1 = -0.008840914200326162;
                                    } else {
                                        var1 = -0.0009076162734452417;
                                    }
                                } else {
                                    var1 = -0.013486519584862086;
                                }
                            }
                        } else {
                            if (input[0] <= -0.9199999999999998) {
                                var1 = 0.00005762439051812345;
                            } else {
                                if (input[7] > 0.20500000000000004) {
                                    var1 = -0.008060557320713998;
                                } else {
                                    var1 = -0.01494805695838295;
                                }
                            }
                        }
                    } else {
                        if (input[2] <= -0.7349999999999999) {
                            var1 = -0.01591173574640489;
                        } else {
                            if (input[6] > 86.50000000000001) {
                                var1 = -0.015553925003932448;
                            } else {
                                var1 = -0.010099099297076464;
                            }
                        }
                    }
                } else {
                    if (input[6] > 77.50000000000001) {
                        if (input[8] > 99.50000000000001) {
                            if (input[10] > 3.095) {
                                var1 = -0.004959086619098397;
                            } else {
                                var1 = 0.005604827052985247;
                            }
                        } else {
                            var1 = 0.00985749820764694;
                        }
                    } else {
                        var1 = -0.013029788807034494;
                    }
                }
            } else {
                if (input[4] > 21.655000000000005) {
                    if (input[6] > 45.50000000000001) {
                        var1 = 0.005962268765205923;
                    } else {
                        var1 = 0.020137170149069846;
                    }
                } else {
                    var1 = -0.0033969214694066483;
                }
            }
        } else {
            if (input[7] > 0.09000000000000001) {
                var1 = 0.009849736697095282;
            } else {
                var1 = 0.0325044424533844;
            }
        }
    }
    var var2;
    if (input[1] <= -0.6049999999999999) {
        if (input[9] > 4.865000000000001) {
            if (input[6] > 44.50000000000001) {
                var2 = 0.02163900855498818;
            } else {
                var2 = 0.03709585279061952;
            }
        } else {
            if (input[5] > 1016.5000000000001) {
                if (input[0] <= -0.000000000000000000000000000000000010000000180025095) {
                    if (input[6] > 48.50000000000001) {
                        var2 = 0.02127926321768695;
                    } else {
                        if (input[6] > 46.50000000000001) {
                            var2 = 0.0011879850485870108;
                        } else {
                            var2 = 0.015698358609720513;
                        }
                    }
                } else {
                    if (input[7] > 4.410000000000001) {
                        if (input[4] > 20.655000000000005) {
                            var2 = 0.01184649820956919;
                        } else {
                            var2 = 0.002853941172361374;
                        }
                    } else {
                        if (input[10] > 3.095) {
                            var2 = 0.0015399059041952476;
                        } else {
                            var2 = -0.004096046835184097;
                        }
                    }
                }
            } else {
                var2 = 0.026708720183294073;
            }
        }
    } else {
        if (input[5] > 1016.5000000000001) {
            if (input[6] > 49.50000000000001) {
                if (input[5] > 1017.5000000000001) {
                    if (input[4] > 16.115000000000006) {
                        if (input[2] <= -0.7099999999999999) {
                            if (input[6] > 76.50000000000001) {
                                if (input[1] > 0.000000000000000000000000000000000010000000180025095) {
                                    var2 = 0.007465130420258412;
                                } else {
                                    var2 = -0.006980654448270798;
                                }
                            } else {
                                if (input[4] > 18.705000000000002) {
                                    if (input[4] > 20.330000000000002) {
                                        var2 = -0.008398869344299394;
                                    } else {
                                        var2 = -0.0008622356854817448;
                                    }
                                } else {
                                    var2 = -0.012812192967304818;
                                }
                            }
                        } else {
                            if (input[0] <= -0.9199999999999998) {
                                var2 = 0.00005474352193149654;
                            } else {
                                if (input[7] > 0.20500000000000004) {
                                    var2 = -0.0076575299771502615;
                                } else {
                                    var2 = -0.01420065485969341;
                                }
                            }
                        }
                    } else {
                        if (input[2] <= -0.7349999999999999) {
                            var2 = -0.01511614933531946;
                        } else {
                            if (input[6] > 86.50000000000001) {
                                var2 = -0.014776228930877182;
                            } else {
                                if (input[10] > 2.3200000000000007) {
                                    var2 = -0.013142506702847424;
                                } else {
                                    var2 = -0.006834306071201961;
                                }
                            }
                        }
                    }
                } else {
                    if (input[6] > 77.50000000000001) {
                        if (input[8] > 99.50000000000001) {
                            if (input[10] > 3.095) {
                                var2 = -0.004711132452768438;
                            } else {
                                var2 = 0.005324586316083487;
                            }
                        } else {
                            var2 = 0.009364623519488509;
                        }
                    } else {
                        var2 = -0.01237829829602001;
                    }
                }
            } else {
                if (input[4] > 21.655000000000005) {
                    if (input[6] > 45.50000000000001) {
                        var2 = 0.005664155259728432;
                    } else {
                        var2 = 0.019130311488653674;
                    }
                } else {
                    var2 = -0.0032270751216194847;
                }
            }
        } else {
            if (input[7] > 0.09000000000000001) {
                var2 = 0.009357249939485508;
            } else {
                var2 = 0.030879220485687253;
            }
        }
    }
    var var3;
    if (input[7] > 1.8350000000000002) {
        if (input[9] > 4.905) {
            if (input[6] > 44.50000000000001) {
                var3 = 0.021470519929425794;
            } else {
                var3 = 0.035246063582599164;
            }
        } else {
            if (input[4] > 20.865000000000006) {
                if (input[4] > 21.995000000000005) {
                    if (input[8] > 27.500000000000004) {
                        var3 = 0.015532702140701125;
                    } else {
                        var3 = 0.005330659096708169;
                    }
                } else {
                    var3 = 0.03471422189613804;
                }
            } else {
                if (input[8] > 99.50000000000001) {
                    var3 = 0.011504053812602472;
                } else {
                    if (input[8] > 66.00000000000001) {
                        if (input[6] > 52.50000000000001) {
                            var3 = -0.00682009271113202;
                        } else {
                            var3 = 0.002761553160168908;
                        }
                    } else {
                        if (input[4] > 19.055000000000003) {
                            var3 = 0.011938140505836123;
                        } else {
                            var3 = 0.004613060340107907;
                        }
                    }
                }
            }
        }
    } else {
        if (input[5] > 1016.5000000000001) {
            if (input[6] > 50.50000000000001) {
                if (input[5] > 1017.5000000000001) {
                    if (input[4] > 16.115000000000006) {
                        if (input[5] > 1025.5000000000002) {
                            var3 = -0.012505900170654059;
                        } else {
                            if (input[5] > 1020.5000000000001) {
                                if (input[2] <= -0.6949999999999998) {
                                    if (input[10] > 2.1800000000000006) {
                                        if (input[8] > 88.50000000000001) {
                                            if (input[4] > 16.555000000000003) {
                                                var3 = 0.009689540686386248;
                                            } else {
                                                var3 = -0.0006417766989519199;
                                            }
                                        } else {
                                            var3 = -0.002394991624971916;
                                        }
                                    } else {
                                        var3 = -0.006981549616903067;
                                    }
                                } else {
                                    if (input[4] > 25.575000000000003) {
                                        var3 = 0.002330154095861045;
                                    } else {
                                        var3 = -0.013358738617454138;
                                    }
                                }
                            } else {
                                if (input[4] > 19.355000000000004) {
                                    var3 = -0.001829938950518576;
                                } else {
                                    var3 = -0.013753236168805433;
                                }
                            }
                        }
                    } else {
                        if (input[2] <= -0.7349999999999999) {
                            var3 = -0.014357848437847915;
                        } else {
                            var3 = -0.011601303410164283;
                        }
                    }
                } else {
                    if (input[6] > 77.50000000000001) {
                        if (input[8] > 99.50000000000001) {
                            if (input[10] > 3.095) {
                                var3 = -0.004119069800909722;
                            } else {
                                var3 = 0.004782436658506808;
                            }
                        } else {
                            var3 = 0.008896392056097586;
                        }
                    } else {
                        var3 = -0.011759384353130233;
                    }
                }
            } else {
                if (input[4] > 21.655000000000005) {
                    if (input[6] > 45.50000000000001) {
                        var3 = 0.005698755648183195;
                    } else {
                        var3 = 0.015511002323829518;
                    }
                } else {
                    var3 = -0.002590705188750117;
                }
            }
        } else {
            if (input[7] > 0.09000000000000001) {
                if (input[1] <= -0.37999999999999995) {
                    var3 = 0.0066824839704416016;
                } else {
                    var3 = 0.01721826417540962;
                }
            } else {
                var3 = 0.029335258156061174;
            }
        }
    }
    return var0 + var1 + var2 + var3;
}
